1345 100
/location/country/form_of_government	0.107203335,-0.15373626,0.100235336,0.059983987,0.021483958,0.066991694,0.27715507,-0.10615332,-0.002826234,-0.060042467,-0.048249293,-0.00030692358,-0.048795167,-0.0146588925,-0.025179662,0.022883043,0.088713214,-0.0122856535,0.010042882,-0.098319754,0.072158605,-0.08380496,0.11665283,-0.16979828,-0.17713939,-0.057638448,0.011754804,-0.052285556,-0.013784048,0.050393447,-0.0033090028,0.08890773,0.06996226,0.089300275,0.13539429,0.14784153,0.13395123,0.083234444,0.0018019124,0.023935372,0.19028167,0.14693838,-0.0076101604,0.06652556,-0.11797415,0.0679882,0.08828996,0.076477386,-0.10634953,0.009168402,0.016080279,-0.070277944,0.021093769,0.23108882,-0.07516197,0.16156207,0.06422904,0.03292557,-0.0789682,0.106840506,-0.040763512,0.08772484,0.17653583,0.010928022,-0.017867075,-0.09043266,-0.011882334,-0.04675467,0.0905707,-0.10606107,0.024131756,-0.040813863,0.02477627,-0.07853367,-0.2042705,0.10560074,0.15469529,-0.034816645,0.021403,-0.0036296274,0.13509598,-0.06881692,0.050883703,0.193997,0.19558036,0.103545,0.0022404955,0.25163075,-0.08633211,0.118188,-0.14582838,0.11040907,-0.014843182,0.12410807,-0.024491051,-0.07328265,-0.10080039,-0.08248196,-0.04314527,-0.028132174
/tv/tv_program/regular_cast./tv/regular_tv_appearance/actor	0.084163606,0.12878296,0.24876454,-0.0010846083,-0.12471406,0.08428217,-0.019137276,-0.027673597,0.021756921,0.023117991,0.11855288,-0.12795085,-0.10244262,0.03204275,-0.113020465,-0.018711815,0.04306739,-0.024004644,-0.06184387,0.025682041,-0.06891955,-0.12666564,0.010624254,0.048231862,-0.28311676,0.10602054,0.004164319,0.103169486,0.005634111,0.032128632,0.05069045,0.13267891,0.13119166,0.010531889,0.16249679,-0.06763883,0.17654502,-0.087935664,-0.06516261,-0.17496097,-0.052450012,0.026796872,0.20010665,0.0106169125,-0.08417579,0.13381396,-0.054415356,0.029839702,-0.040200725,0.08477824,0.049279366,-0.034252312,0.20119186,-0.23615861,0.14171487,0.16065569,0.044217136,0.006816148,-0.11409696,0.09988573,0.0070759594,0.0051297746,-0.007008964,-0.05721708,0.12615667,-0.037881467,-0.07744639,0.05299211,-0.061935432,0.18555988,-0.039506946,0.06485769,0.026030343,0.027580762,0.0006473716,0.04032794,-0.025415,0.028363245,0.008166316,0.07481163,0.14281811,-0.030103251,0.01583058,-0.019737236,0.0029234176,0.114308484,0.08556376,0.17321433,0.023280034,0.061185785,0.03457983,-0.076399066,-0.03468522,-0.3360474,0.010125674,-0.07982193,-0.023358362,-0.08784997,0.055213273,-0.045630675
/media_common/netflix_genre/titles	-0.13543315,-0.016668543,0.06671231,-0.06737996,-0.19517396,0.09241192,-0.08738209,-0.023641786,-0.10485655,0.07359536,0.15166342,0.014718741,-0.19618236,0.06350727,0.047707208,0.0618649,0.08198165,-0.048486788,0.03583705,0.111120194,0.13896926,0.11232905,-0.03308334,-0.00644994,-0.1272436,0.06255762,-0.14711191,0.111351304,0.032231886,-0.025112692,-0.056440458,-0.14918493,0.03562009,0.039146584,-0.060627304,-0.031103818,-0.0064296946,-0.24875431,0.020970631,0.09866307,0.11996854,-0.07369586,-0.08425566,0.10907428,0.029643176,-0.06630443,-0.059279066,0.23957007,-0.043846186,-0.016499558,0.13506198,-0.069279894,0.061726607,0.17809625,-0.051483374,0.023322929,0.09546368,-0.03299268,0.0011810856,0.02282683,0.010293483,0.083306305,0.015038551,-0.071401864,-0.24763128,-0.07264944,0.04080991,0.22761007,0.07968133,-0.09622461,-0.08242964,-0.011759148,0.081379496,0.07024331,-0.087411374,0.080072075,-0.0021387832,-0.19005428,-0.086733595,0.12453079,0.0028420012,-0.03154563,-0.0369766,-0.053316794,-0.07337931,-0.2669056,0.11747402,0.1433262,0.08348258,0.16163875,0.055100847,0.07648568,0.088557854,-0.010046844,0.033293482,0.06970661,0.05176326,-0.02247363,-0.09127907,0.04307544
/award/award_winner/awards_won./award/award_honor/award_winner	0.26454467,0.12828088,-0.025219142,-0.06428104,0.0033948137,0.0014476118,0.0866198,0.04345662,-0.1002224,-0.013369044,-0.19146563,0.060738105,0.02437391,0.07144459,-0.1729258,0.12840733,-0.072181016,0.14905798,0.14227457,-0.15225737,0.1289264,0.12535125,-0.014438993,0.07506961,-0.19251439,-0.078874335,0.027862946,-0.092949696,-0.08893719,0.055733554,-0.14245746,-0.02337807,-0.09732361,-0.00071899954,-0.14347617,0.22394326,-0.1003899,-0.011860671,0.050914925,0.0045352704,-0.09047571,0.052810293,0.09369979,-0.11787133,-0.095949054,-0.17133765,-0.13066302,0.025471238,0.019426594,0.05110233,0.072851524,-0.18095131,-0.05310326,0.16027617,0.10135799,-0.01210697,0.026993178,0.11123558,-0.040147685,0.1380845,0.052272484,0.009345314,-0.084764965,-0.024891656,0.008519537,0.025062716,-0.004992215,0.022999058,-0.1300599,0.20969647,0.10238365,-0.012120325,0.030030448,0.0020088234,-0.01553022,-0.035930175,-0.05358788,0.035379812,-0.032815173,-0.034198504,-0.00051651435,-0.112720706,0.031598363,-0.22059211,-0.17256024,-0.19348635,-0.021301577,0.018325089,0.033269003,-0.102162994,0.14914879,-0.14053941,-0.087342955,-0.0660301,-0.01077631,0.011184749,0.09868823,-0.0051936633,-0.06305039,-0.08301202
/soccer/football_team/current_roster./sports/sports_team_roster/position	-0.03412874,-0.10143483,0.01286789,0.00046230547,-0.08017969,-0.07049133,0.03478064,0.013881801,-0.02178074,0.13084081,0.03058355,-0.004554213,0.13504413,-0.011636322,-0.097197466,0.06744045,0.013217229,0.0426218,-0.154624,-0.11784649,-0.110672295,-0.01861498,-0.28079647,-0.04093967,0.18076047,0.04376596,0.036454026,0.0008244008,0.061558302,-0.21746585,0.050810885,-0.051510204,-0.05439201,0.029353417,-0.0018028686,-0.08052053,0.1539954,-0.07071964,-0.076558255,0.05403106,-0.035636935,0.001114028,0.003660192,-0.18461047,-0.06251264,-0.10631547,0.0033745936,-0.09949776,-0.033783473,-0.12643254,-0.16818227,-0.09238909,0.12701084,0.08861607,0.22962478,-0.039329194,-0.13665631,-0.0768542,-0.088064104,0.13735908,-0.09920559,-0.17305471,0.11121743,-0.101176985,-0.18538113,0.04195145,-0.00023954107,-0.07118893,-0.044728108,0.038017437,-0.008104148,-0.110195585,0.040234864,-0.06259914,0.021327995,0.24314904,-0.048665617,-0.116608456,0.075276025,0.096575744,-0.012402605,-0.22560927,0.060111873,0.054477952,-0.04320205,0.22360997,-0.0015050663,-0.07553339,0.02547211,0.05814753,-0.08035944,0.14670953,0.15588906,0.02081491,0.009908865,0.10633588,0.0021971415,-0.10850563,0.110455014,-0.043540932
/sports/sports_position/players./soccer/football_roster_position/team	-0.06380374,-0.020603249,-0.042228945,0.0073135337,0.066382885,0.06760467,-0.0013485095,0.0064919074,0.0705666,0.016789673,0.00082001305,-0.02471133,-0.0854659,-0.10975748,-0.022828177,-0.10392746,0.115498826,-0.013093812,0.17584309,0.13575985,-0.22373192,-0.005031556,-0.010239605,0.31740022,0.10641514,0.03288836,0.033018515,0.2676746,-0.20260517,0.051415026,-0.1484207,-0.07541798,0.08417239,-0.06711178,-0.006316673,0.11852905,0.044297617,0.048294444,0.14324391,-0.038871564,0.06284081,-0.0438589,-0.12242904,-0.15434484,0.017938493,0.025845876,-0.1671184,0.07617631,0.061219245,-0.027227577,0.033672567,0.22930439,0.022909667,-0.039985232,0.01560684,-0.017278947,-0.09113582,-0.032879177,-0.059253674,0.070961215,-0.19279882,0.05791545,0.14783257,0.04705208,-0.15330166,-0.0541805,-0.12228605,0.12032347,-0.026265355,0.011035655,0.08976222,0.13740191,-0.034314744,0.0068494044,-0.082792744,0.016141826,-0.014093279,-0.01662126,-0.018533569,0.022303782,-0.0016222482,-0.1686252,-0.009245254,0.1390089,-0.034090865,0.0014692087,-0.07552478,0.15077217,-0.055442568,0.021863595,-0.06953562,0.05836501,-0.024293218,-0.049731113,-0.07787283,-0.10308709,-0.19419396,-0.046348322,0.0067693302,-0.25376767
/government/political_district/representatives./government/government_position_held/legislative_sessions	0.07588623,-0.0018444782,0.0641901,-0.0032714787,0.019734867,0.025701342,-0.10204914,-0.13753703,-0.19553015,-0.1296915,-0.0347044,-0.062277492,0.13891518,0.07961586,-0.13185401,-0.037540104,0.037223145,0.02796662,0.2249211,0.023411114,0.13182305,0.12225798,-0.0026124667,0.1416203,0.013686658,-0.067492954,-0.022142034,-0.053596713,0.11237753,0.17389467,0.18614654,0.02123087,0.011971356,-0.10406688,0.01610307,-0.2078437,0.008593042,0.14380412,0.03374789,-0.029786708,0.02421544,-0.0043025976,-0.040141374,-0.04670119,-0.0012886381,-0.031870898,0.030977963,0.08666196,0.00904719,0.0380375,0.034605715,0.01610396,0.11388193,-0.053778883,-0.06043479,0.039491575,0.023837496,-0.0067373225,-0.09451215,-0.027378896,-0.12562837,0.01843888,-0.08944063,0.24141638,0.021336813,0.07977465,-0.222129,-0.08328824,0.06105426,0.17457296,0.081526056,0.067937635,-0.10610857,0.1031438,0.08081035,-0.13757,0.13681564,0.050850216,-0.07129169,0.078108825,-0.07778563,0.037483416,-0.3779481,-0.12881729,-0.052361593,0.0390717,0.072338454,0.09011226,-0.124799624,0.07072402,0.053540938,-0.10633091,0.13079059,0.048074566,-0.10534678,-0.106967136,-0.0521921,0.024209153,-0.023059828,-0.045509513
/film/film/starring./film/performance/actor	0.06159016,0.035369437,-0.2502428,0.075561576,-0.12632647,-0.16670978,-0.083676286,-0.14155085,-0.096101746,-0.18668461,-0.11924856,-0.031613745,-0.023415051,0.030484093,0.24618945,-0.12919325,0.072545245,0.092957996,-0.08063248,-0.08922556,-0.048881218,-0.11765395,-0.070382826,0.07881261,-0.10526488,0.015090647,-0.14350136,-0.017306441,-0.00039400018,0.012590457,-0.091127865,0.045996293,-0.036291733,-0.022066373,-0.019425394,-0.09814454,0.058970105,0.004615552,0.041731823,0.025922352,0.1280636,0.10140909,-0.180597,-0.06494176,-0.124020234,-0.030145185,-0.0254874,0.23822124,-0.25402385,-0.12885411,0.0008208985,0.116918966,-0.078325965,0.07612101,0.056721535,0.027958969,-0.06311087,-0.05213133,0.06887774,0.023264017,0.02987663,-0.04914074,-0.042859823,-0.06898626,-0.025381885,0.023318056,-0.084077366,0.209366,0.08939698,0.052120414,-0.21605924,-0.01696305,0.014305554,-0.026107885,-0.032440495,0.03895623,-0.07391644,0.026213784,-0.0619587,0.008947686,-0.0792726,-0.13933134,-0.097881936,0.013741892,0.048814636,-0.0029387304,-0.0074221054,0.16770309,0.014448915,-0.05466098,0.0020637226,-0.08490066,-0.26024595,0.15332887,-0.1688404,-0.06633215,-0.039202772,0.039064184,0.1153582,-0.050826576
/soccer/football_team/current_roster./soccer/football_roster_position/position	0.14210372,-0.111582935,0.04512196,-0.059360135,0.0740964,-0.15525901,-0.06657439,-0.057269555,0.04968191,0.062638134,0.05678776,0.122589774,-0.010038565,0.15213075,0.18914235,0.03854728,0.18255033,-0.03151674,0.001995997,-0.045032267,-0.078162886,0.050607335,0.08689626,0.20015118,0.06340144,0.08654291,0.034247912,0.07392246,-0.101569936,0.020487117,-0.0065144533,-0.06321224,-0.06297655,0.16387461,0.0017424192,-0.044244442,0.14275883,0.011068543,0.07937295,0.10572694,-0.025397295,0.17710379,-0.13183402,0.14847656,-0.0729335,0.106459536,0.0020369126,0.26641336,0.10043805,0.054832414,-0.18556604,-0.12457423,0.2782331,-0.1599421,-0.024145648,0.048641015,-0.020938465,0.03661039,-0.078198425,-0.0046679773,-0.06133254,-0.1084664,0.09826211,-0.10011437,-0.033405818,0.029022573,-0.03103363,-0.023270307,-0.04933599,0.09027757,-0.08312968,0.031555,0.10487745,0.020493349,-0.05684957,0.06516333,-0.15854298,-0.027737584,0.07353633,-0.055549566,-0.020031959,-0.122080915,-0.053983912,0.002509073,0.059845805,-0.00013859401,0.2568201,-0.16425677,-0.043459333,0.095745474,0.09287987,0.110025115,-0.08970538,-0.03543551,0.18402822,0.011584588,0.052068543,-0.03794045,0.0870035,0.044278312
/film/actor/film./film/performance/film	-0.011124831,-0.062454943,-0.21901265,0.051275536,-0.07711773,-0.065264225,-0.07469552,0.03276559,-0.12126154,-0.047082968,-0.08640184,0.076831065,0.033549562,-0.05072347,0.15420964,-0.03159803,0.040291864,0.09303776,0.12453431,0.00027558158,-0.13252665,-0.0013979507,-0.096526586,-0.06302453,-0.025346497,-0.04405595,0.04315211,-0.020556139,0.09146304,-0.08151279,0.31292242,0.0034819257,0.124499254,0.03078635,-0.039711453,0.031856984,-0.13224134,-0.09039804,-0.24254145,-0.04934345,0.11930103,-0.037549153,-0.21397054,-0.0753399,-0.017227132,-0.104255974,0.040503915,0.06513892,0.4283947,-0.06391968,-0.12714235,0.005156546,0.12456399,0.02018319,-0.043583266,0.06425691,-0.10726401,0.07181994,-0.041344136,0.003971667,-0.029272772,0.013704313,-0.09499908,-0.06173156,-0.06783378,0.06601312,-0.057598878,0.08545739,0.030513594,-0.14511622,0.13970882,0.11921231,0.071189664,0.061661568,0.02176418,0.10773329,0.1313497,-0.009090087,-0.057714712,0.019715846,-0.06700631,-0.11712677,-0.06793596,0.011300146,-0.020157687,0.07493315,-0.08801063,-0.06449745,-0.12994842,0.042303305,0.038656835,0.003832943,-0.25696644,-0.004532491,-0.053262074,-0.050358083,-0.017368076,0.019317904,-0.06894305,-0.002910539
/award/award_nominated_work/award_nominations./award/award_nomination/award	0.036283277,0.15060456,0.059465166,0.006923091,-0.20111935,-0.026220473,-0.05795934,-0.31561282,-0.024296882,-0.020947011,-0.005883475,-0.01319695,-0.0704439,-0.15576495,0.25933027,-0.15662953,0.07133855,-0.0009620935,-0.054151066,-0.1045377,-0.016153615,-0.011280238,-0.06734795,0.030812848,0.10852487,0.24412014,-0.05348053,-0.038588144,-0.12678754,0.14944685,-0.1372159,-0.0025940468,0.046369866,0.0041314275,-0.25305295,-0.055686686,0.08201278,0.07421914,0.03484886,0.0024525598,-0.048896275,-0.041308653,0.0036546402,-0.064233705,-0.05241734,0.10410243,-0.07924204,-0.0839182,0.05222591,-0.16079955,0.09948633,0.0609922,0.042049795,0.0855388,-0.0886818,-0.09536081,-0.027866354,0.06479981,0.036065694,0.11530429,0.18278416,-0.0026713267,-0.07074167,0.034112368,-0.05183841,-0.048016507,0.048423957,0.026344825,-0.14922397,-0.13014428,-0.062459204,0.10397081,0.09103227,-0.11696784,0.04477875,0.013103861,0.028873747,-0.032988347,-0.119003996,-0.09986232,-0.13915698,-0.010987251,-0.04549937,0.007288532,-0.10288086,-0.0039423173,0.022931756,0.040325526,0.041154567,0.070990905,-0.08983719,0.09641829,0.05582194,0.00069932936,0.2402246,0.041701477,0.1369916,-0.17177033,0.1610485,-0.03375982
/award/award_category/nominees./award/award_nomination/nominated_for	-0.056591634,-0.069055416,-0.1273219,-0.15639831,-0.16039044,-0.13559496,-0.19659752,0.041654907,0.04784148,0.0039521013,0.006526367,-0.06274199,0.027073171,-0.16801284,-0.2452887,0.03567725,0.15190813,0.099561244,0.08747245,-0.02758029,-0.13424458,0.13048981,0.08952303,-0.106688164,0.101714656,0.12751976,-0.20820695,0.045042265,0.04217957,-0.0003653652,-0.042976446,0.0029624968,0.04672552,-0.049124714,0.026348533,-0.004661497,0.10409344,0.10869293,-0.13623938,0.06829469,-0.053160403,0.030001571,-0.057662852,0.08835589,0.06440011,-0.10912521,-0.004621336,0.10630812,0.090082794,-0.07518472,-0.08237167,0.0009766482,0.18675405,0.10867446,0.019917728,-0.04049406,-0.058160957,-0.07652771,0.105495505,-0.011295344,-0.06346701,0.007863663,-0.06313815,0.025687363,-0.22256312,-0.013913239,-0.010606651,0.3257412,-0.04815333,-0.034722853,0.074662544,0.076595575,0.121909715,-0.20843627,0.16416492,-0.049986664,0.16398218,-0.06608725,-0.056295194,-0.061535295,0.12212509,0.062410552,0.062196948,0.0126074655,0.20540355,0.040013414,0.016475093,-0.028889256,0.027925063,0.0073829726,-0.07232621,0.04709858,-0.008441576,-0.0078077554,0.048803724,0.09895089,0.030409751,-0.017588088,0.14394945,-0.066396534
/organization/membership_organization/members./organization/organization_membership/member	-0.05167087,-0.07329822,-0.009379381,0.016833864,-0.01875213,-0.054844044,0.18050009,-0.025284657,0.10024387,0.06388643,-0.07104877,-0.031204429,0.0989159,-0.09140911,-0.008718306,0.032359406,0.1861696,0.080941275,-0.08943232,0.17705192,0.10393298,-0.045592867,0.020925358,-0.18737943,-0.064001024,-0.0029513938,0.053062163,0.013553799,0.0375848,0.013092136,-0.064652674,-0.20349173,0.15848988,-0.15166265,0.046427283,0.14252299,0.079425804,0.09892224,0.045365173,-0.04241548,-0.13502085,-0.089079686,0.07086675,-0.001760262,-0.010121848,0.00035821088,-0.026623111,-0.121953845,-0.030513858,0.012722613,-0.0038178344,0.05246917,-0.1031495,0.06264112,-0.124930695,0.13089561,0.048617285,0.05399402,0.09789544,0.19709677,0.07745225,-0.22014427,0.037519325,0.07023527,0.023716906,-0.036147185,0.124057606,-0.20244105,0.23616199,0.0010596007,0.034465585,-0.018785316,0.051770244,-0.047207072,0.005788253,0.096868254,0.24179797,-0.041887052,-0.23359182,0.15901308,0.2408863,0.0059394417,0.028033538,-0.029930122,0.043139953,-0.04817149,0.0007621151,-0.10624496,-0.04991858,0.054786544,-0.06835985,-0.05295203,-0.029773792,0.05106597,-0.23865649,0.058692843,-0.05374621,-0.019141022,-0.055350102,0.030156447
/award/award_nominee/award_nominations./award/award_nomination/award_nominee	-0.062121626,0.03485237,-0.10347665,-0.05921067,0.11228295,0.013585297,-0.0029924423,0.034556475,0.13655317,0.012216796,0.065938756,0.034409255,0.08566849,-0.078119166,-0.0261044,-0.0026448355,-0.10987475,-0.019628894,0.12661529,-0.05808297,-0.04668996,-0.10315941,0.20556803,0.12368845,-0.022208914,-0.015396985,-0.024224922,-0.053289153,-0.043671757,0.027688332,0.05042648,0.054864753,0.034209933,0.0698853,-0.0022745554,0.11297675,-0.04829832,-0.083443984,-0.18399736,-0.026446436,-0.24441303,0.045371316,0.073349714,0.016504614,0.11118509,0.13152198,0.07902746,-0.040819734,-0.06947702,0.0028629007,-0.1592162,-0.14187428,0.009418865,-0.121414796,0.10904789,-0.13478707,0.07041201,0.024919046,0.23394844,-0.0440578,0.017200772,-0.13085045,-0.05330488,-0.14066139,0.0698204,-0.12772141,0.06322162,-0.016109427,-0.2338864,0.15540038,0.1070193,0.27143222,-0.079096735,-0.09425919,-9.953721e-05,0.030223835,-0.14543775,0.041446865,0.04488762,-0.067256555,-0.042166546,0.08172498,-0.08546185,-0.080043875,-0.066588186,0.00608982,-0.018904723,-0.30161592,-0.09054846,0.005262882,0.2581338,-0.028459715,-0.07650706,0.06573142,0.09269819,0.034103833,0.06541739,0.018206032,-0.04591771,0.044544775
/olympics/olympic_sport/olympic_games_contested	0.013698304,0.11537924,-0.26959828,0.07477527,0.059767056,0.0019666043,0.11949569,0.05228305,0.05695324,0.15658702,0.19201766,-0.054538094,0.13246252,-0.0316323,-0.0387711,0.03520815,-0.059953045,0.22664703,-0.17661972,0.06985817,-0.013616347,0.01384424,0.087457955,0.037956186,0.09376715,-0.0036581785,-0.06061517,0.10489515,-0.102595694,0.00237045,-0.13255218,-0.056922838,0.04812307,-0.0064421687,0.032952055,-0.09698079,-0.05359005,0.1323621,0.0066390233,0.023584029,-0.03788601,-0.00026317156,0.06919025,0.09428666,-0.052827902,-0.04163532,0.06411371,-0.008282545,0.003328803,-0.06614287,-0.022594297,0.11579293,0.017791802,0.031539086,-0.0052327244,-0.08196688,-0.10412398,0.14357513,-0.056019284,0.085848525,-0.07425182,0.032718316,-0.03183006,-0.04678341,0.026720695,-0.06326906,-0.1900185,0.05076443,0.2172345,-0.031323675,-0.21593344,-0.06334562,-0.007991953,0.022672426,-0.21789035,-0.0071510673,-0.12966222,-0.1645322,0.044910785,-0.027377734,0.043945014,0.0946422,-0.13900787,0.073638074,0.1566756,0.052835315,0.15451778,-0.104614474,-0.043468162,-0.1510742,0.17920215,-0.04037185,-0.25528008,-0.021937983,-0.089797236,0.07308457,-0.0032752086,0.009194279,0.086814895,0.16655001
/music/performance_role/regular_performances./music/group_membership/role	-0.07425719,-0.24497786,-0.19574982,0.15421973,0.21366636,0.021261968,-0.0001615647,0.14177679,-0.075642265,-0.16438454,-0.026195338,-0.09304887,-0.009944883,0.0016133664,0.06824355,-0.111258544,0.09083717,-0.040626645,0.009505566,-0.2239178,-0.12943353,-0.02255755,0.008106878,-0.031559467,-0.0038656723,-0.024153136,-0.019595481,-0.18613471,-0.03715523,-0.045660064,-0.09102941,0.009829514,0.15963024,-0.025504487,-0.08567063,-0.115819454,-0.0010711665,0.1622232,0.024208598,-0.038617212,0.040177785,-0.16810061,-0.050908864,0.024096077,-0.117427796,0.107393354,-0.09265614,-0.050804667,-0.019217,0.067233324,-0.284597,0.017310372,-0.08264344,-0.006075244,-0.10715522,0.07093686,0.12520546,-0.004662842,-0.013052403,-0.027431954,-0.0058473214,-0.056698546,-0.00049449824,-0.08629443,-0.033782776,-0.12336186,0.08677849,0.002690649,-0.06108063,-0.0061025433,-0.039719578,-0.021281006,0.044826433,-0.113447696,0.15391615,0.012709487,0.08146021,-0.14029334,-0.046695374,-0.045007635,0.14505434,0.090441495,-0.0153616145,-0.21253093,-0.19929819,0.013387077,-0.15005615,0.05762706,0.033025026,0.086875714,-0.14615496,0.06619002,0.10205317,0.12006136,-0.029893117,-0.16455717,-0.024642209,-0.035686955,-0.092918776,-0.09574767
/award/award_category/winners./award/award_honor/ceremony	-0.07370922,0.05327019,0.08236501,0.084011436,-0.07620842,0.0012367669,0.18943079,0.07974129,0.099922925,0.12196203,-0.2528228,-0.020448407,0.024753144,-0.0038614704,-0.11424292,-0.035245784,0.054956213,-0.032076735,0.0035228797,0.12110058,-0.024457915,-0.100414805,-0.06770264,0.008120002,-0.018226594,0.006239278,-0.014285031,0.045015953,-0.036450353,-0.12542008,-0.062782854,-0.073774405,0.12478729,0.0043624793,0.03447959,-0.092082344,-0.09566846,-0.060636275,0.16415775,-0.102701455,0.056561157,-0.21862498,-0.04780501,0.02396012,0.02191737,0.037178747,0.0712665,0.06141888,0.08979233,-0.16508538,0.02047181,-0.14676604,-0.15844135,0.048487015,-0.01666075,0.061360367,0.10793877,-0.00046321304,-0.15031338,0.011780972,-0.109423615,-0.02637151,0.15491359,-0.055693313,-0.03122112,-0.05112439,0.12637398,0.05392283,-0.031268492,-0.030195322,0.009693934,-0.23967987,0.004830303,0.1577941,0.06968551,-0.012381777,-0.13622813,0.3162678,-0.0791262,0.13728519,-0.0031210787,-0.13563068,0.028305497,-0.046498183,-0.10562836,0.12900093,0.027551973,0.07661894,0.073903434,0.019301916,0.17802383,-0.2097356,-0.034399036,-0.15369402,-0.04583818,-0.13171369,-0.093914054,-0.09568161,0.05774174,-0.097949974
/film/film/release_date_s./film/film_regional_release_date/film_release_distribution_medium	0.01271562,0.018258981,-0.03137888,-0.13516708,0.029885251,0.02061401,0.007406658,-0.054026563,-0.07619555,0.077752076,-0.1538609,-0.027536979,0.1358613,0.053293098,0.0447776,-0.031823892,-0.17303973,0.051910188,0.16374819,-0.0088027315,-0.025592508,-0.02248949,0.051662773,-0.11180683,-0.15034005,0.14010724,-0.026104743,0.1616807,0.31669223,-0.050858848,-0.11024154,0.011269111,-0.034729872,-0.0051735262,-0.015461319,-0.024270516,-0.09215621,-0.16026169,0.32999894,0.00010115732,0.018264713,0.1149524,0.20526074,0.11864572,0.072385535,0.10026982,-0.15647736,0.043247946,0.047722217,0.13845009,-0.005914947,-0.04874564,-0.009076747,0.16190489,0.006309509,0.2210284,-0.025665993,0.0027258683,-0.061742116,-0.02288346,-0.08076521,0.13708045,-0.16784762,-0.0034773613,0.052254904,0.013339148,-0.032601226,-0.05891221,0.044619117,0.028449774,0.029117538,-0.1514652,-0.044109356,-0.093797095,0.031542175,0.10719592,0.022451064,-0.041610416,-0.021656552,-0.053675298,-0.0011277503,-0.059342843,-0.13744636,-0.015708841,-0.17369287,0.14469521,-0.044541612,-0.080751255,0.045845125,-0.043766353,-0.061935317,-0.080024056,0.17806241,0.06103267,-0.010128014,0.08409052,-0.04445137,-0.08713263,-0.16126022,0.09029019
/people/marriage_union_type/unions_of_this_type./people/marriage/spouse	-0.07093434,-0.122773364,-0.11389445,0.2236682,0.051838886,0.124697216,0.12706085,-0.16526297,-0.022566129,0.092997946,-0.14068717,-0.08832257,0.04601117,0.092729874,0.05979777,0.028423237,-0.15750392,0.13451137,-0.020099694,-0.11429636,0.0070700026,0.13248134,0.03523796,0.051833924,0.017810417,0.111491606,-0.1451153,0.009271355,-0.09410869,-0.17055832,0.06682442,0.06024548,-0.14188153,0.012747866,0.012678659,-0.036257893,0.004136126,0.001913766,-0.0060530268,-0.102769434,0.09096863,0.00102679,-0.18326394,-0.05364706,-0.16851953,-0.034986593,-0.00091529713,-0.13888057,0.08492736,0.060726244,0.04030954,-0.0060948664,0.018712258,0.050122604,0.01262873,0.08858359,-0.045047596,-0.17550065,0.08747091,0.13235572,-0.033966307,0.22236176,-0.10806573,0.06482947,0.020066028,0.16270033,-0.23199624,0.035847347,0.0288116,0.017929846,-0.10521829,0.04452058,0.026566094,-0.10304882,-0.12433025,0.07852113,0.12903012,-0.017047662,0.06380173,0.040723905,0.04210947,-0.030883541,-0.11017702,0.1668512,-0.09392087,0.090025194,0.15061164,0.06257855,0.014858984,-0.2246634,-0.04232441,0.06665651,-0.11249545,0.021697737,-0.0084728105,-0.008038691,-0.04027907,0.013417482,-0.16443565,-0.19616118
/award/award_winning_work/awards_won./award/award_honor/award_winner	-0.061765663,-0.07994111,-0.11420983,-0.219117,-0.12319796,-0.07683392,-0.11415781,0.045240935,0.09099802,-0.04175794,0.027359916,0.0072428808,0.12740505,0.009352633,0.06728774,-0.012353162,-0.029139312,0.23089515,-0.031949777,0.05411074,0.01337335,-0.106228806,0.42025253,-0.017525902,0.048344206,-0.08946544,0.04314388,0.03906891,0.07526562,-0.022135833,-0.096835144,-0.06369486,-0.0068876487,0.017040696,-0.046226732,0.037853792,0.061460655,0.0555822,-0.009662245,-0.031260032,-0.07203898,-0.0598204,0.20912877,0.0024106035,0.04732485,0.019465374,0.14412181,-0.18837671,-0.16227563,-0.011234092,0.052291594,-0.023734286,0.11186178,-0.109170966,0.08575651,-0.09817189,-0.10062826,-0.23719487,0.22087471,0.025474163,0.039348803,-0.05683813,-0.06044932,0.050723404,0.12201712,0.13915578,-0.008551361,-0.059068166,-0.004123205,0.032283127,-0.027118644,-0.03736939,0.04458639,0.19549432,-0.0154073965,-0.15423426,-0.0015574506,-0.06612741,0.062470473,0.017132424,-0.015102555,0.058021363,-0.011076379,0.10160144,0.21220402,0.027850246,0.011210608,-0.048014943,0.012937745,0.10989381,-0.066291444,0.11350521,-0.09746638,0.01151474,-0.031765573,-0.05488353,0.033428915,0.058292396,0.19165064,0.08345504
/film/film/release_date_s./film/film_regional_release_date/film_release_region	-0.058521267,0.036045756,0.20511597,0.024707917,0.06676607,-0.13424343,-0.10289087,0.010756509,0.011557981,0.11894783,-0.059662174,-0.000727895,0.11390746,0.16989926,-0.05138625,-0.08240302,0.009275019,0.17489776,-0.0026286116,0.05039406,0.03205181,-0.09010246,-0.050114725,-0.033457145,-0.10661783,0.3952001,0.076996386,-0.03499846,-0.015852334,-0.12934974,0.10833771,-0.004499078,0.07689572,0.0833584,0.11917418,-0.058752097,0.06589398,0.061199725,0.08153542,0.10265782,0.117333405,0.12808284,0.045588955,0.19295305,-0.09148168,-0.03642874,-0.036576785,-0.06949993,-0.04837242,-0.20019667,-0.103594504,-0.016208585,0.1025217,-0.035367317,-0.09463434,0.071378954,0.024690399,0.042494833,0.037096668,-0.09708082,-0.04616168,-0.105777174,0.04019169,-0.043716315,-0.070304826,0.00133486,-0.070560634,0.13864642,-0.009958652,-0.027810229,0.062848814,-0.051661473,0.032015104,-0.10117267,-0.050439097,0.094394244,0.046708174,-0.065350145,-0.16079493,-0.18107359,-0.018301576,0.15138698,-0.07145789,-0.04482626,0.15049052,0.14245549,-0.11098493,0.088196516,-0.12972794,-0.11298085,0.06969975,-0.0011738614,-0.060436927,-0.05640334,-0.011994913,-0.14430237,-0.07399612,0.0056106253,-0.12116921,-0.059475094
/film/film/language	-0.17028774,0.106930695,-0.10171412,0.03236278,-0.1681851,-0.12893867,-0.090733424,-0.0070071,-0.08440145,-0.020554557,-0.048183996,-0.027888292,-0.022472877,-0.052134015,-0.23393424,-0.029017814,0.015248499,-0.013193824,0.003329263,0.084673695,-0.07630595,-0.24169603,0.021533933,0.045749914,0.17224377,0.017255526,-0.14917201,0.005743956,0.09559462,0.10888846,0.2503954,-0.035573073,0.12605488,-0.12555665,0.038257334,-0.095031254,0.09216069,-0.024522826,0.03390333,-0.19027607,0.052796997,-0.13661027,-0.063809425,-0.050930347,-0.05877839,-0.07938957,0.08778212,-0.06502028,0.12134133,-0.10672946,-0.12748541,-0.22779731,-0.17426936,-0.041229084,0.05466315,-0.19541794,-0.010781989,0.08523309,-0.12790662,-0.036387682,-0.10536856,0.005291497,-0.1513349,-0.01828171,0.20845456,0.12041764,0.034798514,-0.011704394,0.02476483,-0.07695065,-0.1343416,0.05918404,-0.062486596,0.011103017,-0.04020149,-0.16682512,0.06677976,-0.04917854,-0.04311989,0.09649981,-0.122361876,0.0049466994,-0.004636314,0.15236752,0.07177739,-0.050433338,0.12451947,-0.010615249,0.06598793,-0.04383399,-0.05401823,-0.013309997,-0.1554294,0.0732134,-0.06158283,0.042055663,-0.04533415,-0.08237486,0.014693554,-0.054590043
/music/artist/genre	-0.06386006,-0.26427796,-0.055261016,0.028750917,-0.03090547,0.04279822,-0.03454554,0.11023851,-0.01808914,0.0014835407,0.24133213,0.0985701,-0.023436567,0.06466555,-0.0872077,-0.051439643,0.081452854,0.024088524,-0.024758726,-0.08554364,0.032943513,-0.10682053,-0.06406167,-0.15338676,-0.084756725,0.12137349,0.020243756,0.26210746,0.02078366,-0.072498865,-0.016534166,-0.059694692,-0.04616889,0.08989978,0.041677132,0.01060031,0.08249882,0.15229866,0.011217638,-0.14241952,-0.030300483,0.07204221,-0.15220314,-0.08701461,0.062404536,0.058271203,0.0025603636,-0.016514827,-0.0842694,0.06677523,0.22195604,0.19640924,-0.13418907,0.0872388,-0.048327345,-0.055450175,0.086100936,-0.094473094,0.025952272,-0.043473154,0.12256057,0.035168007,-0.000489625,0.10074836,-0.097142965,-0.0023610033,0.011039292,-0.04852462,0.1588389,-0.0054585747,-0.06936409,-0.058534607,0.08000378,0.071908414,-0.07216157,-0.0050446517,-0.021647664,-0.11627625,-0.07084868,0.00019575568,-0.28921244,-0.012662848,0.033557456,-0.04637907,-0.026471825,0.14994618,-0.02129053,0.13674662,0.07790505,-0.041988194,0.09902066,0.13504468,-0.16723073,0.064244084,-0.05272486,-0.06411598,-0.18540439,-0.07735085,0.1201453,0.23179106
/location/location/containedby	0.050137106,-0.12955713,0.025368812,0.12177506,-0.06201306,-0.10729637,-0.08750817,-0.22154814,0.078015566,0.022078665,0.09569632,0.20370857,-0.1239595,-0.03220174,0.05012987,0.005788277,0.09133615,-0.033882815,-0.03515224,-0.08023741,-0.14582111,-0.1629031,0.039838552,0.061673008,-0.11745078,0.012815303,-0.114353135,-0.18659577,-0.19148776,-0.039322626,0.09864029,0.03441989,0.006547722,-0.10880476,0.0033338848,0.037242282,-0.10344523,-0.23177446,-0.111043096,0.08852174,-0.13748522,0.039647512,-0.13207254,0.18738073,0.05294708,0.022150371,0.06070195,-0.0451715,0.05859428,0.17604451,0.0011811567,0.13911925,-0.061917137,-0.107781164,0.119378306,0.009894177,0.014687549,0.0442397,-0.041777346,0.09696921,-0.023966845,-0.14410172,0.098114766,0.18613729,0.010450649,0.13344792,0.1169876,0.11508613,-0.17379107,-0.039953873,-0.0014830267,-0.09413114,-0.027080588,-0.17860733,-0.01655471,0.17333719,0.07242623,-0.06898222,-0.1522151,-0.0066484017,-0.01221039,-0.17840166,0.059312176,-0.00035800887,0.09804009,0.11539881,-0.03419159,-0.04426092,0.08439916,0.0631041,0.0015006624,-0.055612884,-0.08159792,0.0103107095,-0.06613757,-0.03342886,0.044169366,0.0061304546,0.052454673,0.12129636
/people/person/ethnicity	0.1518712,-0.122268125,-0.084017776,0.027574323,-0.101745754,0.19959433,-0.0401725,-0.09288837,-0.10550276,0.3166166,-0.06318069,-0.09855082,-0.19082014,0.103337765,-0.1708693,-0.048941344,0.046723373,0.03526149,-0.150249,0.121783726,-0.10696397,-0.12399742,-0.017532732,0.13775742,-0.026819117,-0.11119244,-0.06338686,-0.031447433,0.021053798,0.046225913,-0.08246618,0.061391424,0.0326141,0.059844915,-0.08929471,0.10957406,-0.06113105,0.12973289,-0.08052604,-0.12131175,-0.030095244,0.092190295,0.0992189,0.023637032,-0.038724415,-0.081753254,0.0043391483,-0.019518694,0.13992867,-0.08368959,0.008871234,0.013889748,-0.22603081,-0.10751872,-0.042078547,-0.11522353,0.01795266,0.011446213,0.21494769,0.035699066,0.004539931,-0.125566,0.10851753,-0.0681276,-0.06776084,-0.0411187,-0.15931338,-0.072085954,-0.10485707,-0.0068520037,-0.020987285,-0.00020570993,0.011469714,-0.0437532,-0.13718253,0.0990178,-0.037317738,0.047903176,-0.01987987,0.06256784,-0.10715606,0.091834955,-0.0024888958,-0.038176604,-0.118065834,0.07445015,-0.060279608,-0.0059379903,0.07017513,0.0870612,0.259534,-0.0484676,0.24505034,-0.066643775,-0.017399896,0.013212473,0.00962538,0.098342635,0.08103949,0.04468894
/education/educational_institution/students_graduates./education/education/degree	-0.011774872,0.084941454,0.07378474,-0.039103817,-0.056648675,0.15852979,0.055266414,-0.03462659,-0.038559098,-0.0068351477,-0.13300629,-0.105755344,0.0037969176,0.07681912,0.050346445,-0.05012614,0.09102706,-0.095064,0.067548744,0.0009731286,-0.007603633,-0.0021787498,0.039854586,0.02231683,-0.007317412,-0.1095338,0.040829808,0.004375062,-0.15441234,-0.05963776,0.0066241543,0.029779958,0.07144756,0.022568652,0.16870344,-0.029482016,-0.13216537,-0.037047576,0.025048839,-0.035589084,0.07769775,-0.0679823,-0.014121113,-0.27752084,-0.10924786,0.043091413,0.23438568,0.030455617,-0.0047507086,-0.17673826,-0.06841129,0.054554526,-0.0025031194,0.11251655,0.13015619,0.11074522,0.2147011,-0.07656341,0.22858503,0.02635499,-0.102532014,0.06082753,0.04857667,0.08024978,-0.036568083,-0.10856108,-0.10230799,0.0013661404,0.15290442,0.032516375,-0.009135592,-0.07445002,0.03226534,0.007147719,-0.072898105,0.16489932,-0.09266085,0.3510015,0.009762813,0.2060607,0.030853845,0.09353935,-0.007814385,0.11810082,-0.07839525,0.039375503,0.067138284,0.20203836,0.053457737,-0.033300832,0.11728394,-0.08583118,-0.17812535,-0.023676991,0.105784595,0.0015091104,-0.097459555,-0.004711898,-0.033989623,0.0960099
/award/award_category/nominees./award/award_nomination/award_nominee	0.023131886,-0.055312984,-0.07355568,-0.07897691,-0.013230867,-0.0067597963,-0.07953784,0.0009277528,0.09946557,0.16230585,0.047734078,0.12094201,-0.15854295,0.07157975,-0.050966684,0.11011528,-0.09220064,-0.062145222,-0.0529785,-0.016358675,-0.04654129,0.07446116,-0.09375591,0.07520729,-0.10023358,-0.05593413,0.0019320232,0.5778407,0.010276986,0.07732374,0.050614078,-0.043257292,-0.082857154,0.048428126,0.022290051,0.03805189,-0.008694782,0.04003391,-0.029619945,0.23751049,-0.021885835,0.01581668,0.31670773,-0.046080746,0.068454854,0.05767922,0.040625427,-0.12998053,-0.13063312,-0.12497393,-0.019312888,-0.055967912,-0.11681075,-0.022788735,0.028286085,-0.010392105,0.097173825,-0.04367583,-0.021163974,-0.019280987,-0.062009647,0.14499182,-0.06126487,0.016605284,0.09486759,0.11346449,-0.05789112,0.05517059,0.011061367,-0.014663594,0.084693365,0.058581524,0.0503958,-0.030222658,-0.016724756,-0.036923796,-0.02670085,-0.051482182,0.049934015,0.12696911,0.084773645,-0.03744364,-0.058674015,0.018054636,0.032943383,-0.15226898,0.029516514,-0.11858283,-0.07221469,0.053971227,-0.08562061,-0.06667696,-0.15694487,0.08309122,-0.01709084,-0.056517057,0.09387865,0.017831143,-0.045406777,-0.11686023
/award/award_ceremony/awards_presented./award/award_honor/award	-0.28538296,0.1559906,-0.034372166,0.09825817,0.043740332,0.051178113,0.121818446,0.038197625,0.005725862,0.01978901,0.020819565,-0.016597694,-0.014979776,0.13057879,0.036654457,0.0062657897,-0.07930021,0.076546595,-0.047799263,0.043234978,-0.10341059,0.053742275,0.024661275,0.082213104,-0.056864142,-0.02761369,-0.049020313,-0.068817474,-0.026847767,-0.01600612,0.061705824,0.049291458,-0.05857244,0.028410895,-0.083618656,-0.09525404,-0.044755895,-0.18413933,0.18143786,0.07578993,-0.022430273,-0.037695773,0.07988514,0.18173581,0.050860368,0.07112121,-0.154163,-0.060025495,0.047378667,0.2457473,0.047215592,0.064712875,-0.10068238,0.1854865,-0.10735869,0.15341878,0.12316391,0.186613,-0.064024806,-0.13965411,-0.057858653,-0.13184568,0.0054075667,0.0063893762,0.15811253,-0.033189114,-0.05056613,0.06594692,0.2433324,0.093258776,-0.064919166,-0.017608365,0.12838365,0.0105081545,0.050792236,-0.035783667,-0.14017622,0.21335602,-0.09167514,0.14283979,0.14840811,-0.22538489,-0.091971286,-0.026897946,0.08537067,-0.10827695,0.010883397,-0.049923915,-0.071985744,-0.015336979,-0.06796344,-0.16423246,0.07980685,-0.015813515,0.020520901,0.0784221,-0.050291676,0.010463008,0.0041640582,-0.031086385
/location/location/contains	0.13437271,-0.22535598,0.04996767,0.02623791,0.01214732,0.065948926,-0.12402808,-0.07931378,-0.11349742,-0.009009251,-0.07253224,0.005770191,-0.14555252,-0.09969225,0.061294604,0.064475104,0.0627651,-0.042594377,0.21403445,0.045161627,-0.061002314,-0.0050269314,-0.08461772,0.021426225,0.18794271,-0.050157625,0.10999533,-0.05567459,0.079021774,0.26682478,0.0113644,-0.109740295,-0.133514,0.076835245,0.07351272,0.0117367925,0.0411485,0.17734051,0.25289875,-0.035466712,0.11767791,0.10145404,-0.0033315711,0.0034427384,-0.07332419,-0.014955129,0.019556716,0.009701715,-0.083290584,-0.046043884,0.024807047,-0.09760463,0.009342036,0.21964729,0.09818951,-0.041291784,0.06704794,-0.13477619,-0.052359298,-0.059559032,-0.046182107,0.18513606,-0.00841619,-0.08236384,-0.08711151,0.007494224,-0.004080385,0.08874608,0.016573623,-0.04372876,-0.076285414,0.07281075,-0.0011066955,0.13014427,-0.05754463,-0.019054929,-0.10984122,0.1658493,-0.061119087,-0.065669835,-0.011906627,-0.09912592,0.1186339,0.120552175,-0.06699645,-0.12720011,0.085623115,0.00057905796,-0.29482877,-0.098818496,0.026644604,0.071858875,-0.13554434,-0.08375665,-0.0017647244,0.15692422,0.072090164,-0.074571505,-0.13017584,-0.06206364
/organization/organization/headquarters./location/mailing_address/country	0.011705251,-0.19338502,0.06377522,-0.04800084,-0.021428587,0.07827123,0.063076995,0.12473732,-0.17779805,-0.038625114,-0.09408741,-0.0016836933,0.031727128,-0.024821125,0.07957426,0.19454977,0.0340865,0.00093692326,-0.08415868,0.028553596,-0.1078619,-0.02487907,0.15109935,0.07687948,0.012528237,0.12503971,0.13632867,-0.112635426,0.004425511,-0.030572874,-0.03255087,-0.10139997,-0.042102814,-0.172857,0.082021706,-0.086904705,-0.012278738,-0.03854182,0.019685814,0.16625392,0.11909862,-0.025040904,-0.082559034,0.023582598,-0.023759333,-0.0056352187,0.08813093,-0.0019628317,0.15151346,0.024378862,-0.14229009,-0.07596199,0.0038086886,-0.043780044,0.14166594,0.20846935,-0.1219514,0.07904946,0.0011230382,-0.1705291,-0.058948774,0.08152597,0.1121679,-0.054230012,0.10884515,0.04081048,0.0299203,-0.036274068,0.09218081,0.0060949903,-0.034859844,0.114230014,-0.1646701,0.027296193,0.02915185,-0.19764078,-0.024059922,-0.18282695,-0.12745868,0.15174557,0.02914273,-0.15244089,-0.15903749,0.12737063,-0.11497011,0.11715692,0.12992989,0.04728319,0.10117741,0.18464409,0.18590483,-0.121053666,0.083532475,0.0351484,0.095015205,0.050077785,0.06829762,-0.10791337,0.114232436,0.043455943
/people/person/profession	0.18043743,0.06320024,0.04804279,-0.016357096,-0.01586821,-0.039334375,-0.0072347256,-0.1136036,-0.029749626,0.048538927,-0.03570436,-0.2991171,0.032959353,-0.0503052,0.02605973,0.18744369,-0.09879163,0.040567365,-0.08906796,0.051054623,0.050425924,-0.067479305,-0.07938308,0.014182294,-0.15032934,0.048890702,-0.114573196,-0.020254651,0.08219268,-0.059402555,-0.03745116,0.07479363,-0.13932842,-0.036735248,0.0457461,-0.13649632,0.09439989,0.13259375,0.0927113,-0.13661735,-0.1590286,-0.008048503,-0.010057011,-0.038645297,-0.12467942,-0.095562845,0.017460128,0.009088824,-0.03522138,0.039696984,-0.09344646,0.21559745,-0.17547262,0.12775478,0.058436133,-0.169734,-0.06070215,-0.011119874,0.12683132,-0.12096646,-0.06665922,-0.057564907,0.10609822,0.00013752341,-0.068314224,0.24820805,-0.19268917,-0.019127633,-0.092517756,0.020141806,-0.20864181,0.13723336,0.05789696,0.1378318,-0.040923174,0.011799976,-0.077795185,-0.040040173,0.10903631,0.036365088,0.103283204,-0.09027588,0.025536055,-0.04933729,0.063066326,-0.028265374,0.057326533,-0.011951557,0.28020832,0.16719344,0.038026813,-0.06464432,-0.103701755,0.1031585,0.010443592,-0.06419312,-0.015837597,-0.053140644,0.066965096,-0.0026674047
/film/film_job/films_with_this_crew_job./film/film_crew_gig/film	-0.05665555,-0.01716453,0.0038609393,-0.13024731,0.13841635,0.06353188,0.047666095,-0.16643955,0.076538205,-0.014492476,-0.11026843,0.00791756,-0.034137435,0.0029661276,0.013335972,-0.04235714,-0.117708385,0.033527713,-0.0039690994,-0.07072625,0.050500643,-0.031883772,-0.04938243,0.0120053375,-0.091439076,0.1617524,-0.0374619,-0.043100443,-0.021135423,-0.06547086,0.027062966,0.2642546,-0.013689042,0.010580662,-0.047718536,0.005157795,-0.01815001,-0.0034460935,0.18383375,0.04859995,-0.059733056,0.10286131,0.042172875,-0.025336724,-0.16709673,-0.09750217,-0.04026361,-0.008045682,-0.11537724,0.29067576,-0.11200691,0.33867007,-0.32324496,-0.049288243,-0.045455452,-0.056582585,-0.01512736,0.085068904,-0.24407192,-0.03156111,0.06667733,-0.064980716,-0.08057093,0.030620996,0.0013621238,0.076929875,0.011330645,-0.00255746,0.10929047,-0.08142769,0.017464118,-0.06836182,-0.053156484,0.033396848,0.023815783,0.24983534,-0.094734274,-0.11150119,-0.008702127,-0.006725309,-0.03856459,0.06655417,-0.27342647,-0.045030035,-0.05382442,-0.051285025,-0.03064001,-0.019287376,0.10605597,-0.08125701,-0.05714466,0.080465436,-0.06315361,-0.055615667,-0.028625479,-0.07300836,-0.07186992,0.042565867,0.026281657,0.02770644
/people/profession/people_with_this_profession	0.10750583,-0.08197418,-0.015020147,0.04145438,-0.01550963,0.061360657,-0.096700996,0.05032356,-0.12484313,0.08991073,-0.13533024,-0.16718994,0.08262229,-0.08544195,-0.068811454,0.051452894,0.11847515,0.005300603,0.036867335,0.18046594,0.041406594,0.017597308,-0.022995938,-0.10364883,-0.16051415,0.05858014,-0.01110431,-0.13462642,-0.11154513,-0.029844714,0.081654966,0.07161574,0.02349105,0.15962093,-0.044091184,-0.053661946,-0.0068975314,-0.052346524,-0.17399783,-0.13450852,0.021135591,-0.1586509,0.043329347,0.08874785,-0.20313267,-0.028137619,-0.032088507,-0.15575029,0.15904976,-0.0018713233,-0.020945733,0.11144957,-0.0783902,-0.117204234,0.12419497,-0.15550745,-0.09473895,-0.099371456,0.0038479296,-0.023853058,0.03428937,-0.13028164,-0.03331273,0.004647408,0.11507891,0.02719518,-0.016945211,0.061093755,-0.00198899,0.10362121,-0.0069184154,0.0004894675,0.09647965,0.15992303,-0.024734188,0.06506098,-0.03075823,-0.20590729,0.0038087626,0.0245012,-0.24659617,0.120553926,0.004499458,-0.07979668,0.061773747,-0.04652265,-0.0041615884,-0.29540202,-0.011547584,0.14737241,-0.0548119,-0.057130314,0.25284496,-0.17432538,0.012981278,0.027969494,-0.040287994,-0.1169332,0.076503806,-0.0018662411
/film/film_costumer_designer/costume_design_for_film	-0.07086161,0.04433863,-0.120111205,0.044123333,0.12997901,-0.079181835,0.068071455,-0.054211766,-0.10275307,-0.113218665,-0.08993747,0.0067452374,0.08273813,0.032914665,0.27690938,0.19938205,-0.0801354,0.124468446,0.014698511,-0.06134514,-0.10998887,-0.03476617,-0.20539056,-0.13307346,-0.011150501,0.13047114,-0.008567376,-0.048388567,0.03608514,-0.03484102,-0.075435504,0.06393497,0.05711471,0.06655853,0.07724422,-0.19872043,-0.036012158,0.067249246,0.022422452,0.095708005,-0.07890331,0.031716112,0.06202795,0.025808176,0.019057345,-0.0066517787,-0.0465093,0.008307093,0.18865912,0.038770117,0.03600128,0.08676254,0.012585639,-0.11235273,-0.1090889,0.04206344,0.03140382,-0.006292236,-0.012975899,-0.05463225,0.0293513,0.052965265,0.0971508,0.06878002,-0.073516704,-0.022373337,-0.0033477307,0.009562571,-0.00505203,-0.09615055,0.17856085,0.0732593,0.083740704,-0.024608342,-0.14629629,0.06882023,0.043519877,0.061782192,0.2563311,-0.31081268,-0.07483662,-0.08361221,-0.066028915,-0.13780202,0.09526443,0.11289185,0.022633044,0.03489349,0.11323189,0.12939884,-0.039023753,0.17464818,-0.18583566,0.07848447,-0.010332673,0.08707603,0.055063717,-0.19407645,-0.03983936,0.12526828
/location/statistical_region/religions./location/religion_percentage/religion	0.22517185,0.00885186,-0.0061161574,-0.16533656,0.1016797,0.014452462,0.11299054,0.12120998,0.02985177,0.057649452,-0.09876364,-0.08585475,-0.03530684,0.009538684,-0.1670553,0.02510272,0.10056532,0.05041388,-0.09261266,-0.009919948,-0.09027933,-0.085712455,0.048920613,0.030751785,0.088313825,0.018243816,-0.10072216,0.035063345,0.08729197,0.077321276,0.042706493,-0.009998804,0.14838135,-0.10783291,-0.14984126,0.09967331,-0.05487434,0.021378862,0.13777323,0.07325873,0.008657626,0.010395477,0.08688818,0.034521066,0.038400672,-0.03677787,0.24312744,-0.077563465,0.038958274,-0.3020787,-0.15705183,0.08276138,0.06281282,-0.08397084,0.037480272,0.11046434,0.06991317,0.011808307,-0.04500092,-0.2446175,-0.0010456997,0.124049574,0.07020964,0.03616414,0.085589975,-0.030530352,-0.29900035,0.08703781,0.025038484,0.05370963,0.060626443,-0.060622323,-0.086196326,-0.056052625,-0.10428306,-0.044917837,0.0070841718,0.12763323,-0.015270421,-0.08089545,0.012570754,0.061758753,-0.18523642,-0.10264219,-0.07988193,0.022300523,0.043589268,0.05598678,0.18868174,0.19179761,0.16041225,-0.13247791,0.024185976,0.018048381,-0.07333977,-0.040006466,-0.03157784,-0.01651662,0.033530746,0.0041680974
/film/film_genre/films_in_this_genre	-0.14850104,0.082260184,0.1771819,-0.0930031,-0.006037539,-0.054954775,-0.0941896,0.14892939,0.13644525,0.153593,-0.025693167,0.17060395,0.02561379,-0.12074017,0.2389373,-0.025617229,0.0012046217,-0.09221123,-0.16698188,-0.04705631,0.10645132,-0.016643057,0.015084657,0.1157606,-0.07832648,-0.3235184,0.030788356,-0.050696507,0.002194959,0.09737708,-0.07195707,0.06706023,-0.01820041,0.007941137,0.032544456,0.021997698,-0.13645168,0.12572983,-0.03869401,-0.08433081,0.036208436,-0.20755638,-0.08113279,-0.17008708,-0.05755032,-0.11178835,-0.011484476,-0.01507126,0.10754768,0.17507122,0.10161749,0.035750803,-0.05902312,-0.033904392,0.07797395,-0.09286938,0.120183654,0.083428964,-0.09985522,-0.020547323,0.071210794,-0.19244143,-0.15840529,-0.0022371928,0.123100035,0.10816758,-0.10634655,0.056758713,-0.120444775,0.013547745,-0.138312,-0.004254247,0.038753636,-0.10845071,0.07249466,-0.108766325,0.06325797,0.093513735,0.08193683,0.084555455,-0.23599307,-0.048602425,-0.058361016,-0.040368427,0.011585664,-0.07847763,-0.074277654,0.017039277,0.01077574,-0.12528501,0.021527024,0.075986326,-0.031938843,0.040163834,0.06300781,-0.08724614,0.067635156,-0.022025337,-0.0017325059,0.06279329
/tv/tv_genre/programs	-0.037663635,0.10273718,0.14506216,-0.18011963,-0.059931915,-0.09348191,-0.14948103,0.07458212,-0.034448396,0.047472402,0.067364365,-0.1391281,0.187837,-0.16382104,-0.053323865,-0.024480475,-0.06768728,0.09476084,-0.008057899,0.10356181,0.021048946,0.0004696319,-0.0048964797,0.041836727,-0.01081243,-0.034524973,0.022679599,0.18546979,-0.045870375,0.08120549,0.11833728,0.106464,0.0026508127,0.04481364,-0.0426581,-0.18102793,-0.00940326,0.0050618094,-0.10035585,0.28490722,0.030511644,0.21210839,0.04530923,-0.026154436,0.104361586,-0.17103681,-0.018649729,0.01750291,0.09780985,-0.13809854,0.0049471552,-0.17702894,-0.002885159,-0.13358626,-0.13843358,0.058151223,0.0097691445,0.03748891,0.060194008,-0.21105541,-0.015758332,0.019553406,0.14565496,0.044277977,0.037722073,-0.009320049,0.009617288,0.05015386,-0.107354954,-0.009425306,0.22268628,0.18611881,-0.10175521,-0.030820234,-0.0144797955,-0.05197234,-0.17264155,0.1378344,0.06427585,-0.04811251,0.028246827,-0.0092991395,-0.1099403,-0.03699126,-0.031173717,0.064648025,-0.08707849,-0.0585951,-0.10447274,0.10691386,0.13727756,-0.1527718,-0.06777137,-0.1050569,0.07730824,0.08987882,0.00607313,0.09900612,0.028905135,-0.09197738
/award/award_nominee/award_nominations./award/award_nomination/award	-0.15295261,0.0706719,-0.045759913,0.06326736,-0.12809806,-0.12900038,-0.053619355,0.098912075,0.05759159,-0.09044688,0.008098835,0.08180403,-0.10091077,0.2083136,-0.061756596,-0.044817835,0.08209409,-0.05830588,-0.055396855,0.08015448,0.108586654,-0.012805843,-0.054223623,0.0008065705,0.21081783,-0.020165058,-0.079410516,-0.35434607,-0.013375075,-0.21144566,-0.017251844,0.00540105,0.023778455,0.10461115,-0.034558114,-0.077167325,-0.24775021,0.045657404,0.05400453,-0.13593979,-0.16744916,-0.042334013,-0.13654864,0.09203409,-0.17331274,-0.063564785,0.26383346,0.13639823,0.06869377,-0.05350315,0.04510386,-0.07218056,0.020575665,-0.07181772,-0.0023218861,-0.07729006,-0.10551976,-0.06402035,0.010757298,-0.13881366,-0.07755412,0.13945872,-0.11175732,-0.049586345,0.048387315,0.007251776,0.037028622,0.09583176,0.0032060903,-0.010589297,-0.08195458,0.14711665,0.011417816,-0.0050714044,-0.10301739,0.044416662,0.10588909,0.06969665,-0.11857536,-0.056525446,0.20210306,0.056022417,0.07034329,-0.051840164,-0.02655811,-0.014769957,0.110593274,-0.07464256,-0.041453965,0.080348074,0.015445947,0.116547376,-0.11715358,-0.04349495,0.031274825,-0.06295208,-0.060568176,0.06079852,-0.050159544,-0.10962702
/music/genre/artists	0.014883338,-0.12121546,0.11059185,0.061807685,-0.114307866,0.08605074,0.03755648,0.01498202,-0.008149317,0.03664634,0.012355564,-0.05072668,0.0147242425,-0.04239812,0.08505297,-0.26644236,0.0681926,0.02539353,-0.0728245,0.14762308,0.13712624,0.064825706,0.019160824,-0.06440895,-0.031119466,0.029093532,-0.06550651,0.093795225,0.19121335,0.002441555,0.1630126,0.0974836,-0.11712951,-0.03090536,0.27668387,-0.057084646,0.01828676,-0.040111143,0.15143332,-0.003680399,-0.17017601,0.08625801,-0.007841057,-0.04888532,0.091106355,-0.030415015,0.15831426,0.13277265,0.011967172,-0.08531383,0.12613998,0.17452404,-0.009540849,0.11964302,-0.056111712,0.016016038,-0.060804203,0.17988199,-0.0053688586,-0.04419675,0.0009179478,0.33567587,-0.028433679,-0.11046921,-0.11794713,0.03273594,0.04611838,-0.10298571,-0.10766686,-0.035306007,0.07807293,-0.14367448,-0.059759624,-0.015457869,0.083831675,-0.048911095,0.10286127,0.016495986,-0.02380598,0.010741978,0.09370469,0.009430296,0.12796156,-0.14910182,-0.10013743,-0.0018496033,-0.01499141,-0.06931982,-0.024277985,0.058129143,-0.20320983,-0.04261247,-0.10721976,-0.021781418,-0.11418732,-0.06823403,0.04899594,-0.010280807,-0.16294453,0.09741189
/influence/influence_node/influenced_by	0.21054962,0.07510969,0.0068178657,0.012679213,0.10002085,0.033643782,-0.034863245,-0.020915177,0.11171714,-0.008114248,-0.09188512,-0.035203375,0.24439612,0.07846234,-0.009778901,0.05913714,0.008649823,0.10337098,-0.069059886,0.0058644917,-0.012370725,-0.22628635,0.032587826,-0.0053128134,0.25196335,-0.013037058,0.04005654,-0.025193343,-0.05185679,0.11047182,-0.107794814,0.031154117,0.016852468,-0.08875182,-0.056294404,0.07320131,0.1329451,0.1397239,-0.17747962,0.02114778,0.02075057,-0.066491075,-0.067566186,-0.014347264,0.15785024,-0.044887986,0.11937441,-0.084779724,0.0323763,0.17980182,-0.061389387,-0.22273213,-0.030453544,-0.07138239,-0.111061595,0.036319297,0.06927274,0.045811146,-0.05982282,0.0838826,0.080017045,-0.025652492,-0.16558148,0.021230299,0.0665852,-0.00269655,0.02216019,0.07485443,-0.077074155,-0.26178145,-0.096601546,-0.12980516,-0.021956054,0.0055333143,0.035567086,-0.04283029,0.04583683,-0.01033129,-0.094518125,-0.11621231,-0.24406606,0.01749669,-0.02774206,-0.101910055,0.16507976,0.10941788,0.13964702,-0.089621685,0.17686142,-0.14899777,0.13660382,0.00042889046,-0.024712691,0.022422936,-0.107317574,0.066982634,0.082969405,0.08827216,0.02326505,-0.07284177
/education/educational_institution/students_graduates./education/education/student	0.019421492,-0.20876548,0.054055423,0.060053803,0.10107963,-0.10548084,-0.0827396,-0.08421694,0.13866703,-0.07965777,0.14470154,0.12591483,0.0364785,0.054678753,-0.029760636,0.14747564,-0.07743371,0.000984377,-0.1134344,0.032648046,0.105980314,-0.07207568,0.13227288,0.17891261,0.11226741,0.2394055,0.015329375,0.022519153,0.0098339785,-0.13490686,-0.03821744,-0.06562236,-0.008460974,0.007306566,-0.05958036,0.065046854,0.010909365,0.019668791,0.07044118,0.08661776,-0.09085352,0.111947306,0.061404794,-0.06889448,0.10703766,0.09562958,0.048478656,0.07122836,0.09986087,0.020628106,0.045916736,-0.0053238585,-0.06571387,-0.095495656,0.055961646,-0.016088685,-0.036923885,0.07735458,0.009824499,-0.12882234,0.19698079,-0.011349973,-0.08132178,-0.16696125,0.074335,0.039395947,0.014561025,-0.040070646,0.13544142,0.03633702,-0.10883755,-0.1583582,-0.09413476,0.024741497,0.020061497,-0.09757556,-0.18436678,-0.022225203,0.17625774,-0.17425069,-0.018847777,0.011554111,0.11469071,-0.1254465,0.08265706,0.111329556,-0.08252322,-0.053085346,-0.04191566,0.021062916,-0.0031922075,0.20078292,0.02641193,0.15374449,-0.07239473,-0.28769845,0.05261223,0.031791944,0.19922712,0.08801863
/organization/organization_member/member_of./organization/organization_membership/organization	-0.16770212,0.08637807,-0.017452776,0.12122051,-0.042864244,-0.23788391,0.21463197,-0.031699155,0.14024334,-0.17388748,-0.07604554,0.15045471,-0.066891775,0.08334394,0.1174859,-0.048047133,-0.06376139,0.08283334,-0.0033495894,0.018537974,-0.022419564,0.09318223,0.061891504,-0.08221152,-0.006138912,-0.016444633,0.05641369,-0.08904484,-0.044331703,-0.1600078,-0.03592141,-0.011638291,0.05916741,0.087593585,0.015443229,-0.06893615,-0.057459865,-0.07912832,0.21458878,-0.10218967,0.07563487,0.0006110396,0.1811471,0.12547085,0.0086533455,0.059080586,0.04015381,0.04566338,0.048036743,0.0008474133,0.14405057,0.009639546,-0.08234327,0.039321687,0.0766576,0.022654904,-0.06602275,0.0048965574,0.045635827,0.087904036,-0.1573475,0.060554743,0.018947529,0.13935532,-0.045625456,0.011526086,0.20233563,-0.060099203,0.03234058,-0.0584145,-0.112816006,-0.07666008,-0.021926679,0.024190884,0.19348246,0.082231715,-0.1049456,-0.10557689,0.18818709,0.05566543,0.10103492,-0.14954637,0.09902522,0.040149372,0.011872785,0.00071867084,0.1755775,-0.061517805,-0.1855243,-0.116157494,-0.13041037,0.11028775,-0.18912046,0.0657664,0.09682179,-0.043223046,0.074283704,0.0070217135,0.20991418,0.070421845
/people/person/place_of_birth	-0.11715928,-0.073747486,0.033280924,-0.12268504,-0.05715655,-0.05663075,0.00016153102,-0.08803654,0.09127324,0.14454916,-0.026528683,0.1845123,-0.11607289,-0.12030293,-0.06979816,-0.10048839,0.12316548,0.07697395,0.021940561,0.25473198,0.0029069583,0.0114130275,-0.09606599,-0.11268746,-0.2738113,-0.05411758,0.0021271505,0.006568008,0.011855192,0.10546661,-0.09418092,0.096804865,-0.05193517,0.08306941,-0.1537687,0.009319832,-0.0171916,0.05548658,-0.08498928,0.04599285,0.038208276,-0.18887088,0.057218876,-0.027563877,0.0127590215,0.15919435,-0.071847096,-0.060584553,-0.15520845,-0.01749306,0.059654336,0.020076096,0.08846917,0.28880152,0.12223525,-0.065646395,0.059366003,-0.017433928,-0.36781403,-0.026042221,0.032911476,-0.1917381,0.06793308,0.005600356,0.1201143,0.085279375,-0.002959654,-0.07421493,0.023649408,-0.030716408,-0.062519796,0.01804801,0.049179118,0.012536872,0.17747466,-0.097067885,-0.030232698,-0.026297756,0.028632097,0.027709182,0.015153495,-0.046434868,-0.09297064,-0.03381837,0.0161565,0.058214724,-0.018552415,-0.007339372,-0.067043506,0.1250369,-0.072308645,-0.12727246,0.13949253,0.023472289,0.08878317,-0.0740321,0.07648155,0.09336726,-0.05922981,0.018437034
/common/topic/webpage./common/webpage/category	-0.031303853,-0.014538014,-0.045755893,-0.019949444,0.068705216,-0.081541814,0.22777693,-0.14178939,0.15786266,-0.06859587,0.04600154,-0.025515286,0.060978938,0.00079635787,0.10578475,-0.07087097,-0.023948345,0.03896697,0.049092904,0.0902488,0.265571,0.0020133536,0.02081156,-0.018383615,0.023671506,-0.058641184,0.07795502,0.13236488,0.049248185,0.038700588,0.005349198,0.04046878,-0.117932506,0.12189923,-0.12138666,0.096725434,0.14144182,-0.0048263036,0.08993862,-0.029160704,-0.14439552,0.14721307,-0.08363253,0.07478616,0.1563858,0.13644065,0.14250994,0.10597085,-0.06768012,-0.023864314,0.030123204,-0.09416939,0.08428451,0.01506969,-0.16169688,-0.1071562,0.14646994,-0.13114579,0.06707934,0.009716446,0.06008372,-0.11191749,-0.005237885,-0.026723161,0.07850558,0.04681271,-0.14359279,-0.029159425,0.008677625,0.2708975,-0.004784483,0.14053404,0.059908405,-0.10764887,0.038675264,-0.2583897,0.028858317,-0.009280452,0.08192189,-0.07989754,0.13289851,-0.05676501,-0.05782993,-0.12739722,0.06761398,-0.004969009,0.04860162,-0.050778534,-0.21901754,0.18614982,-0.12399433,0.012813542,-0.13616587,0.08593115,-0.01292394,0.103831895,0.08813826,-0.027539726,-0.0036480895,-0.06623379
/media_common/netflix_title/netflix_genres	-0.21020696,-0.0582312,0.026143612,-0.02913975,0.05623688,-0.011344903,-0.13416174,0.103674084,0.044655006,0.04222301,0.06986604,-0.07681511,-0.056516454,-0.12555993,-0.21021913,-0.09577053,0.006812215,-4.5686596e-05,-0.05555171,0.0017074229,0.004287067,0.12282027,-0.13127081,0.03605799,-0.027996913,0.06525225,0.046430517,0.08814393,-0.010851017,0.032959353,-0.03624974,0.10026308,0.21653768,0.055914123,-0.14738703,-0.03535852,0.29902133,-0.026854739,-0.17261153,0.2102136,-0.040748514,0.07136145,-0.08223609,0.078466974,0.00514675,-0.126434,-0.065216735,-0.011109264,-0.07983694,0.029333865,0.08482349,0.015233638,0.02910174,0.08569808,0.14812212,0.019835137,0.13839127,-0.29651648,0.11188131,-0.025271626,-0.020102728,-0.023198446,0.05496997,-0.12282195,0.0036268895,0.10382199,0.15172257,-0.13240203,0.077303156,-0.0026538603,-0.0128476145,-0.061596613,0.15230937,-0.0918507,0.16219714,-0.027911354,0.05320775,-8.8393e-05,-0.08077633,-0.03128896,0.0906328,-0.16876563,0.042535845,-0.032302395,0.03400026,0.00020326197,0.04922776,0.1654915,0.065337166,0.022857636,0.028478762,-0.04777142,0.19549124,-0.17786252,-0.11586437,-0.027590016,0.060421024,-0.049827058,0.12361857,-0.047011722
/sports/sports_position/players./american_football/football_historical_roster_position/team	-0.22763617,0.01933993,-0.17087922,0.11344696,-0.03523521,0.0146389,0.053578965,0.018619059,0.2019205,-0.06258474,0.098009676,0.018774971,0.11839737,0.030692276,-0.021841835,0.10871153,0.08109861,0.08971609,0.13082834,0.08863622,0.014556589,-0.082878605,-0.11217759,0.0073584486,0.108334206,0.11192318,-0.08746839,0.16863586,-0.065822855,0.071498156,-0.21057594,-0.045016725,-0.026011253,-0.06497836,-0.061566263,0.01657694,-0.04570794,-0.028529823,-0.021439677,-0.014520543,-0.020881824,-0.04233341,-0.16782008,0.04989881,-0.15497418,-0.04148251,0.0060605616,0.119591855,0.060595185,0.207604,0.0020194994,0.062822066,-0.058401488,-0.003021845,-0.044260133,-0.0076985727,-0.042538747,-0.0971831,-0.061347805,0.04846679,0.16815792,-0.09615219,0.16126202,-0.02061258,0.14643633,-0.04760081,-0.07965027,-0.09716627,0.013645527,0.10113334,-0.21841303,-0.02388344,0.16503882,-0.048454493,0.0291497,-0.0740236,-0.15526512,-0.03568904,0.06162023,-0.07862161,0.059451465,0.020851357,0.22312015,0.15796293,0.0875525,-0.13111417,-0.11492588,-0.08626095,0.009391048,-0.117685944,-0.11105468,-0.026907455,0.03256976,0.00041064312,-0.04563179,-0.025323337,0.011522561,-0.10730144,-0.10229016,-0.098044254
/film/film/other_crew./film/film_crew_gig/film_crew_role	-0.064969756,0.03295542,0.1349946,-0.08357616,0.22297026,0.0038643978,-0.095827356,-0.018410956,-0.086124815,0.21708776,0.09098445,0.08958013,-0.051290005,-0.041768808,0.07045591,-0.033152457,0.118711725,-0.03973323,-0.006635504,0.08140297,-0.059463326,0.061328318,-0.09053466,-0.038571265,-0.013323187,-0.06407988,-0.17701143,0.04541787,0.030040104,-0.10371587,0.06417901,0.022915192,0.061539054,-0.0031162673,-0.066495754,-0.03493471,-0.012803429,-0.1487624,-0.040874034,-0.0370149,-0.22114871,-0.16502857,0.13454367,-0.037565984,0.020857994,-0.020180505,0.13577949,-0.074933134,-0.046752427,0.0772605,0.044743113,0.07706314,0.016072076,0.17117193,-0.03243093,-0.051209785,0.06433574,-0.1464994,-0.040157355,0.18082488,-0.25945124,-0.044379484,-0.011828702,-0.080357544,-0.044863984,0.011565149,0.29550657,0.15059207,-0.0012215672,0.0063771885,-0.11400584,-0.06569367,0.10445474,0.0085277045,0.105723724,-0.062177654,-0.09099091,-0.091972105,0.0012633739,0.18921869,0.100615256,0.10231139,0.075951435,0.030785702,-0.06400706,-0.02743941,-0.10945775,-0.022629987,-0.090845056,0.030163966,-0.18050084,-0.100737795,-0.016539786,-0.17455345,0.04356767,-0.05880558,-0.17317173,-0.05117921,0.1760689,0.00082678115
/award/award_ceremony/awards_presented./award/award_honor/award_winner	0.009354066,0.100104414,0.09207089,-0.058643293,0.13072515,0.026842268,-0.038856983,-0.11257049,-0.09398917,0.08156063,0.008324839,-0.07910885,-0.021761438,0.053043675,0.0021390403,0.4176112,0.06346571,-0.23176967,0.01675861,0.018055335,0.03300268,0.025597854,0.071133085,0.0884679,-0.017847357,-0.22644818,-0.10929962,0.17478831,0.009308683,-0.030421127,0.021811806,-0.008559246,0.0542552,0.08566412,0.20951183,0.08842348,0.068825245,0.0008623596,0.029197369,0.007651892,-0.017088747,0.05814866,0.051020328,0.08957806,0.045971878,-0.06079583,0.12597944,0.099257916,-0.008993619,0.15672135,0.026402982,0.036496352,-0.0047584237,-0.07820822,0.003499607,-0.028768985,0.018910373,0.015391807,-0.104890816,-0.07400463,-0.13911836,-0.103445545,0.124745384,0.018313665,-0.1838399,0.110747896,0.18841238,-0.088921666,-0.004986732,0.19620319,0.13083163,0.03517747,0.061444733,-0.030818459,-0.015185594,0.032749087,0.0053987014,-0.12552424,0.0010768527,-0.014429395,0.19243237,-0.011045932,-0.10045756,-0.04394877,0.009025623,-0.038004998,0.0750699,0.059040226,0.03323508,0.015232334,0.034529477,0.07592956,0.30228004,-0.039866548,-0.16503423,0.09563419,0.010801289,-0.09159085,-0.028444368,0.021485783
/film/film/country	0.02033019,-0.14750353,0.21943614,-0.015823143,-0.011235291,-0.1566847,-0.011515843,0.03697141,-0.0090309875,-0.22488014,-0.15662025,0.018113155,-0.11689417,0.047142107,-0.106582835,-0.010132913,0.022996452,-0.039304454,0.13426992,-0.06375063,-0.06477758,0.04288063,-0.073754564,-0.04465175,-0.038643315,-0.07371577,0.013064278,-0.11491962,0.062427454,0.039755985,-0.07749326,0.16456035,-0.04874269,-0.008625103,-0.021771893,-0.05399418,-0.025460126,0.058304984,-0.13553216,-0.12196579,0.026077395,0.05309358,0.05307035,0.1378409,0.014284173,0.06782988,-0.059495434,0.01711958,-0.01470688,0.0562268,0.011746902,0.26939738,0.05997974,0.06601079,0.16805759,-0.02243268,0.0041835746,-0.15222278,-0.15948918,-0.068878576,-0.06907753,0.017181003,0.068440184,-0.1331575,0.054832537,0.12066934,-0.14863874,0.10592902,0.14579746,0.0009911717,0.07638465,0.23289786,-0.17717628,-0.023933727,0.0094206305,0.018085454,-0.04182596,0.10491532,0.14784525,-0.14833136,0.03945551,-0.08302934,0.037899952,-0.044450607,-0.1789084,-0.08460357,0.11607607,-0.14819835,-0.08958634,-0.08335651,0.0025526867,0.098576196,-0.04448217,-0.13918969,-0.15884228,-0.05614916,0.17546809,-0.13529155,0.02021003,0.045594607
/olympics/olympic_sport/athletes./olympics/olympic_athlete_affiliation/country	0.054214552,-0.052039,0.034075014,-0.18108915,0.03211283,-0.124065734,-0.055523086,-0.06750612,-0.10582887,0.007210688,0.025243761,-0.020994872,-0.11378068,-0.043659944,-0.008005959,-0.10086612,-0.012011308,-0.09399572,0.056672122,0.117104195,-0.07231054,0.085074045,-0.097702585,-0.16369815,0.27588126,-0.1240501,0.017636133,-0.067305,0.092319995,-0.030981425,0.114484146,0.25636375,-0.0023966883,0.072885916,0.023503132,0.0028050276,0.060619336,-0.026803402,0.11381772,-0.053489406,0.031275243,0.017137656,0.035761125,0.11826451,0.14226782,0.0015102347,-0.082515165,-0.06755658,0.13801092,0.04254936,-0.09329132,-0.083276436,-0.04375773,-0.09350442,-0.09425525,0.09588641,0.005688714,0.10950664,-0.009136381,-0.047706984,-0.111619025,-0.12834102,-0.09499773,0.010171273,-0.062107068,-0.023384796,0.010592583,0.14866723,-0.11941837,0.001391271,0.13825983,-0.0047273473,0.15886469,0.22680253,0.10903169,0.05427276,-0.0447972,0.26514253,0.01420807,0.08871884,-0.055460364,0.18515886,0.10404748,0.010141202,-0.08438545,-0.07501288,-0.071759574,0.019427879,0.09796813,0.010728608,0.060104918,-0.24584047,0.10174724,-0.004969276,0.015307816,-0.065157875,0.014620236,0.23933122,-0.026363928,-0.06004432
/award/award_winning_work/awards_won./award/award_honor/award	-0.097423606,-0.13411835,-0.016675035,-0.08020281,-0.053122617,-0.07439555,-0.21627633,0.13847919,0.023443658,-0.099117674,0.0862221,-0.017159322,0.3684085,-0.043717023,-0.16515289,1.9324543e-05,-0.010212687,-0.07483588,0.09137636,-0.05989565,-0.14700323,-0.03703641,-0.04961574,0.00085875444,0.0059603737,0.2596152,0.06721658,-0.18590707,0.0007164135,-0.018862791,-0.021803115,0.08213831,0.0015141207,-0.09088014,-0.054120954,-0.12486284,-0.020923046,0.0880188,-0.12583934,0.11127122,-0.18422817,-0.058302093,-0.09546671,-0.054305833,0.050232258,-0.10745192,0.11666615,-0.13729453,-0.092337586,-0.063390516,0.0031843279,0.12403208,-0.057408813,-0.08585987,0.01303992,0.102098614,0.16213986,-0.11200113,-0.058709957,-0.05211004,0.06045916,-0.049347766,-0.23482846,0.09707001,0.04863342,-0.104125425,-0.14250323,-0.045749955,-0.1299717,-0.05472785,0.04615622,-0.0017232838,-0.07199818,0.02900232,-0.0040690955,0.014220401,-0.07090838,0.029720718,0.21635407,0.123051204,-0.09041107,0.01319987,0.00046671584,0.01850451,-0.1486292,0.10721504,-0.009183086,0.0106896935,0.026752144,-0.11296936,-0.025809327,0.033965763,0.047727417,0.0038292774,-0.022232039,-0.15195104,-0.08702009,0.03773967,-0.060685877,-0.056350023
/base/schemastaging/tv_actor_extra/regular_dubbing_performances./base/schemastaging/tv_star_dubbing_performance/program	-0.0592421,-0.060901348,-0.049524345,-0.0012888203,0.052705064,0.12860289,-0.047792085,0.11280475,-0.13007176,-0.115160495,0.08655774,0.057069037,0.09938718,0.0069879848,0.018518765,-0.076094545,0.013821669,-0.018340098,-0.049493603,0.036543675,0.073627755,0.068726644,-0.10427328,0.028285645,0.085631594,0.013795113,-0.028559068,0.20525075,-0.097341314,-0.11004923,0.02762259,-0.018894827,-0.013945803,0.0044100927,0.004006103,0.028254254,-0.01390964,0.03565037,0.12886523,0.046589416,-0.09868595,-0.039277326,-0.083292834,0.04436956,-0.044102475,-0.1885444,-0.17229596,-0.12290539,0.1334189,0.04759363,0.046692353,-0.03675468,-0.11044053,0.0015926257,-0.18455936,-0.0005380406,-0.14165485,0.00509771,-0.068716764,-0.115986936,-0.09479412,0.15625623,0.08606564,-0.14105096,0.14244291,0.16246367,-0.11346757,-0.017735505,-0.02759046,0.09623155,0.16334374,0.04693217,-0.14285828,0.16425541,-0.13845387,-0.0488271,-0.13400605,0.16157408,-0.06280602,0.025408171,0.0020637384,-0.10196546,-0.18299523,-0.09581516,0.19234693,-0.13378276,-0.19060542,0.16790877,0.18458858,0.016992241,0.12768887,0.12753473,0.053103574,0.0081095565,-0.08713587,-0.06642099,-0.026724668,-0.025580795,-0.16954589,0.07960213
/film/film/genre	-0.097670935,0.2646546,-0.08590769,0.08878243,-0.03732749,0.016942231,0.016922286,0.03092869,0.25617328,-0.023454947,-0.14185023,0.10649149,0.02555901,0.014583652,-0.041749947,0.14728132,0.026408147,0.18906575,0.16986959,0.069256425,0.08573346,-0.058477614,-0.037317738,0.0048597544,0.053881094,-0.16891018,0.10737343,-0.048849605,-0.04113173,-0.16661279,0.18997605,0.1598517,0.037596166,0.026208933,0.10086939,0.17488025,0.029599713,0.023291746,0.025452655,-0.17707007,-0.014886859,0.015511873,-0.16919614,-0.12312251,-0.105467394,0.0135046,-0.13543649,0.008519958,0.0044958256,0.07364071,0.035497177,-0.13622776,0.07433537,0.1263134,-0.07937056,-0.065276,0.008129817,0.11973609,-0.105567686,-0.10738693,0.080791436,0.08368989,0.050285004,-0.03531312,-0.017424487,-0.122821726,-0.06989007,-0.029123439,0.094930835,-0.090967625,0.101156265,0.05941835,0.07464369,0.09101554,0.014300473,-0.21015432,0.12247057,-0.08203151,-0.062905006,0.068388134,-0.07197628,0.20637342,-0.01650608,0.15513803,0.16312203,0.026622817,0.040526394,0.06817729,-0.055544503,0.020403553,0.007896642,-0.045839198,0.012288488,0.0137876095,0.17702365,-0.13643047,0.006080533,-0.0129877,-0.08210525,0.030688759
/award/award_nominated_work/award_nominations./award/award_nomination/award_nominee	0.08428843,0.028777556,-0.07883063,-0.034336247,0.061747354,-0.19727834,0.041879766,-0.10362065,0.10429855,-0.0032627985,0.17671621,-0.016308881,-0.12791559,0.08143978,-0.15566763,-0.0016453736,0.13207817,-0.0061093275,-0.14535289,0.08238776,-0.017741647,-0.019872198,0.099730894,-0.08731732,0.11698005,0.14584556,0.14528027,-0.078657135,0.0560221,-0.08926688,-0.18369266,0.099053256,0.15664038,-0.06747825,0.15388776,0.13755792,-0.0066860886,-0.057088584,0.027824135,0.12540989,0.06775154,-0.040575244,-0.062466152,0.015762422,0.029856779,-0.07362114,0.08863136,0.036210418,-0.13241845,0.21920323,-0.041716278,0.077903576,0.13026668,-0.021965412,0.11908494,-0.019659262,-0.27993232,0.05449501,-0.030944819,-0.2626319,-0.16049716,-0.05360432,-0.024606222,-0.050642125,-0.1690712,-0.022956135,-0.120491914,-0.08179068,0.086297624,-0.016840765,-0.01683314,-0.08120171,0.09762095,0.051294133,-0.10827478,0.06550785,-0.04578854,-0.0914858,0.03208222,-0.045896746,0.075814165,-0.034033474,-0.05025441,-0.07696753,0.038549107,-0.05680096,0.0038342555,-0.03229277,0.04071019,0.20127328,-0.07333647,0.12423043,-0.12183184,0.06483784,-0.036685057,0.11005302,-0.07774035,-0.083567254,-0.13097738,0.0715913
/film/film_distributor/films_distributed./film/film_film_distributor_relationship/film	0.027579105,0.022420585,-0.06738609,-0.047681514,0.091720276,0.026227439,-0.13412793,0.13869992,-0.18988007,-0.04929749,0.038140092,0.025359508,-0.026749425,-0.06176716,-0.0765273,0.16236445,-0.23596196,0.11946436,-0.13927844,0.23858893,-0.18176346,-0.13457286,0.11248544,0.14853397,-0.11293938,0.13440798,0.12265614,0.12711349,-0.006945854,0.18168166,-0.018829921,-0.011074969,0.029235069,-0.053683188,0.041160513,-0.024560962,0.17198719,-0.1473941,-0.06659434,-0.020875122,-0.1557263,-0.036543373,0.08741294,0.098546945,0.058665987,-0.02454444,-0.05777057,-0.13146037,-0.09288127,-0.106553674,0.014606696,-0.17205706,0.09873084,-0.06141386,0.10223747,-0.03019377,-0.11494051,0.1324909,0.014427317,0.014612396,-0.013832345,0.03778718,0.074458785,-0.07091639,-0.12454323,-0.059873782,-0.08643639,0.07522267,-0.033366855,0.07723787,-0.043693967,-0.25426126,0.098799564,0.009931841,0.024400754,0.0332693,-0.13402902,-0.21738622,-0.054199174,0.036684394,0.042205766,-0.07929097,0.11195827,0.12718865,0.024408862,-0.008392316,-0.0749845,-0.008117535,-0.036667693,-0.034641247,0.09941105,-0.053291287,0.087852016,0.0748265,-0.0045256135,-0.05739809,-0.05803621,0.08047196,0.0881176,-0.14742635
/location/statistical_region/rent50_2./measurement_unit/dated_money_value/currency	0.16661735,-0.027493352,-0.03179323,0.26105803,0.0116358735,0.040117197,0.022197912,-0.17548046,-0.020761436,0.0047244583,-0.23157382,-0.11405852,0.11239352,0.07859212,0.17549242,-0.014408178,-0.05567191,0.15876149,0.16483952,-0.08595197,0.0016486619,-0.13062136,0.009555597,0.05047557,-0.058671936,-0.021713752,-0.10583892,0.07079025,0.04112377,0.068469144,-0.09495544,-0.15592748,-0.16279893,-0.059315532,0.020588104,-0.06924771,0.022229414,-0.06523754,-0.08300231,0.09998901,0.10172753,-0.033144068,0.014343376,0.0792651,-0.027639877,-0.07787371,-0.24789664,-0.06389076,0.038485784,0.040506348,0.05359039,-0.064055435,-0.08513354,-0.08162813,-0.06808742,-0.03439431,0.09546625,0.027572123,-0.06780825,0.09274611,-0.01948817,0.062155332,0.19005355,-0.07256223,0.07971387,0.06378157,0.08644651,0.006190779,0.07590578,0.107893564,-0.01736743,-0.1613649,0.043925647,-0.022749485,-0.048585724,-0.0120026395,0.19236615,0.2151002,-0.08569159,-0.06718628,-0.049784604,-0.093470134,-0.088825814,0.013021734,-0.06818404,0.06328541,0.08588113,0.049637422,0.030252747,0.067963116,-0.030667242,-0.068745755,0.03373315,0.114972696,-0.012945701,-0.33663943,0.121182375,0.0044874325,-0.07969112,-0.06813525
/film/film/estimated_budget./measurement_unit/dated_money_value/currency	-0.07368344,0.05958304,0.0671248,-0.1388035,-0.1580725,-0.055253804,-0.111454144,0.1477333,0.011930755,-0.015246248,0.013949164,0.03378698,0.22374178,-0.046237156,-0.07782499,0.024254981,0.044656605,-0.11308373,0.074955486,0.036204655,-0.2711872,0.11625232,0.109215245,-0.002066028,-0.07791034,-0.06522472,0.015173016,-0.042562447,0.14511862,0.036500856,-0.016651044,-0.1264422,-0.18855684,-0.10625662,-0.07745429,-0.029200397,0.048725344,0.0639627,-0.14168045,0.023347108,-0.023480365,0.15699579,-0.098681256,-0.07370981,-0.024885856,-0.057003304,0.03062908,0.22025354,-0.0650419,-0.011808681,0.12771481,-0.03780676,-0.10750151,0.121863194,0.10815746,-0.0021848565,-0.08442397,-0.089892,0.07930006,-0.0010137478,0.10490457,0.023046918,0.14797518,-0.119930424,-0.19955572,0.17678359,0.089788124,0.0472211,0.075252876,0.0065470194,0.1617986,0.07271102,0.12754694,-0.08724122,-0.04904947,-0.0032185982,0.2304889,-0.035525173,-0.10440862,0.22718674,0.097938165,-0.013300196,0.0343971,0.12828392,0.103877895,0.06345706,0.034195088,0.051016565,-0.04979715,-0.094388396,0.020049108,0.06594491,-0.04525562,0.111737624,0.027807053,0.032910515,-0.114429,0.14652878,0.027667968,0.009307345
/location/administrative_division/second_level_division_of	0.11263486,-0.038514595,0.024789734,0.0562522,0.015210768,-0.03244805,-0.02891972,0.02733201,-0.08169445,-0.024934791,0.05643082,0.03741715,0.09270618,-0.34074545,0.048755962,-0.04329181,0.080900475,0.10450911,-0.049346447,0.038238537,0.23927978,0.11787095,0.1017405,0.14441718,-0.082197085,0.010796901,0.0618824,0.053483523,0.0115912,-0.11241755,0.12340003,-0.15997817,-0.08715487,0.1934102,0.07711602,-0.10272645,-0.08002834,-0.015748508,0.1433856,0.09714394,0.007349229,-0.080997765,-0.08731446,0.11077216,0.08375402,-0.020637041,0.021530643,0.17166306,0.10632278,0.04067187,0.09118984,-0.10563021,-0.047602035,-0.10374567,-0.0023773182,-0.11739587,-0.04608565,0.024342593,0.13001229,-0.12540863,-0.010887136,-0.059011083,0.04289548,0.10347566,-0.2562763,-0.06473939,-0.114565514,0.05120618,0.072675295,-0.15980797,-0.027854659,0.17081764,0.00045159808,-0.02106796,0.15870404,-0.07615944,-0.019135915,-0.08987456,-0.1177679,0.09085453,-0.096575506,0.14155684,0.006482513,0.078716606,-0.1506357,-0.04008436,-0.13134056,-0.031812202,-0.14714867,-0.0047198245,-0.09113374,-0.049394287,-0.012174553,0.01477355,-0.043385386,0.111099295,-0.012810083,0.2199265,-0.051968586,0.0886887
/government/legislative_session/members./government/government_position_held/district_represented	-0.1501548,-0.009813296,-0.047414374,0.022323076,0.040430017,0.0022078545,-0.09578089,0.3391287,0.20641182,0.007840069,0.108556174,0.022328278,0.11294979,-0.053445708,0.18355373,-0.008940445,0.10710719,0.14715175,-0.17883624,0.007096926,0.120942764,0.05993225,0.14098129,-0.1198675,0.013287236,0.15517184,0.18631923,0.15183367,0.0135678435,-0.06800442,-0.1974148,-0.002682687,0.021847382,0.02071039,0.03338768,-0.11712328,0.023430513,-0.02529882,-0.14423342,-0.0540339,-0.09817609,-0.15395153,0.0056946725,-0.0951707,0.10280483,-0.0079711275,0.06344661,0.048675165,0.09614248,0.066040255,0.102635585,-0.052381475,0.07281315,0.01630868,-0.0877831,-0.05864405,0.04544169,0.015772427,0.0127377985,0.04622558,-0.084288165,-0.09530325,0.27621242,0.08485845,-0.13380755,-0.17878199,0.06326222,-0.06792442,-0.12027628,-0.025883593,-0.083336174,-0.06528525,0.012363837,-0.07707508,-0.09180584,-0.05541775,-0.03638577,-0.0002681027,0.029817533,-0.12394227,0.0867264,0.0048057674,-0.008381809,-0.014575721,-0.109823465,-0.012599225,-0.14706159,-0.12175024,0.09963505,-0.05762361,-0.0018198674,0.025800461,-0.06351595,0.1354228,0.015688485,0.1478419,0.062416017,-0.09368573,0.046275057,0.06504036
/sports/sports_team/roster./american_football/football_historical_roster_position/position_s	-0.063710734,0.0073476504,-0.06594175,-0.035879616,-0.11408454,-0.15928434,0.049760375,0.16480799,-0.09150679,-0.116020426,-0.08188171,-0.03350542,0.0018458983,-0.16024236,0.042782687,-0.035212297,-0.0628153,0.10868265,0.014799481,-0.00042817267,-0.04569336,0.074737996,-0.10485813,-0.011977931,0.06770316,0.064947635,-0.0011701714,-0.021236528,0.024759224,0.114728816,-0.04745693,0.07042842,0.111285366,-0.017902132,0.045635257,-0.039653987,-0.09023854,-0.041415203,-0.066683225,-0.17376167,0.24472427,0.12217106,0.06421281,0.024881588,0.09375865,0.19035381,0.0014706966,-0.052803032,-0.02149404,-0.13911253,0.09825669,0.12551738,-0.1669563,0.104912035,0.094879866,-0.1079711,0.062017385,0.034019332,0.12130926,0.09412292,0.14487857,0.03561059,-0.072985545,0.06305609,0.1443378,0.0031747108,0.03162355,0.0795961,-0.10550538,-0.060425457,0.26596278,-0.15074292,-0.107321836,-0.11687549,-0.024351241,-0.042194426,-0.19437033,0.14471366,-0.27404195,-0.0009943834,0.026281586,0.003428204,-0.0103050815,-0.14641829,-0.019477619,-0.033816975,-0.01567588,-0.0026302687,0.16562365,-0.17244233,0.024259286,0.055599425,0.13802291,0.056730483,0.034068305,0.08407423,-0.12326671,-0.054847203,-0.09018908,0.07843017
/government/government_office_category/officeholders./government/government_position_held/jurisdiction_of_office	-0.12940127,-0.0060183695,-0.0040107593,-0.11233411,0.049234197,-0.09099843,-0.010452467,-0.121779196,0.13738543,-0.13702878,-0.0016607841,0.09313761,0.011481282,0.117865324,-0.0041157347,-0.06625649,-0.01230497,-0.13142881,-0.007998624,-0.033267796,0.020702185,0.17936875,-0.028977904,-0.06963033,-0.07063953,0.07888128,0.026282975,0.0075588925,-0.04779251,0.015320765,-0.067015074,-0.15881835,0.26183558,0.2539471,-0.06107129,-0.09857614,0.0038463103,0.004945366,-0.056744814,0.09887939,0.076094694,-0.06882329,0.23931661,0.20565039,0.11065438,0.0044718063,-0.027206369,-0.010457306,-0.02930178,0.1565723,0.10652983,-0.19130816,-0.15875882,-0.0149436155,-0.1642615,-0.12027596,-0.028348837,0.05620334,0.10082022,0.16404054,-0.09875959,-0.026634336,-0.0010760863,0.014453795,0.11026951,0.054418597,0.028096957,-0.18796933,-0.17653528,0.04295532,-0.054354373,-0.028416853,0.10204981,0.048897997,0.11297918,0.001539882,-0.05162197,0.056991454,-0.019230913,-0.08775524,0.11031389,-0.21113917,0.04275899,-0.15173562,0.04772645,-0.040502626,0.024959397,0.091009334,-0.030599242,0.047608647,-0.0045630652,-0.064102784,-0.017407654,-0.09204753,0.1335935,0.074404694,0.07960824,0.16658077,-0.06943332,0.06416856
/award/award_nominee/award_nominations./award/award_nomination/nominated_for	-0.09450509,0.036997706,-0.3549402,0.14284988,-0.12118821,-0.018042134,-0.14290352,-0.03813331,0.08035012,0.038418695,0.07689998,-0.2514635,-0.07728504,-0.029672494,-0.11875121,0.032956805,0.07036806,-0.035684057,0.02691478,-0.08426309,0.032246057,0.0010644755,-0.12822503,-0.091001555,-0.10783642,0.1754573,0.07089303,-0.0023002832,-0.08610526,0.009844425,-0.054558374,-0.016309492,-0.027334841,0.07556891,0.051013485,-0.03067285,-0.18902595,0.031703934,0.012046281,-0.06441654,0.110038936,0.068422854,0.1773057,-0.108280845,-0.025714738,-0.09651452,0.10339715,0.03824825,0.2115423,0.19721666,-0.025490394,-0.057516135,0.06562818,0.061927006,0.01894825,-0.012820361,-0.052972954,0.17338347,-0.17920643,0.03440888,0.07225333,-0.0012029376,-0.041573532,0.05921312,-0.021023994,0.054365583,0.0017179602,-0.109620474,-0.03198313,-0.055861607,0.1137461,0.019958016,-0.1860742,0.062559135,0.06535525,0.06857387,0.006141486,0.013725575,0.039351102,0.03570444,-0.014280708,0.07383522,-0.19862469,0.026257267,0.092582665,-0.20452024,0.15708768,0.071794026,0.061182234,0.10081316,0.028726261,-0.024500059,0.06531125,-0.15183023,-0.16241069,0.13719714,-0.027975557,0.06821214,-0.10703962,-2.2941085e-05
/people/deceased_person/place_of_death	0.027175948,0.11237475,-0.03308947,-0.19142985,-0.01640098,0.056840844,-0.06976581,0.23581704,-0.14988062,0.02781269,-0.1191967,-0.030245962,0.0646385,0.17113718,-0.05751822,-0.07018837,-0.041982073,-0.035454392,-0.032394532,-0.04034078,-0.21494567,-0.058437735,0.19569398,0.025639858,-0.00175826,-0.051362008,-0.0028932746,0.042726297,0.09290122,-0.030439762,0.07989902,0.044538863,0.041688137,-0.15792769,0.113129884,-0.062562,0.059230417,0.01347489,0.04077687,0.03991825,0.121600166,0.13432695,0.047975875,-0.046729207,-0.11135383,-0.031100923,-0.07453755,-0.08775918,0.073406585,-0.044974335,-0.012986329,0.07752673,0.071368605,0.15011178,0.031023208,0.22501177,0.055417698,0.07079235,-0.27274564,0.047969613,0.0045924275,0.12026007,0.02016626,0.083176404,0.113370135,0.0033382177,0.05123,-0.09066966,0.03962695,-0.17273912,0.050607923,0.053627595,0.012766147,-0.048597574,0.01647566,-0.09970005,0.17122103,-0.0155096,-0.13958788,-0.26599967,-0.07939319,0.16878963,0.04066273,-0.181463,-0.00062158576,-0.09721622,0.08119643,0.24527949,-0.0055753137,-0.05082274,-0.00020410879,-0.11135285,0.09370879,0.059658803,-0.07802953,-0.037497256,0.06167267,0.02354875,0.0045325323,-0.03688729
/music/group_member/instruments_played	0.13620412,-0.074529484,-0.034937806,-0.01523787,-0.14501524,0.022519687,-0.06276682,0.07436425,0.04071325,-0.042970367,-0.0034216344,0.08594692,0.24507283,0.049512632,0.13458581,0.14111985,-0.15985738,-0.043841526,-0.009740333,0.009684478,0.04663581,-0.08910543,0.06324943,0.0021831715,0.048387647,-0.14011505,-0.031851605,-0.14491013,0.016977841,0.05855381,0.042714216,-0.020598374,0.010160707,-0.042763535,-0.011953249,0.12439416,-0.09036071,0.029382885,-0.050766088,0.009819596,-0.029951591,0.00387649,-0.07281532,-0.07078275,0.114652336,0.06720303,0.013982645,0.1385288,0.022167077,-0.078503065,-0.1510588,0.08012201,-0.054544657,0.04547632,0.16258788,0.0027156929,-0.25768492,-0.07184557,0.19177958,-0.14831018,-0.028888382,0.08150971,0.16473371,-0.009125403,-0.05856217,-0.07914221,-0.10862688,-0.03805272,-0.25642058,0.22049809,-0.12886673,0.22922327,0.034767,-0.3371856,-0.20534456,-0.10157784,-0.13134542,-0.015461769,-0.029186705,-0.009814685,0.0033308459,-0.047273245,0.007139038,-0.01551394,0.009902852,-0.032926075,0.03152834,0.07562237,-0.0047520828,0.04642647,0.03540417,0.05662135,-0.052415926,-0.032588046,-0.029236298,-0.030069787,0.104278676,-0.0039157737,0.055983294,0.06058147
/film/production_company/films	-0.007855593,0.03999917,0.11296808,-0.08755109,-0.16268857,-0.13416098,0.085999995,0.022986783,0.009285597,0.099570274,0.1339822,-0.03444847,-0.077327915,0.113907814,-0.072942145,-0.08622815,0.06326372,-0.105051324,0.055720292,0.0851812,-0.033016365,0.12942897,0.1405586,-0.05296816,0.06168928,0.054557994,-0.09535451,0.18095408,-0.06846153,-0.110158786,-0.13014312,-0.0033981819,-0.055552304,-0.12966278,-0.028658764,0.15387672,0.06734186,0.13273199,0.17553367,-0.15800528,-0.03428155,-0.10070282,-0.19317986,0.13616835,-0.07319261,0.19607286,-0.036309145,0.040623758,-0.018990906,-0.109076984,0.113511294,0.039308187,-0.006487619,0.011354964,0.09450164,0.032099977,-0.02078248,-0.03173554,0.05284864,0.11308456,-0.07179677,-0.003837347,0.02849037,-0.102843635,-0.015100304,0.01725297,0.20163707,-0.010830291,-0.19475132,0.10057262,0.06327201,0.052539084,-0.091793366,-0.10919127,-0.021411015,-0.15585841,0.15055859,0.07488593,0.039269194,0.124017924,0.14424774,-0.057194248,-0.052487615,0.115612045,0.06399442,0.04048301,-0.02523315,0.00021621915,-0.12902649,0.11387737,-0.16140868,0.0012601309,-0.038837094,-0.028765565,-0.1856183,0.08645584,0.022714077,-0.0033304584,-0.13808088,0.2443164
/sports/pro_athlete/teams./sports/sports_team_roster/team	-0.03599727,0.07918209,0.013391179,0.03029432,0.08541073,0.04230251,-0.004896052,0.043689884,0.18955837,-0.16552751,-0.015410422,0.10268685,0.0864879,-0.14507626,-0.18908593,0.0020082537,0.08348289,0.16336302,0.13251214,-0.01574499,-0.26306075,0.09694976,0.073059686,-0.06229829,-0.054454345,-0.030347828,-0.021022614,-0.04162543,0.05361089,-0.06957997,0.012715634,0.055785503,0.11536005,-0.027317632,0.04661997,0.03973165,-0.15442625,-0.15920013,0.08054755,0.090651006,0.040682346,0.027811602,-0.11406845,0.0761073,0.023211837,0.036872122,0.05909423,0.09509026,0.031873185,-0.036196083,0.0355869,0.014873465,0.029692605,-0.12597813,0.002565347,-0.0005907991,0.09732478,0.18767364,-0.0944769,-0.04920886,0.06380859,0.12324716,-0.022359574,0.10554515,0.033021253,-0.08085863,-0.12406625,0.060791045,0.020864068,-0.029439606,0.24276134,-0.007949659,0.06997634,-0.096713975,0.06647779,-0.070077114,0.027776645,-0.20605856,-0.040106114,0.11127431,-0.22341987,0.08328838,-0.046229538,-0.19402415,0.056952138,-0.022768358,-0.06356815,-0.095198624,0.012267178,-0.30788907,-0.21660328,0.05640181,-0.04253358,-0.07251674,-0.14937297,0.058235005,-0.026620092,0.026343478,-0.012935936,0.00033920712
/base/schemastaging/athlete_extra/salary./base/schemastaging/athlete_salary/team	0.026294757,-0.0489665,-0.1888804,0.10868798,-0.019399572,0.14903349,0.057739947,-0.1127922,0.0463585,0.044352144,-0.1698212,0.10952079,-0.08358626,0.07076841,0.087023444,0.01640184,0.03014084,-0.03375671,-0.08533754,0.17084318,-0.18847546,0.16980168,0.08082519,0.19326197,-0.09601615,0.071392275,0.08001377,-0.068857774,0.014784732,-0.035013705,0.13668923,0.122972935,-0.10695697,-0.06406141,-0.06703266,-0.05659061,-0.088513166,0.14789349,-0.013564481,-0.046119362,0.14258026,-0.11891058,0.16987774,-0.009560161,0.03864579,-0.17711248,-0.04877275,0.00018208347,-0.045289725,-0.034926973,-0.021368377,-0.1109903,0.060877632,0.07384943,-0.10399167,-0.06263632,-0.112969,0.06572344,0.066331185,-0.08281881,-0.138958,0.15124449,0.010720131,0.0071529886,-0.0012294222,-0.09113573,-0.047711693,0.014822652,0.034344103,0.08851497,0.16197176,-0.21984781,0.1211018,0.06830383,0.10625076,-0.0093916785,0.011400811,-0.012082234,0.020394867,0.0643381,0.03450669,-0.12642547,-0.108594455,0.18605101,0.12280889,-0.12281484,0.16010736,0.029631298,0.03699956,0.10972695,-0.07365686,0.16765048,-0.054667838,-0.07767406,-0.018515429,-0.023316363,0.016339561,-0.0977072,-0.2296441,-0.066242985
/music/artist/track_contributions./music/track_contribution/role	0.09091661,0.08604668,0.037687603,0.053661335,0.018384943,0.042871613,-0.018121915,0.043097336,0.09342253,-0.18964109,-0.1835922,-0.13042347,0.11917006,-0.052397795,-0.046165373,-0.041874457,0.12597738,-0.0073396754,0.073505916,-0.0008947083,-0.06887564,0.060532477,0.12830317,-0.13228711,0.0905597,-0.11679453,-0.088112116,-0.06608294,-0.10475615,-0.10379035,-0.096011646,0.1266829,0.061461397,0.17577799,0.116723135,0.079235606,-0.038974006,0.2258817,-0.08125842,-0.17323492,-0.042795684,0.05681044,-0.05589384,0.14476009,-0.056182202,-0.095420614,-0.07055532,-0.048902724,-0.042748053,-0.12351018,-0.12842381,-0.11053256,-0.07299468,-0.05116368,0.101154074,-0.020250203,0.028789906,0.030844053,0.06415728,0.05263588,0.014120496,-0.10955112,-0.09271295,-0.0053465404,-0.09915993,-0.101439744,0.2065824,0.016591156,-0.05202875,-0.13580705,0.2047945,0.015833108,0.24114445,-0.046572093,-0.08146324,0.018736776,0.05941007,-0.03849364,-0.25153214,0.076361276,-0.051659953,0.14711873,-0.034264687,-0.08922551,-0.05984861,-0.085144415,-0.017331181,0.03533876,0.03310608,-0.116076075,-0.049722273,0.021866838,0.120585375,-0.027560111,0.047067754,0.05519105,-0.0018666942,-0.009458152,-0.23189892,-0.07533651
/organization/organization/acquired_by./business/acquisition/acquiring_company	0.07603122,0.123378776,-0.1483898,0.09315892,0.076430656,0.013412626,-0.086702086,0.20053415,-0.09955882,0.0807698,-0.064003974,0.09250526,0.11585846,-0.13938059,0.013846749,-0.18165492,0.08532959,-0.102206714,-0.120931625,-0.122845046,-0.004651605,0.13381179,-0.0021650756,0.091436595,-0.007684988,0.15314266,-0.097330675,0.023265019,0.063012496,0.10233371,0.03767521,0.1626054,-0.1735417,0.114349686,0.14362754,0.024745623,0.016035968,0.11624542,0.0672746,0.008148524,-0.038661387,-0.21411593,-0.008773286,-0.08834409,0.12881088,-0.047183286,-0.12888254,-0.20402642,0.066129565,0.0035804422,0.06004234,0.04696894,-0.034174297,-0.033266637,0.021326523,0.03264451,0.013981332,0.04282734,0.19693734,-0.086365245,-0.005377433,-0.066066176,0.07981709,0.18906097,0.046652216,-0.012320025,-0.1504704,0.09777799,-0.13673517,-0.103274435,0.05898017,-0.17226757,0.007918252,0.17190349,-0.021771146,-0.13892072,0.1508587,-0.047291454,0.08175255,0.011046013,0.0059787896,-0.0738264,0.11058251,-0.03529372,-0.022224175,-0.0915697,0.041422077,0.046130177,0.08484135,-0.030059474,-0.012516837,-0.08012132,0.052877374,0.122991525,-0.17722228,0.09521487,-0.11993549,0.11518042,0.06694721,0.10430764
/music/instrument/instrumentalists	-0.028652702,-0.07081177,-0.014130972,-0.11979933,0.29819998,-0.111898154,0.05294059,-0.054928437,-0.032462046,-0.36987472,0.039597444,0.06906012,0.046210054,0.004805264,0.12660012,-0.05429342,-0.007755579,-0.044363603,-0.12600684,-0.035218965,-0.07793651,0.113504075,-0.14081001,0.09741033,-0.114335254,-0.031646684,0.13223022,0.0402534,-0.1929724,0.07038589,0.03912073,-0.071229115,-0.017607491,-0.016732134,0.09931225,-0.053219557,-0.041905098,-0.007806972,-0.019973572,-0.057484552,0.11431445,-0.062128823,-0.07455488,-0.07296817,0.10526087,0.13405235,0.03200939,-0.0102376705,0.004900879,0.011429421,0.10466546,0.06696276,0.12865494,-0.045866128,0.14657374,-0.063932575,-0.042822745,0.055268403,0.010199719,-0.20892696,-0.15925549,0.10127579,0.017592315,-0.0019838845,-0.13598746,-0.10004653,-0.0005575696,-0.038105275,-0.1039232,0.022156902,0.20165561,0.10495511,0.090651736,-0.05492911,0.18224525,-0.021620905,-0.045148708,-0.018960765,-0.01103979,-0.057008035,0.066941604,0.09320327,-0.0062061385,-0.0389592,-0.13411155,-0.08957148,-0.21433422,-0.087060004,-0.079663955,0.083387725,0.057950687,-0.04612146,-0.12627742,0.15958722,0.032213744,-0.10613499,0.15645531,-0.00028495304,-0.045937512,0.064563215
/military/military_combatant/military_conflicts./military/military_combatant_group/conflict	-0.03350423,-0.033706482,-0.0009840464,0.056646626,-0.06340147,0.06189469,0.024137745,0.044678338,0.09914638,0.002679216,-0.13903421,-0.027339756,0.28973296,-0.30758345,-0.031995922,0.21533957,0.027866011,0.054552834,0.09326382,0.09052311,-0.052854296,-0.04046578,-0.102327794,0.026255505,-0.05731643,-0.005206013,-0.04144976,0.14534378,-0.0189197,-0.018356174,0.11821086,-0.054852854,-0.054543994,-0.127169,-0.049820364,0.07485898,0.03306105,0.1509472,0.12293029,0.0031575619,-0.031465918,-0.02219689,-0.061098643,-0.04920366,-0.034618925,-0.037044883,-0.070159905,0.061256453,0.09124012,-0.016999196,0.02609114,-0.10046781,-0.07728913,-0.082364134,0.015448328,0.04043468,0.0008776107,0.07877036,-0.023512512,0.006212086,-0.038070917,0.14960091,-0.027109636,0.0494596,0.049667735,-0.09759151,-0.05451364,0.055066757,0.05530452,0.08271848,-0.07526189,-0.12776221,-0.1364413,0.10705201,-0.0097357305,-0.031492725,0.4100015,-0.2417347,-0.17639753,0.20718606,-0.04365942,0.07923901,-0.07705928,-0.050852504,-0.01900489,0.046403047,0.13374539,0.04978364,0.025796385,-0.015532391,-0.023871519,-0.06836866,-0.12933064,-0.055118598,-0.16824558,0.04105225,-0.074651375,0.036755793,0.0925488,0.051146127
/people/person/education./education/education/institution	-0.003087831,0.017847948,-0.006824443,0.015683005,-0.0074001546,0.109058484,-0.13212222,-0.09276783,0.049133256,0.021196878,0.030394066,0.073145024,-0.09794556,-0.18915254,-0.11675458,-0.026296733,-0.012160531,0.06721266,-0.15366107,-0.03333577,-0.052352667,0.09472708,0.09748642,-0.13176157,0.1961702,0.07425448,0.018780852,0.08211356,0.047457952,0.052105866,0.09493645,-0.06130203,0.012524125,-0.058677964,0.07744522,-0.008728001,-0.10681069,-0.14773902,0.06343073,0.12670398,0.10644056,-0.05664558,0.20281559,-0.16575539,0.14533238,0.053212266,0.09361632,0.011875432,-0.055436544,0.1117309,-0.04254157,0.0633474,0.0016743295,0.06928948,-0.04850053,-0.07588544,-0.09547362,-0.22001518,-0.059838407,-0.22840977,-0.008385236,0.007116643,0.1627153,-0.08163375,-0.18122646,-0.104958616,-0.007081329,-0.15420543,0.11964489,-0.026626112,0.03589034,0.13927847,0.028934376,-0.045590393,0.060269643,0.00509008,0.020091213,-0.033706814,0.005268925,-0.056647517,-0.06562753,-0.09301097,0.0029311765,0.108281404,0.017823294,0.086528495,-0.24796692,-0.035209257,0.07061637,-0.17441832,-0.026759902,-0.2059744,0.07193673,0.14217463,0.05778206,-0.024910891,0.17412087,-0.0835314,0.007675109,-0.027158359
/award/award_category/winners./award/award_honor/honored_for	-0.0022222886,0.12455098,0.24227704,-0.07528853,0.07259841,0.06460634,-0.100031875,0.13247517,-0.31600815,0.049999315,-0.009609211,0.1488182,0.003230111,0.08073287,0.31183618,0.0053232326,-0.07832972,-0.11375412,-0.074349456,0.030329293,0.042084616,0.010281286,-0.0117646195,-0.09036615,0.04413407,-0.10181966,0.06179116,0.08788248,0.04236713,-0.015497686,0.024075637,0.015614629,-0.032702167,-0.059642434,0.103045344,-0.04312495,0.08287536,0.01452014,-0.090178914,-0.18280832,-0.0074149445,0.07650436,0.12517641,-0.033905983,0.0596649,0.031323932,0.016642949,-0.17745438,0.04268131,-0.022491327,-0.15540509,-0.021637581,0.036408152,-0.07021611,-0.030705469,-0.07973152,0.16426045,0.08356151,-0.027596097,-0.06348956,0.20922334,-0.09821199,0.1902755,0.12162007,0.19738299,-0.13714679,0.019942364,-0.0559304,0.016962636,-0.017013207,-0.0070980093,0.09101446,0.034938645,-0.12212454,-0.0392756,0.25082216,0.08443095,-0.004186311,0.018722275,-0.026675316,-0.13753657,0.07105108,0.09091063,0.0075696404,-0.062281772,-0.04734805,-0.18707259,0.0025618137,-0.052042052,-0.0042765676,-0.114811376,-0.1386913,0.07363662,0.00714093,0.085655436,0.099961296,-0.058948606,-0.0023384113,0.063759945,-0.032526784
/people/person/gender	0.07016643,-0.015902787,0.005559298,0.13967228,0.017535983,0.050606,0.005030447,-0.020563923,0.18362066,-0.06626355,-0.04485736,-0.03425398,-0.01219696,-0.042703975,0.098204985,0.19741008,-0.033290297,0.05111041,-0.085366,0.16174826,0.07091758,0.107835926,-0.17033967,0.048523694,-0.03448836,0.002105441,0.028814884,0.014358553,0.15282008,-0.05872558,-0.027956657,-0.03324522,-0.067988224,0.09443471,0.028274944,-0.1381973,0.027831469,0.07742391,-0.009267356,0.03391432,-0.22342847,-0.060491513,0.13302824,0.03902201,-0.014416711,0.08822018,0.1127013,0.014032442,-0.10903109,-0.0012837072,-0.0023504936,0.009537923,0.03347714,0.010196196,-0.058169667,0.022131592,-0.25285816,0.081187494,-0.012280743,0.12873653,-0.08468281,0.12374836,-0.011144655,-0.006089746,-0.012688887,0.008366996,0.20114715,0.1453431,-0.13826081,0.14461255,0.054125533,-0.06682843,0.083294235,-0.018213699,0.14682381,-0.11667614,0.25894424,-0.011433907,0.06470235,0.0941288,0.0034279954,-0.024614038,0.03438137,0.109894454,0.14018458,0.14973642,0.0121109495,-0.08746128,-0.09057946,0.005154316,-0.13464406,0.072335176,0.23572238,0.0076444237,-0.023727266,-0.028941631,0.27885434,-0.10920696,-0.013034985,-0.18349648
/business/job_title/people_with_this_title./business/employment_tenure/company	-0.07289065,0.048608754,0.045513507,-0.18349755,0.014753881,-0.1024558,-0.14793862,-0.0531547,0.013855386,0.026888253,-0.14935605,0.012538432,0.17722695,-0.14226577,0.06517125,0.02471403,-0.027025428,-0.08129583,-0.24598013,-0.028288517,-0.22835024,0.026243612,-0.1216261,-0.054733254,0.059975788,-0.102131896,-0.008894521,0.04775803,0.1947342,-0.07179664,0.07532797,0.016471177,-0.103674896,0.043892592,0.023444446,-0.15913567,-0.00745307,0.016172403,0.08758623,0.09143944,0.031179737,0.00017887016,-0.048944425,0.03305047,0.03358624,-0.06539755,0.04988677,-0.13979316,0.19369559,-0.0041476777,0.004511387,0.1747451,-0.0489447,-0.17268404,-0.009896572,-0.14950208,-0.07117711,-0.11363762,-0.18696792,-0.014386291,-0.12892772,-0.062362414,-0.015056881,0.01832807,0.115967095,0.07680797,-0.11203715,-0.13400082,0.027570197,-0.034817632,-0.016672548,-0.024906393,-0.08103225,0.21884833,0.16046378,-0.0019486056,0.13388623,0.053856663,-0.08602061,0.17635655,-0.026766708,0.030405274,-0.14569835,-0.0068441825,-0.07866538,0.019793596,0.023199657,-0.12662129,-0.15936719,0.076766685,0.005272626,-0.06390053,0.15615727,-0.12428417,-0.012859355,-0.15933035,0.038247567,-0.0711762,0.076522455,0.03699314
/base/popstra/celebrity/friendship./base/popstra/friendship/participant	0.1259555,0.056040734,-0.036227316,-0.34783253,0.0038035922,-0.03970745,0.02398142,-0.114121,0.07048587,-0.30085748,-0.06333107,-0.113574214,-0.029178089,0.041998938,0.02680894,-0.06496731,0.10274496,0.00583466,-0.12655538,0.058233295,0.18515301,-0.0372736,-0.008306585,-0.061880205,0.020400101,-0.059650224,0.0032864702,0.1348071,0.18685271,-0.15689687,-0.12744528,0.14316201,0.10554599,-0.04010469,0.03690987,0.17055704,0.060078032,0.013818676,-0.005260296,-0.17617624,0.08268908,-0.023002138,0.12821616,0.05529557,0.06463329,0.13722828,0.03701427,-0.10714135,0.23040438,-0.047907714,-0.079993054,-0.010615334,0.01107477,0.040350623,0.074851535,-0.028348755,0.06375321,-0.0789485,-0.04116003,0.14760564,0.14499338,-0.074594654,-0.012179745,-0.02920099,-0.049001686,0.016463634,0.011305738,-0.029844565,-0.1634667,0.0048487308,-0.08118502,0.09479781,0.17359081,-0.023162024,0.061883274,0.0006569285,0.048715755,0.08267636,-0.07714313,-0.11178717,-0.039004307,0.009024325,-0.14593302,-0.157042,-0.089242674,0.14600575,0.036299437,0.026484543,0.23619121,-0.01234627,-0.058807287,0.006589628,-0.027427293,-0.010963411,0.0936754,0.029158905,-0.077004984,-0.045442775,0.09610954,-0.068580896
/fictional_universe/fictional_character/occupation	0.13833395,0.12076839,-0.00370139,-0.03811068,0.10417833,-0.051627014,-0.06373181,0.07528046,0.17756397,-0.015508235,0.02368034,-0.0030789936,-0.033191804,0.024658974,-0.05145781,0.101669446,-0.11219921,-0.086899064,0.10152416,-0.1712856,0.097953,-0.08627246,-0.051821757,0.0106289,0.07409682,-0.01490331,0.11679529,-0.020220842,-0.08791113,0.018021258,0.048603363,0.15813194,-0.08805091,0.005286589,0.03523295,-0.023618674,0.085625805,0.0065275906,0.047964823,0.10349177,0.18471973,0.01904999,0.112256475,-0.07762203,-0.14210783,-0.058566872,0.028826978,-0.09448341,-0.001024779,0.09536951,-0.11205513,0.09324918,0.04895789,-0.14500166,-0.10999027,-0.12855965,-0.0753366,0.18639357,0.062173083,-0.13744389,-0.053675897,-0.051270675,-0.09960583,0.075494826,0.083916724,0.2069546,0.15132575,-0.12951878,-0.022822402,-0.17979997,0.019276604,-0.122613996,-0.028027067,0.03666286,0.16254288,0.0124583095,-0.23571877,0.04202255,0.2370967,-0.019841956,-0.07755376,0.055996206,0.08837156,-0.068238646,-0.1339113,-0.02774891,-0.22673607,-0.03705556,-0.015924122,-0.036939032,0.101100475,0.0065781497,0.089932464,0.11498045,-0.046196703,0.0031514291,-0.10250481,-0.20985045,0.023312083,-0.112234585
/education/field_of_study/students_majoring./education/education/institution	0.10175619,0.06259627,0.17956547,0.13718718,0.007351727,-0.02326164,0.029490927,-0.12733284,-0.010076047,0.07474178,-0.07606964,-0.063302055,0.14871699,-0.0487328,0.08395545,-0.27145118,0.038573265,-0.021498626,0.04849572,0.07431894,0.06814678,0.016701102,-0.035246875,-0.07491185,0.041546725,0.1493841,0.0696901,-0.107287355,-0.10832345,0.037076015,-0.04676075,-0.22869992,-0.081567556,-0.06591336,-0.14456706,0.04646958,0.062477447,-0.12177587,0.161334,0.06992051,-0.13142875,0.004491148,0.0034060588,0.3385929,0.0011370704,-0.026586125,0.03401025,0.040713146,0.2036809,-0.06779435,0.025978627,0.05315419,0.025151853,-0.13126032,0.055159584,0.078298524,-0.1638444,0.1751799,-0.04190521,0.06723161,0.051546093,-0.086404614,-0.08592228,-0.019169254,-0.13740394,0.072668225,-0.10910847,-0.1636883,-0.02496265,-0.03445877,0.054783713,0.015993258,0.1896363,0.0009184729,0.16402495,0.0067270654,0.054302,-0.037961558,-0.031837426,-0.003763309,0.20113774,0.0011587595,-0.035055034,0.07267557,-0.035197478,-0.11871616,-0.116521716,0.121857956,-0.06643347,0.015920939,0.06230738,-0.04708528,-0.09012789,0.012025893,-0.052691244,-0.011394601,0.045946002,0.03889418,-0.19221976,0.010392404
/business/business_operation/industry	-0.10793354,0.048509717,-0.011810768,-0.043459907,0.11987978,-0.18512991,-0.046456635,-0.15273923,0.019166479,-0.019318996,0.08038144,-0.0061008884,0.15312053,-0.0887485,-0.02932311,-0.052495446,-0.026260637,0.094048776,-0.03924817,0.045238588,-0.031249722,0.0034567467,-0.10192636,-0.0055284193,0.09642725,0.05636211,0.008853453,0.07033651,0.16483685,-0.07153556,-0.010629507,-0.0998382,0.058808006,-0.046403974,0.029359013,0.20200677,-0.0098519,-0.084282845,-0.17988239,0.14080812,0.0027692383,-0.03300112,-0.034516167,0.16581573,-0.14264971,-0.022624917,0.033830807,-0.01638999,-0.17434548,0.12353194,0.20738687,0.041608922,0.108772084,0.03216928,0.3017171,-0.14883561,0.10808694,-0.13464418,0.2811263,0.062300213,0.035204303,-0.026955212,0.030564701,-0.0045318655,0.12740748,0.084652096,0.06418062,-0.06854524,0.00063093717,-0.07630987,0.14048143,-0.063705854,0.029712968,0.046770453,0.043398682,-0.005568291,-0.034256496,-7.170846e-05,0.12495715,-0.06481253,-0.012578075,0.020949388,-0.06616934,0.10751228,-0.08907912,-0.044392362,0.04617076,-0.102423385,0.050975062,-0.09016618,0.0054599736,0.091517635,0.074175574,-0.120138966,0.030000025,-0.20844829,-0.012919581,-0.23808582,-0.15880977,0.009088313
