1345 50
/location/country/form_of_government	0.11247355,0.039740007,0.3823502,0.14436622,0.081947826,-0.024470106,-0.018716289,0.09587145,-0.016885966,0.1870574,-0.07003525,-0.17892633,0.062445354,-0.32122996,0.16398284,-0.19019493,0.20561633,-0.29507485,0.101362765,0.15154584,0.12502049,-0.044762302,-0.107413344,-0.04156931,-0.02271842,-0.13240768,0.0051765526,0.06935155,-0.14567219,0.008484323,-0.13351466,-0.23008896,0.022627398,0.21070893,0.098416984,-0.037651535,-0.0037010107,-0.042817324,0.07696394,0.16825847,0.25998494,-0.005615059,-0.10226933,-0.11267324,0.041088287,0.015358226,0.2598188,0.04144772,0.010362708,0.008400123
/tv/tv_program/regular_cast./tv/regular_tv_appearance/actor	0.15470368,0.1636294,0.065045364,-0.1052934,0.035241865,0.030741682,0.015958358,-0.012603825,-0.2320796,0.12572253,-0.086212695,0.13453358,0.22466822,-0.14629868,0.055666108,-0.10206434,0.04757669,-0.09828422,0.04923593,0.2534496,-0.18483576,0.026664501,0.15369669,-0.104707435,-0.001835785,-0.27516812,0.109207936,-0.037578736,0.09471808,-0.044108093,-0.016177867,0.13653679,-0.0838817,-0.13574617,0.26689976,0.003234289,-0.23653647,-0.1262188,0.12831855,-0.22368932,-0.018747667,0.08710089,-0.022961617,-0.21496421,-0.044180285,0.18988627,-0.23813036,-0.03617098,-0.2906005,0.077177845
/media_common/netflix_genre/titles	-0.01631916,0.09854306,-0.1484904,0.08571214,-0.023720747,-0.009088921,0.051685285,-0.096797995,0.03203415,0.12358094,0.016462162,-0.15980461,-0.071358114,-0.22195415,-0.20806015,0.12274306,-0.0033670745,-0.15209262,0.32662216,-0.048801173,-0.10571479,0.1733677,-0.29349077,-0.1105436,0.11710654,0.062690146,-0.14170843,-0.10740033,0.17156616,0.0075665466,-0.0321992,-0.09961639,-0.03871782,-0.04600096,0.2598556,0.05804423,-0.047184102,0.345663,-0.12518287,0.09090058,-0.014855481,-0.29028162,0.24300434,-0.19626969,0.025030933,0.16895334,0.077478185,-0.020174315,-0.031388044,-0.01777072
/award/award_winner/awards_won./award/award_honor/award_winner	-0.030065158,0.08815877,0.095378846,0.24675871,0.0012083293,0.032220937,-0.085360885,-0.0030751936,0.011665589,-0.14339283,-0.26734164,-0.18706112,-0.065430894,-0.074610375,-0.24034528,-0.17950255,-0.09334677,0.027183477,-0.20560506,0.065701015,0.121093206,0.10132662,0.0411677,-0.037213366,0.15339501,-0.107826434,0.046192817,0.2713174,-0.12212388,-0.18339035,0.0007392605,0.06678906,-0.41435823,0.09742552,0.035593934,0.38110125,-0.10461969,0.07972138,0.09326144,-0.025404133,0.12785035,0.11416255,0.13424316,-0.16506048,-0.007260154,0.06450146,-0.015916375,0.037804782,0.03249682,-0.08076287
/soccer/football_team/current_roster./sports/sports_team_roster/position	-0.09634642,0.08409415,0.00016479394,-0.20445734,-0.027172932,-0.04268547,0.073551156,-0.046422597,-0.0005230705,-0.07456151,0.10439925,0.28641236,-0.13825287,-0.01764342,-0.070721835,-0.04569599,-0.2542893,0.0671612,0.03892729,-0.26876804,0.07960082,-0.19365011,-0.023996191,-0.05608592,0.14656556,-0.039787136,0.047803868,-0.31141737,0.0950988,-0.08887149,0.24747585,0.047550607,-0.021278435,-0.007452468,-0.27909788,0.08620108,-0.07686411,-0.07510274,-0.19361638,0.1185903,-0.330553,-0.023858054,0.1677323,-0.029856661,0.14595997,0.16755557,0.13438515,-0.054993108,-0.19420572,0.009556839
/sports/sports_position/players./soccer/football_roster_position/team	0.11170082,0.054598555,-0.026911259,-0.038531363,0.07601546,-0.13111718,-0.06380595,-0.14228667,0.24277359,0.19408856,0.12911168,0.028607588,-0.25980157,-0.10376234,0.1923205,0.028089188,0.12571768,0.036382418,-0.065429986,0.28330913,-0.19502819,0.001561038,-0.30229124,-0.02011424,0.0212876,-0.04447573,0.159551,0.21024486,-0.08852974,0.18777609,-0.26434466,0.08802757,0.058453757,0.22748402,0.049592346,0.005998133,-0.044755295,0.1893458,0.13496925,0.013860158,0.24207005,-0.07661921,0.031060362,-0.10475779,-0.19974175,0.08018916,-0.05802272,-0.02562433,0.1472516,-0.14048219
/government/political_district/representatives./government/government_position_held/legislative_sessions	0.038017046,-0.08455315,-0.11154046,-0.18487278,0.06802348,-0.070171736,-0.04071865,-0.40358257,0.06481358,-0.48261225,-0.12501532,-0.0063740336,0.014464995,0.10176405,0.2930258,0.08791054,-0.031157209,0.3035407,0.053738937,-0.012811236,-0.15941192,0.04533277,0.028101806,0.11398252,-0.08155099,0.06677069,0.051458478,-0.18442374,-0.07619857,-0.012828941,-0.18747975,-0.02569692,0.12869307,0.35507533,0.06155287,-0.090701446,0.0086413445,-0.030999685,-0.03643241,0.0711331,0.025087936,-0.00939678,0.07903777,-0.025251688,-0.074831754,0.0113790035,0.06644888,0.10545061,-0.047996752,-0.0022852016
/film/film/starring./film/performance/actor	-0.014503361,0.11517193,0.16926484,-0.1330377,0.10847411,0.26059026,0.011098987,0.05016256,-0.16778561,-0.053649977,0.1808516,0.068123065,0.029868195,0.3269297,-0.14854605,-0.029507434,-0.15538296,-0.24495535,-0.033047616,0.08322572,-0.06200107,-0.0016934506,0.038931966,-0.06831163,0.13425529,-0.11030512,-0.115387216,0.09744356,-0.09394985,0.05190287,-0.118919805,0.011431833,-0.056670293,-0.012974308,0.2636039,-0.10106339,-0.022855157,-0.033967108,0.13100223,0.0061702784,-0.26116747,0.018946389,0.085683286,0.057181638,-0.26570344,-0.07013065,-0.0974869,0.28245595,0.15784933,0.31293926
/soccer/football_team/current_roster./soccer/football_roster_position/position	-0.2630312,0.19324005,-0.059241943,-0.07338888,0.08175052,0.07561807,0.15885077,-0.079601094,-0.09332966,-0.102944985,0.14277762,0.09370572,-0.032091063,0.14464563,-0.15327433,0.20024765,-0.09406538,-0.005976137,-0.12408731,0.05020528,0.07388146,0.025405744,0.21290694,-0.25397563,0.28285608,-0.10098038,-0.055119496,-0.118393995,0.030907685,-0.19677062,0.37346822,0.049565796,-0.18343322,-0.21851556,0.008297866,-0.06741621,-0.055928607,0.08735955,-0.0038995238,0.048673965,-0.25671798,-0.07125596,0.072529644,0.16648777,0.09081172,0.060448553,0.058687095,0.2277182,-0.0660965,0.018242277
/film/actor/film./film/performance/film	-0.025313493,-0.053932592,-0.13636945,0.14031978,0.005756312,-0.20776811,-0.060790043,-0.13635859,0.029595112,-0.01505529,0.052628312,-0.12912504,-0.031646706,-0.096626945,0.0046606953,0.07598653,0.15701881,0.15010442,-0.07370007,-0.091906995,0.13927285,-0.09183249,-0.09170713,0.11399874,-0.108344264,0.41569367,0.09777125,0.08335473,0.13282679,-0.21517715,0.104384445,0.10113179,-0.0012015068,0.29514718,-0.21884288,0.011189647,-0.05102136,0.0793103,-0.0021330377,-0.08268132,0.34057868,0.15971434,0.03444754,-0.08000989,0.030262133,0.23498878,0.16457297,-0.13193023,0.14519426,-0.11063954
/award/award_nominated_work/award_nominations./award/award_nomination/award	0.042156033,0.08471833,0.0444278,0.016453145,0.13754423,-0.044961333,-0.042907704,-0.036072508,-0.07987164,0.075380646,-0.047012378,0.07747305,0.075729094,-0.2146762,-0.021260189,0.008952114,0.0959576,0.036334567,0.022372492,0.09497206,0.25045574,0.29730234,0.235886,0.0883109,0.03427115,0.028359368,0.0521875,0.32361358,0.08078713,-0.04378602,-0.061315425,-0.056902327,0.12078846,0.29825926,-0.24718069,0.3048314,0.094673835,0.1869461,0.18147606,0.0072411993,0.0196739,-0.053593125,0.11584709,0.12735282,-0.2842174,0.19196263,-0.027863292,-0.17015682,0.070130505,-0.11344674
/award/award_category/nominees./award/award_nomination/nominated_for	-0.054531552,-0.2582963,0.18059117,-0.08662394,-0.08815487,-0.04117288,0.08873396,0.15098295,-0.01578007,-0.047639113,0.07240701,-0.091121584,-0.21641026,0.09931116,0.009962988,0.0008321042,0.1466685,0.06291507,-0.06339157,-0.049095955,0.29890883,-0.12887973,0.17167342,0.020029545,0.12831791,0.019426407,-0.42487684,-0.012265615,0.05059759,0.12840323,0.00569848,-0.23087482,0.009776705,0.26228377,-0.10863969,-0.12974542,-0.0209945,-0.07951752,0.08697133,0.2841218,-0.095537126,-0.15868126,-0.036994383,0.18116656,-0.13478577,-0.035506736,0.14037506,-0.045256577,0.05729944,-0.1825247
/organization/membership_organization/members./organization/organization_membership/member	0.085797355,0.15205689,0.009587976,-0.13539718,0.06428995,0.06764721,0.0029026505,0.086877964,0.19445647,-0.106862925,0.100512385,0.021811197,0.106041305,0.18057111,0.1211921,0.079481125,0.06775187,0.10756123,-0.10281006,0.052816804,-0.18507272,0.14770968,0.012451904,0.017783543,-0.12313576,-0.04628059,0.1718251,0.09063231,0.057512768,-0.043398358,0.048510827,-0.25796068,0.092809394,-0.3086591,-0.044982243,0.14544356,0.38664508,0.08379299,-0.0029904644,-0.008230809,-0.3251387,0.170648,-0.02121693,0.037353612,0.07278309,-0.10253186,-0.25957945,0.2168515,0.0024358656,0.015313399
/award/award_nominee/award_nominations./award/award_nomination/award_nominee	-0.021916837,0.10321177,0.12423787,-0.14377113,0.08171834,0.012764115,-0.013187664,-0.030462632,0.05497588,0.06564938,0.04392797,-0.10424646,-0.036509633,0.03120455,0.0016328462,0.19860385,-0.14491297,0.15801181,-0.015978899,-0.178075,0.022036936,0.05703264,0.14519098,0.01874563,-0.06440616,0.7211886,-0.19790687,0.21189462,-0.075359695,-0.0070971744,-0.09634837,-0.093162835,-0.07456659,-0.056512613,0.0057821595,-0.16454707,0.025187192,-0.11937872,0.063840866,-0.12251855,0.040342014,-0.06256092,0.10849722,-0.056059875,0.020380346,0.043830648,-0.016460687,-0.24170859,0.07488957,-0.015238089
/olympics/olympic_sport/olympic_games_contested	0.102524474,0.08148546,0.040052015,-0.16604085,-0.028787065,-0.23396422,-0.073561,-0.22683664,-0.051891156,-0.0388913,0.019435808,0.025631452,-0.30876267,-0.14491796,-0.20622197,-0.08772684,-0.09872929,0.16888872,0.11522818,-0.10819248,0.17719911,0.07305199,-0.19942789,0.1453639,-0.06904589,0.015672438,-0.12969981,0.06190222,0.15479435,0.19876835,0.07371457,-0.051417343,-0.041193705,0.10384405,0.11869136,0.29901698,0.03765733,0.08596035,0.15858363,0.27777606,0.11170331,-0.18074083,0.073551886,-0.2722514,0.15006135,0.07303215,-0.004490698,-0.1774121,0.009426515,-0.011333052
/music/performance_role/regular_performances./music/group_membership/role	0.057479482,-0.012250041,-0.03800704,0.31904924,0.20137008,-0.18352072,0.07630063,-0.03618995,0.07387749,-0.03746148,0.013646725,0.015700499,0.15191455,0.08193249,-0.19313425,-0.0013413135,0.105223104,-0.051631805,-0.12160494,-0.025268061,-0.0014548582,0.20581877,0.091183834,0.093529135,0.28668,0.032980766,0.07246783,-0.24635652,-0.18513411,0.03728635,-0.07926419,0.03293406,-0.22551009,-0.035365388,-0.0762131,-0.20861691,0.1258684,-0.14220978,-0.21938758,0.044387396,0.21802157,-0.34391725,0.026852872,0.005843428,-0.04811806,-0.07432416,0.103656776,-0.15365522,-0.031111429,0.25150502
/award/award_category/winners./award/award_honor/ceremony	-0.09113863,0.23172663,-0.07300293,-0.018187469,0.12865956,0.06504725,-0.116383344,-0.098206215,0.066788696,-0.25575107,0.013784007,0.20511708,0.16924155,-0.2006532,-0.105680965,0.18367554,-0.092105515,0.02091824,-0.038605582,0.24784027,-0.023602353,0.100637615,-0.0053234263,0.21284187,0.10093823,-0.1021411,0.016410442,-0.02538049,0.22908948,0.054385826,-0.08309119,-0.054182343,0.37132642,0.07056327,-0.22324349,-0.08826537,0.14451283,-0.053610004,0.2002424,0.10695428,-0.18912305,-0.052754834,-0.13281727,-0.0556809,-0.077644765,0.07497408,0.04123178,0.02108997,0.21949336,0.019912582
/film/film/release_date_s./film/film_regional_release_date/film_release_distribution_medium	-0.02990069,0.18701346,-0.22889675,0.020118441,-0.018366627,0.17221332,-0.04645644,-0.10658192,0.0017707235,0.012378201,-0.11310785,-0.20463635,0.1724766,-0.030277275,0.09551041,0.085064165,0.09954625,0.17457101,0.022341091,-0.09083998,0.24039452,0.030688839,0.06062463,0.1286573,0.050365064,-0.19644965,0.16337878,-0.15824997,-0.07779583,0.16995013,-0.09031385,-0.19521274,0.0884593,-0.116329595,-0.077549145,0.21474814,0.068467416,0.06907148,-0.23734735,0.011669761,-0.08794016,0.26260772,0.08512151,0.0021759735,-0.11404816,-0.024843358,0.25797144,0.106179506,-0.0741566,-0.22124913
/people/marriage_union_type/unions_of_this_type./people/marriage/spouse	-0.062630504,-0.039468687,-0.11814285,0.09608108,-0.10190713,0.09006104,0.1623811,-0.17584184,0.24288113,0.12873559,0.1397347,-0.006241675,0.08467047,0.22252874,0.12733358,-0.04134025,-0.0008598349,0.20831689,0.08688292,-0.060821615,-0.008939958,0.01577442,-0.082915016,-0.13511682,-0.18976727,-0.18452564,-0.16867204,-0.27987632,0.07253517,-0.25980443,-0.116911896,-0.23147477,-0.15573454,0.06138362,0.15138443,-0.24238698,0.28104293,-0.16804951,-0.06584396,-0.13536806,0.11716552,-0.020897206,-0.049039114,-0.099604025,-0.091940485,0.1063627,-0.18116853,0.03994027,0.09942431,-0.10269124
/award/award_winning_work/awards_won./award/award_honor/award_winner	-0.18193772,0.13813342,0.008322414,0.15166733,-0.07902105,0.11162431,-0.0684082,-0.16277298,-0.029197091,-0.052318253,-0.07768648,0.20502873,0.2884494,-0.19795063,0.073721,0.00067154487,0.11569637,0.028109895,0.06868656,0.22540012,0.12542902,0.021569274,-0.057947993,-0.068094745,-0.12895387,0.22786446,0.3415278,0.12560463,-0.03021998,0.053858522,-0.22525786,-0.0584,0.098531805,0.12219674,-0.11847941,-0.17717987,0.060954932,0.06399143,-0.033136196,-0.21038121,0.25516212,0.062097624,0.253126,-0.06755852,-0.19553295,-0.041596778,-0.007834022,0.048294846,-0.019295221,0.20629139
/film/film/release_date_s./film/film_regional_release_date/film_release_region	0.052162815,-0.07069006,-0.12438316,-0.06609699,0.022752425,-0.12011791,-0.008349842,-0.066331476,-0.04102724,-0.27347118,-0.060256917,0.042247955,-0.0049499148,0.2219831,-0.071989596,-0.096913315,-0.09508655,0.44363442,-0.01731984,-0.034545667,-0.13451175,0.28748882,0.052014407,0.32230684,0.105301045,0.010678539,-0.1293629,-0.14340982,0.032406233,-0.084012374,0.10014684,0.15957117,-0.0075589917,-0.051597837,0.120112404,-0.064677626,0.26049712,0.3187346,-0.03976736,0.12108219,0.070951305,-0.03935834,-0.18136232,-0.04734749,-0.16685252,-0.15177606,-0.03908605,0.0055267503,-0.007897145,-0.07032093
/film/film/language	0.09491806,-0.014094902,-0.011046648,-0.3444888,0.27720147,-0.0737598,0.013992707,0.14224407,0.035344955,-0.267623,-0.2952153,-0.15090314,-0.12397825,0.36364093,0.0024749849,0.09599785,-0.061322547,0.061842483,-0.015991585,-0.11997713,-0.2601369,-0.12822412,-0.10811197,0.031222917,0.10133833,-0.23452742,0.12570962,0.088899024,-0.00015941227,0.06184698,-0.061824284,0.187579,-0.053901322,0.16351739,-0.0266183,0.19857523,-0.09026529,-0.044281557,0.031671204,0.04349234,-0.1919536,0.03717188,0.011236705,0.10426409,0.0955285,0.13723963,-0.117042035,-0.00794667,-0.09466539,-0.0034465345
/music/artist/genre	-0.033453394,-0.15749094,0.031858325,-0.23999105,0.2601043,0.2386178,0.19997358,0.041241128,0.024413457,-0.06238062,0.12679079,0.24225843,-0.046213485,0.04303719,0.016771352,0.13742465,-0.0027220352,0.104242444,-0.027745856,-0.00998141,0.0073564746,0.0040314225,0.14497404,-0.017792352,-0.05228709,-0.18615735,0.33505931,-0.1654682,-0.2022514,0.046461742,-0.03167697,-0.02160544,0.19377159,-0.19558448,0.064616434,-0.16920172,-0.18147081,0.15279213,-0.008297109,-0.07897978,0.05184286,0.016868731,-0.032797545,0.0081866775,-0.19487934,0.22335063,-0.3253787,0.1128691,0.022951704,0.077866904
/location/location/containedby	0.0072179264,-0.1732551,0.29097435,-0.16300991,0.21178742,0.05333729,0.086608656,0.17592624,-0.044068996,-0.020059671,-0.2690358,0.10172892,0.16334902,0.08070036,-0.08778854,0.084489875,0.024916297,0.14316633,0.048778556,0.18964453,-0.01081907,0.19881241,-0.0707196,-0.076856926,-0.29600722,0.11928614,0.0021652747,-0.09160398,0.09585848,0.22926891,0.113264546,0.17152962,0.047352638,0.11854063,-0.18358544,0.055100787,-0.22272453,0.12597339,0.20865652,0.03248171,0.1044488,-0.005119448,-0.16363943,-0.12019701,-0.22251819,-0.06867202,-0.036907904,-0.14090186,-0.051710643,-0.1704677
/people/person/ethnicity	0.20899332,-0.06200476,0.10591828,0.050295502,0.08943767,-0.0119171105,0.03191524,0.15008765,0.19309902,0.170907,-0.1099723,-0.037680104,-0.19654174,0.0547139,0.17292121,-0.07284216,-0.040408786,0.13354889,-0.08910827,0.035504606,-0.021379407,-0.2524045,0.27327478,0.07483574,0.31722137,-0.47383025,0.259294,0.14221352,0.003451526,-0.19735192,0.03451047,0.10189595,0.030604653,0.05730592,0.0182507,-0.07908954,0.05937611,0.050235108,0.05026521,-0.0257032,-0.02211489,0.09182714,0.08588,-0.15584849,-0.04431288,-0.05691441,-0.07924373,-0.14080408,0.12474398,-0.10387883
/education/educational_institution/students_graduates./education/education/degree	0.05258482,-0.28834942,-0.100462675,-0.02509577,-0.17382863,-0.042093,-0.061326943,0.12576108,-0.16877583,-0.12869808,-0.18396795,-0.078974105,0.112826236,0.015771748,0.0053296234,-0.009645147,0.16663279,0.08103414,-0.0074631185,0.11727364,-0.030677749,0.18376678,0.03942089,-0.10192822,-0.27308744,0.22298415,0.11023105,-0.019146832,-0.17859028,0.031184088,0.09226607,0.16917048,0.088068515,-0.19716251,-0.08174336,0.043963112,-0.17857973,0.24440941,-0.25297698,-0.08578783,0.27457926,-0.118964694,-0.20684046,0.053024553,-0.106067166,-0.26798034,0.09293766,0.10117806,0.008971964,-0.034968022
/award/award_category/nominees./award/award_nomination/award_nominee	-0.20282696,-0.101216294,-0.06805167,0.10994382,0.060815945,0.13417356,0.101988114,0.15441611,0.11319963,-0.16159059,-0.09950278,0.20675924,0.033669613,0.03893256,0.25684696,0.14818068,0.017230771,0.11042819,0.08418029,0.18858229,0.25662968,-0.023474693,-0.072466426,-0.004760861,0.16516899,-0.18016115,0.043829516,-0.011657605,-0.050946858,-0.118026145,0.3856023,-0.25441635,0.06709455,0.027350526,-0.06205088,-0.23982935,0.015932392,-0.007664317,-0.042762447,0.10780369,-0.06870305,-0.01818816,-0.07257777,0.1604417,-0.06948634,-0.034284547,0.3243807,0.07510194,-0.19478138,0.08552916
/award/award_ceremony/awards_presented./award/award_honor/award	-0.09952191,0.0510017,0.085332215,0.012869026,-0.038282644,-0.19767193,-0.038457494,0.29050726,-0.027077874,0.27472222,0.006301089,-0.042425103,-0.05749344,-0.0014761777,0.06323023,0.18536699,-0.10129996,0.12217151,-0.30502123,-0.07459412,-0.18757078,-0.07445068,0.15290888,-0.17224218,-0.16254637,0.06836138,0.073790565,-0.043394092,0.26863468,0.048804518,-0.1705549,-0.11134188,-0.28811908,0.16714945,-0.01858641,0.018422753,-0.19137894,0.0033268842,0.25537148,-0.046906415,0.23052005,-0.03343276,-0.029864691,0.13540977,0.20921186,-0.11598209,0.05588154,-0.086048484,0.08355022,-0.063802764
/location/location/contains	-0.13654324,0.24696074,-0.27446327,0.07052521,-0.12886329,-0.12844166,-0.015737418,-0.20907679,-0.03900772,0.080796,0.16148356,-0.07518915,-0.15138693,-0.19542055,0.09171377,0.038059052,-0.0064725145,-0.024450101,-0.14562717,-0.09177888,0.06735968,-0.03580167,0.053827424,0.050536767,0.2497038,-0.087763704,0.010096223,0.2975501,-0.02852776,-0.18948275,0.0034133766,-0.036522124,-0.085947186,-0.06086674,0.15104254,-0.019272914,0.18634064,-0.18385224,-0.11845082,0.01125922,-0.12161455,0.09654803,0.21136527,0.045625873,0.3081023,0.22392046,-0.06773524,0.051532757,0.14406024,0.23632637
/organization/organization/headquarters./location/mailing_address/country	0.040386297,-0.30500996,0.2564095,-0.10608303,0.09257811,0.014428507,-0.13760348,0.1014824,0.024054,-0.09600479,-0.24277157,0.121796735,-0.043896332,0.09191042,-0.23805359,-0.071149364,-0.018603021,0.031675886,0.118871205,-0.041064333,0.13934222,0.015021721,-0.20962054,-0.08211445,-0.16117808,0.104155555,-0.0020759967,-0.3255177,-0.09308939,0.08045516,-0.07389155,-0.092220575,0.2778124,0.03451326,0.058940064,-0.06003453,-0.12535824,0.10111641,0.066844925,-0.018051779,0.16209441,-0.16694033,-0.15177587,0.19942784,-0.0992497,-0.14349797,0.22522807,-0.100894764,0.22279447,-0.033821978
/people/person/profession	-0.023479138,-0.10637068,0.15114896,-0.38888714,-0.051783185,-0.20386773,-0.019214727,0.18749078,-0.1220295,-0.28036702,0.015848624,-0.12640513,-0.08733144,-0.12669918,-0.332897,-0.09408664,-0.07307221,0.022635957,0.024792654,-0.017588947,0.20013139,0.013066245,0.1406933,0.09499962,0.026532637,0.06571535,0.30379048,0.14600118,-0.16999017,-0.18302366,0.18899494,0.021676084,-0.034267314,0.08688065,-0.12421707,-0.025970722,0.048279807,0.1541615,-0.034707215,-0.09976785,-0.014599319,-0.17073427,-0.04086027,-0.1398414,0.03932683,-0.09131091,-0.19973521,-0.15333901,0.093247585,-0.031052997
/film/film_job/films_with_this_crew_job./film/film_crew_gig/film	0.085691616,-0.040578585,0.39570832,0.0033694457,0.31907484,-0.041225094,0.01512468,0.13933848,-0.19980973,-0.18495467,-0.14629374,-0.0054695536,0.055139355,0.024642564,-0.05995993,-0.11144839,-0.14570597,-0.18501224,0.20985316,-0.18248276,-0.10990304,-0.084898375,0.19927502,0.14934969,-0.051230464,-0.02894214,-0.005663843,0.019117257,0.028737752,-0.06710312,0.26988035,0.068789065,0.046439175,-0.06405109,-0.0823199,-0.045220375,-0.191249,0.08262215,-0.13535516,0.13424085,-0.22691868,0.19136968,0.1198377,0.072293214,0.027095903,-0.15780309,0.16830935,-0.13752182,-0.03770567,0.042714626
/people/profession/people_with_this_profession	0.18575029,0.09010991,0.043599002,-0.050081216,-0.24897394,0.12716821,0.1343346,0.014117087,-0.022281703,0.00551034,0.26401198,-0.09387559,0.07722842,0.10151939,-0.17374896,0.30366415,0.16966966,-0.01487937,-0.03349011,-0.021670246,0.3023203,0.017701222,-0.20157546,0.0519214,-0.16539474,-0.35538137,-0.08407299,-0.062952064,-0.017742312,-0.105656266,-0.2040217,-0.014496788,-0.22426939,-0.011631657,0.008748135,-0.052452747,0.24676266,0.018203756,0.021137254,0.2185454,0.1133704,-0.19164595,-0.112355985,0.06883282,0.021840276,-0.06764043,0.15131415,-0.019740235,0.010339802,0.000529109
/film/film_costumer_designer/costume_design_for_film	-0.29472002,0.09381969,0.09290232,-0.08289407,-0.029700141,-0.29649553,0.24781585,0.10805944,-0.032328803,0.039224807,-0.13144547,0.038688503,0.010708424,0.10839921,-0.077048115,-0.13850124,-0.059753813,0.044510506,-0.31732273,-0.07063271,-0.038861804,-0.2042157,-0.07473039,0.14137079,0.065395534,0.091042794,-0.09330205,-0.09165795,-0.04425157,-0.09100752,0.17892277,0.25469604,-0.17769419,-0.12232507,0.017706145,0.014426205,-0.10449438,-0.011619241,-0.08705001,0.027603008,-0.1627148,0.14951517,-0.1447175,-0.4030076,0.09632069,0.05387089,0.12606353,0.13941455,0.0028764738,-0.07625321
/location/statistical_region/religions./location/religion_percentage/religion	0.18340272,-0.14850816,-0.04416926,-0.07418619,-0.09502491,-0.07882323,-0.06346691,0.3095653,-0.052983634,-0.29467487,0.21157825,-0.08827091,-0.03846126,-0.11017577,-0.14408524,0.17345627,0.14831263,-0.07406418,-0.119250625,-0.07288777,-0.044695243,0.03609762,0.055223074,-0.12571752,0.05421276,-0.035633307,-0.3093806,0.14749004,0.11495049,-0.00971441,-0.0503896,0.14334685,0.025161607,0.05189474,0.045505494,-0.15052254,0.11381186,-0.071744725,0.20597404,0.13287392,-0.17220946,-0.17958051,0.053794093,0.43678325,0.018307919,-0.007528917,0.1420746,0.10810567,-0.018896416,0.024887994
/film/film_genre/films_in_this_genre	-0.1341356,0.20584546,-0.04416962,0.25208196,0.038358316,-0.16848147,0.10187219,-0.08323643,-0.09239549,-0.059122432,-0.19134748,-0.11623152,0.15933162,-0.018783987,0.21510084,0.19635816,0.0551948,-0.237538,-0.039296173,0.09927496,-0.036366217,-0.080867216,-0.37622985,-0.025427446,0.15485303,-0.026735572,0.20608555,0.015498558,0.0874236,-0.05973396,-0.15981156,0.13816501,-0.11081335,7.7408666e-05,0.17444347,-0.15310335,0.000672073,-0.1176282,0.082887694,-0.059449673,0.08799203,0.21605821,0.0680335,-0.05178909,0.082373336,-0.25887135,-0.07012626,-0.043916926,-0.23250361,-0.156597
/tv/tv_genre/programs	-0.014376638,-0.10635535,-0.17633577,-0.18279035,0.036973055,0.14071278,0.08185808,0.0133823855,0.064987235,0.24434547,0.18450156,-0.15611821,0.06997021,0.05310031,-0.08556653,0.0003321208,0.19132264,-0.0072772047,0.019810408,-0.00404467,0.067712024,0.004455667,0.006472547,-0.05644015,0.12038526,-0.30280387,-0.16982564,0.23933274,-0.06433834,0.042869695,0.12806459,0.13050447,-0.08386868,0.10936566,0.21729945,0.102755584,-0.1054552,-0.037211005,0.10872591,0.09754118,-0.26041156,-0.11374177,0.30737194,-0.019062476,0.19756912,0.018933782,-0.17527182,-0.27677888,0.21224266,0.06709882
/award/award_nominee/award_nominations./award/award_nomination/award	0.025192508,0.40363756,0.07096711,-0.26398233,0.02098758,-0.06785472,0.09852736,0.03809918,-0.052567042,-0.16440621,0.0035259724,-0.10612955,-0.18268088,-0.054462895,0.09551432,0.0049730856,0.11813771,-0.12527283,-0.15572314,-0.26106176,-0.056164257,0.067527756,0.13051143,-0.24178927,0.17339608,0.056849606,-0.026534222,-0.015581929,0.13573106,0.073892646,0.25936916,0.035525583,-0.05881981,-0.048177693,0.11490858,0.06679613,-0.17341572,0.04706169,-0.08901004,-0.09978687,0.1777957,0.08634589,0.09483833,0.18896392,0.13750099,-0.029158246,-0.28091612,0.02936015,0.23798771,-0.123553954
/music/genre/artists	0.04104004,-0.21896097,0.02362064,-0.010298509,-0.13970605,-0.12860473,-0.0728309,0.124077104,0.07413365,-0.1507213,0.18313234,-0.18644972,-0.099881366,-0.18153875,-0.0063972278,-0.1566741,-0.05775755,0.036802854,-0.043067757,-0.24946658,-0.07055467,-0.1466275,-0.22063018,-0.02815509,-0.09754512,-0.024909094,-0.23508207,-0.123893715,0.24414171,0.0038326296,0.009517743,0.08953192,0.00916262,0.14337453,0.104391545,-0.101726376,-0.09603232,-0.10527523,-0.22446728,-0.12944716,-0.018277481,-0.07124699,0.26218933,0.21527295,0.21308248,-0.23237796,0.1580598,-0.019666806,0.0069847354,-0.2517884
/influence/influence_node/influenced_by	-0.037185125,0.028460054,-0.050403185,0.15967402,-0.08692978,0.09995718,0.028185217,0.013459269,-0.12261499,-0.28962633,0.14035967,-0.1463471,0.22605632,0.099929735,0.05241977,-0.2604276,0.09729372,-0.06086456,-0.052111097,0.00075882324,-0.02001192,0.2551945,0.043510064,0.011083047,0.26373482,-0.20250003,0.17930032,0.056737885,0.13496965,0.080642425,-0.009574318,0.100855745,-0.32692567,-0.092755154,0.03060856,-0.07926671,-0.09088279,-0.065061875,0.07007401,0.15120733,-0.09883257,-0.06792496,-0.27898204,0.20352775,-0.037353106,-0.108330004,-0.08090912,-0.009106315,0.036913514,0.22874643
/education/educational_institution/students_graduates./education/education/student	-0.042974044,-0.040013593,0.2639503,-0.24080533,-0.01612852,-0.016185079,-0.12664594,0.21210021,0.15145141,-0.01850922,-0.18659757,-0.08737614,0.1914368,0.05000636,-0.13647209,0.16506836,-0.10620415,-0.01846573,-0.21849725,0.12432375,-0.15192293,-0.038007844,0.040805083,-0.21310996,-0.21327381,-0.15138839,0.047668044,-0.010025004,-0.29242894,0.22596124,-0.076400734,-0.037797432,0.16053279,-0.14521034,-0.16374789,-0.04847006,-0.044324305,-0.066520706,0.2111778,0.0017347411,0.051483534,-0.087672286,0.102449045,0.09208841,-0.11151954,-0.225674,-0.12550958,-0.16311596,-0.16650917,0.09952136
/organization/organization_member/member_of./organization/organization_membership/organization	-0.104788244,-0.17398083,0.17866488,0.1022868,-0.06421965,0.1576778,-0.008028808,0.02534731,-0.08236394,0.27608863,0.112800315,0.14631467,0.09004956,-0.074293725,0.008014602,-0.034293327,-0.049424075,-0.075242445,0.06581288,0.087418206,0.08277182,-0.10492234,0.12802964,0.42034397,-0.047923714,-0.00958073,0.1263093,-0.19375035,-0.028626014,0.20254277,-0.15664484,-0.053598937,-0.04542788,0.025132846,0.12791562,-0.0018825497,0.12800686,0.09014978,-0.08487385,0.028521905,-0.09136396,0.39227328,0.13723393,-0.17819345,0.17677528,-0.13781773,0.019048326,-0.07708378,-0.10904945,0.03591918
/people/person/place_of_birth	-0.14214765,0.16879673,-0.06641649,-0.09009818,0.10575975,-0.043277334,-0.17416944,-0.13475922,0.060658682,-0.033844884,0.15414497,-0.015837817,-0.0633034,-0.073809974,0.09321021,-0.11197327,-0.1843282,0.2882707,-0.22962102,-0.1479223,0.19507818,-0.14833818,0.16484304,0.32330504,0.1559564,0.22836779,0.0126207005,0.0056398036,-0.04568623,-0.06574006,0.18629146,-0.004841685,-0.057692375,-0.062348027,0.12417546,-0.050700806,-0.023182735,0.10268465,-0.32336706,0.0018251541,-0.05023348,0.024087528,0.063418336,-0.16081081,0.03065078,0.29143003,-0.10082741,0.05857448,0.12868807,0.03306614
/common/topic/webpage./common/webpage/category	0.08957557,-0.048575636,0.023653323,0.022351643,-0.0011514492,-0.20930351,0.028122121,0.11936122,-0.06645043,-0.13230497,-0.12694941,0.121597335,0.38457504,-0.21741283,-0.030528506,0.048896246,0.1209333,-0.054920685,-0.097948514,0.13296424,-0.15800792,0.3072697,0.12039231,-0.16539815,-0.17756638,0.010656604,0.061887912,0.23328504,-0.045553505,-0.04340696,-0.20586613,0.034164235,-0.09331653,-0.09515045,-0.035376955,0.24166545,-0.09137373,0.21647365,0.08759641,-0.30271205,-0.021687971,0.05711071,-0.090556696,0.0684907,-0.25013044,-0.0044008703,-0.11816658,-0.0449386,-0.09794444,-0.02185493
/media_common/netflix_title/netflix_genres	0.19843236,0.04366415,0.04726846,-0.15354331,0.32742575,-0.0543773,-0.05323204,0.035244707,0.21790512,0.21239083,-0.082020044,0.231992,0.043036528,0.11068775,0.13548523,0.05849522,-0.024833323,0.06564988,-0.17652908,-0.0673753,0.09023288,0.23160595,0.026664117,-0.055282578,-0.23484315,0.019504061,-0.11760553,0.0041029016,-0.016380811,-0.05134668,0.19278559,0.22547705,0.1235956,0.2803206,-0.098147355,0.16823606,0.010691971,-0.23800847,0.020614289,-0.06842142,0.22690225,0.15349582,0.09219261,0.14354971,-0.08782449,0.026860053,-0.020724246,0.0019283062,0.123267934,0.21078356
/sports/sports_position/players./american_football/football_historical_roster_position/team	-0.1366935,-0.09691575,0.008527177,-0.15564287,-0.19232051,0.047745388,-0.36958465,-0.008638171,-0.15624839,-0.07327729,-0.098344885,0.007206169,0.041348606,-0.15110776,-0.18639594,-0.024941847,0.08149638,0.1565118,0.1383976,-0.065512635,-0.00034905906,0.14367379,-0.05234431,0.1784699,0.22381248,-0.23590586,0.0042748973,-0.034804355,-0.19994964,0.0037501915,-0.055333268,-0.23123093,-0.17906894,0.12794396,0.05139091,-0.19331528,-0.011039748,0.13420577,-0.09116261,0.17221881,0.0653085,0.12690477,0.094013266,-0.15927987,-0.10364715,0.28179386,-0.24743322,-0.029600872,-0.011843134,0.086269006
/film/film/other_crew./film/film_crew_gig/film_crew_role	-0.31200123,-0.15712707,-0.02376465,0.17266586,-0.14767207,0.018511316,-0.19892193,0.25249568,0.1524191,0.015341201,0.094658464,0.32829288,0.020220185,-0.084191196,-0.038038276,-0.12728965,-0.23244214,-0.01675307,0.101457395,-0.018665638,-0.051752042,0.12206946,-0.24225663,0.0065942295,0.05413691,-0.09162805,0.09582447,-0.19514179,0.03382578,0.18050954,-0.01540573,-0.12762132,-0.18822217,-0.037968628,0.019781826,-0.03922516,-0.05119659,0.2608763,0.02184563,0.057201814,-0.039518625,-0.104170404,-0.071706526,-0.21648322,-0.1678252,-0.027224839,-0.124541946,0.09115005,0.006461946,-0.22651775
/award/award_ceremony/awards_presented./award/award_honor/award_winner	-0.0025151395,-0.23058742,0.12790604,-0.076789014,-0.023748346,-0.07109215,-0.16376223,0.25326806,0.16630507,0.14104526,-0.26199687,-0.096523695,0.13658983,-0.060007006,-0.025176914,0.0213137,0.10977991,-0.08394574,0.1100288,-0.08520758,0.124725394,0.08206,-0.068531685,0.04082845,0.1431028,-0.1023691,0.062525064,0.4190455,-0.11919936,-0.1333229,-0.02166709,-0.0074434383,0.0420646,-0.0817429,0.03719874,-0.103325345,-0.41013786,0.0036832066,0.13057595,0.002084985,0.04299124,0.15088993,-0.3156492,0.10222063,0.06820779,-0.038652223,0.06738601,-0.038887475,0.046537027,-0.10985966
/film/film/country	-0.11844869,0.01903276,0.13185397,-0.13377881,0.054552566,-0.01982187,0.2905182,0.32017362,0.14655468,0.14345907,0.09471288,0.06763799,0.06980557,-0.04001396,-0.036812425,-0.010160876,-0.051664826,0.013774742,0.13141212,-0.16083087,0.09863209,0.062167816,0.24090691,-0.40555546,-0.14557908,0.1622501,0.01344104,0.050099745,-0.038736813,-0.01098051,-0.17833136,-0.029464722,0.12450924,0.23695315,-0.05335893,0.14045702,-0.18332176,-0.024615599,-0.045615662,0.017114105,-0.33501288,0.09925079,-0.09768525,0.12071237,0.104823105,0.07737411,0.043784853,-0.13083178,0.13833028,0.058872845
/olympics/olympic_sport/athletes./olympics/olympic_athlete_affiliation/country	0.09840869,0.092648864,0.13683322,-0.05385467,0.19740073,-0.083840474,0.16837703,-0.1422409,0.01770557,-0.09686354,-0.0680683,-0.4497848,-0.0481782,0.09789874,0.013661737,0.10075352,0.17313252,0.2708243,-0.059485435,-0.020877145,0.18370636,0.17313336,-0.032510728,-0.16276726,-0.18587452,0.1332495,-0.08392059,-0.050887752,0.08999058,0.087016426,-0.1699574,0.055444047,0.24670346,0.020753242,-0.16503195,-0.052855715,-0.033326443,0.13491595,-0.16073608,0.0015768012,-0.06755348,-0.19128758,-0.06572638,0.07582041,-0.22838424,-0.013342075,0.19714583,0.04284123,0.20432447,0.04855707
/award/award_winning_work/awards_won./award/award_honor/award	-0.24028806,-0.09159798,0.14722307,0.2640908,-0.059038438,0.12869446,-0.23258637,-0.0891239,-0.010013607,0.043970793,0.20985435,-0.1187029,0.22379644,0.07852002,-0.04614286,-0.13406113,0.06661214,0.034118555,0.290949,-0.06470229,0.12952086,0.016381493,0.22135642,-0.33095688,0.046845,-0.032594107,-0.11599044,-0.1001065,-0.053593483,0.12522627,0.12901661,0.0071641654,0.06268112,0.11244655,0.18257767,0.15636663,-0.015513365,0.032139063,0.30758575,0.0021144499,0.06315583,0.28114235,0.0046105613,-0.022309536,0.12900813,-0.0111365365,0.008091664,0.01706084,0.15310678,0.04331954
/base/schemastaging/tv_actor_extra/regular_dubbing_performances./base/schemastaging/tv_star_dubbing_performance/program	0.19145657,-0.0390112,-0.11375465,-0.038957242,-0.028966412,-0.00021774565,-0.26086065,-0.15352587,0.3001816,-0.05268551,-0.16697252,-0.22937088,-0.02286362,-0.09339443,0.059482384,0.07170395,0.02500518,0.35522413,-0.018602256,0.10178763,-0.055453002,-0.05460722,0.067103915,0.2782338,-0.10907599,-0.20456138,-0.031080488,0.05703714,0.0375994,-0.19439247,0.09031132,-0.080202356,0.060122076,0.05567116,-0.08474706,0.22450139,-0.08926038,0.05051442,-0.09111409,0.2066325,0.040753063,-0.19534366,-0.01595809,0.14205381,0.06756941,0.09120879,0.2087598,0.010716087,-0.2756397,0.08800456
/film/film/genre	-0.02064197,-0.120684035,-0.09316937,0.2882925,7.315109e-05,0.035544854,-0.1057969,-0.18977077,-0.04019093,0.01515853,0.04564423,0.208703,0.18745965,-0.09807271,-0.1397493,-0.06605773,-0.100343935,-0.06884333,0.031216802,-0.1793718,-0.065496676,-0.07855477,-0.14780848,0.014286481,-0.010393511,0.03087804,0.0690957,-0.10389854,0.029832603,0.00026264868,0.12388478,-0.0007080844,-0.008246896,-0.22112642,0.115786865,0.08921489,-0.06176671,-0.24041066,-0.04618701,-0.18451844,0.026751287,-0.21227832,-0.22516912,-0.18949147,-0.32567954,0.34079203,0.11635632,0.2259625,0.18024608,0.01665528
/award/award_nominated_work/award_nominations./award/award_nomination/award_nominee	-0.067851566,0.04042256,-0.05322775,0.29406536,0.072951876,0.22239321,0.2675996,-0.24544805,-0.055167265,-0.11665265,-0.08793983,0.14990509,0.19574302,-0.0416616,0.05170361,0.09029209,0.08722593,0.16012111,-0.03731175,0.2858464,-0.10217432,0.4599327,0.047888856,-0.025913386,-0.28819993,0.21501905,0.037819486,0.015786955,-0.014755171,-0.055091478,-0.10675736,-0.11934217,0.12876453,0.036425836,-0.021582766,0.037994973,0.0954852,-0.10693776,0.078225315,0.07629817,0.056242984,-0.017313287,0.14109525,0.006181177,-0.18195727,0.0017964888,0.09397547,-0.019355007,0.062340144,-0.012815086
/film/film_distributor/films_distributed./film/film_film_distributor_relationship/film	-0.15007797,-0.07248145,0.1842721,-0.05350647,0.080952026,-0.1106577,0.10872646,0.25134066,0.10519968,0.048436675,-0.086446606,-0.21931143,-0.081235245,-0.12965602,-0.018737663,0.24502113,0.032922614,-0.13001323,0.0115008205,0.060555495,-0.113353685,0.02642674,-0.2599303,-0.14229597,-0.149375,0.085187115,-0.3577958,0.03876622,0.0694665,0.20723681,-0.015186789,0.03034142,-0.092405304,0.27353567,0.27107063,0.18145144,-0.004332856,-0.2407584,-0.0703289,-0.119790904,-0.019000733,-0.02489168,-0.048602477,0.15180758,-0.05902578,-0.102638826,-0.1489506,0.13950656,-0.070227854,0.07533663
/location/statistical_region/rent50_2./measurement_unit/dated_money_value/currency	0.241661,0.037194546,-0.21216725,0.17182797,0.026926758,0.05211283,0.07962852,-0.09678491,0.079363525,0.04764268,0.13577436,-0.1925395,-0.12861425,-0.11142845,0.09158694,-0.0939956,0.06817455,0.12657042,-0.022869257,0.119432785,-0.19944906,0.10970702,0.094164334,-0.14459075,-0.15102544,-0.023380494,-0.032821883,0.16332781,0.23311026,0.15393953,-0.23355146,-0.30145463,-0.04786805,0.041484077,0.021524437,-0.09437469,-0.033580113,0.14056557,0.15268096,0.25329953,-0.28515318,-0.21559267,0.031434298,0.20934404,-0.19824211,-0.035043888,-0.034549803,0.08488338,0.03596596,-0.026509482
/film/film/estimated_budget./measurement_unit/dated_money_value/currency	-0.13862772,-0.13781118,0.1349133,0.013917359,0.10684815,0.24666749,0.14141043,0.030435719,-0.06446184,-0.074317895,0.1469871,0.07696858,-0.034825485,0.05311968,-0.18487303,-0.28997093,-0.11821205,0.049120143,-0.027222669,-0.33780223,0.19804095,0.21244428,-0.13744546,0.25225142,-0.0007511457,-0.12891492,0.02627172,-0.21865992,-0.17427756,-0.042446062,0.12214407,0.020445012,-0.16216849,-0.079780854,-0.16816466,0.09283053,0.026484033,-0.10135338,-0.17677614,0.29545456,-0.03566092,-0.1084048,0.15782914,-0.02932764,-0.10647354,0.0006078941,-0.1616263,0.10652613,0.06968155,-0.029545225
/location/administrative_division/second_level_division_of	-0.1503766,-0.033344492,0.22779374,-0.19015586,0.14028256,0.14035085,0.18800609,0.18970574,-0.12543672,-0.14426962,-0.09447145,-0.09461106,-0.04348547,0.054619912,-0.09518441,0.07345327,-0.0857804,-0.08045796,0.10674013,0.17279992,0.13830414,0.065689124,-0.1948842,0.010223342,-0.07366991,0.15548924,0.15683693,-0.1717784,0.11062606,0.3697503,-0.06913388,-0.023787443,-0.009969366,0.2068897,-0.11072999,0.10357702,0.19129068,-0.1668235,0.2102311,0.05950109,0.05513101,-0.05053607,-0.12228082,0.09552162,-0.17442659,-0.13283731,0.102640785,0.14925887,0.24766608,0.050453715
/government/legislative_session/members./government/government_position_held/district_represented	-0.119237475,0.0075431466,0.040936474,0.16837138,-0.2282004,0.10048443,-0.031012902,-0.06636219,-0.22123682,0.24199809,-0.08061165,-0.103237785,-0.020810466,-0.11315274,-0.05389319,-0.14808658,-0.22062482,-0.31545484,0.21159045,0.26691708,0.19155383,-0.06078054,-0.035722986,0.35205546,0.045288652,0.014372386,0.11928357,-0.03460118,0.13786876,-0.085110724,0.111961484,0.034516558,-0.1319366,0.123781584,0.17936632,0.018494977,-0.012651764,-0.051126305,-0.13123326,-0.114168175,-0.04999014,0.10321919,0.072569296,-0.07947923,0.2909096,0.022070678,0.05163036,-0.04921215,0.11959659,0.10220379
/sports/sports_team/roster./american_football/football_historical_roster_position/position_s	-0.061562274,0.2584049,-0.051610507,0.054042347,0.12180462,0.23540622,-0.025597494,0.051372282,-0.09985185,-0.11465369,0.06556954,-0.1771062,-0.01849787,-0.10698947,0.07657981,-0.03690122,0.03499543,-0.12244477,0.03531936,-0.015659826,0.048400465,0.06466472,0.1530151,-0.047875416,0.022950808,0.14499672,-0.35961992,-0.01898169,0.037486058,-0.27447528,0.34143332,-0.050188877,0.117057465,-0.1349847,-0.033433143,-0.024164483,0.26381496,0.17675006,-0.26575205,0.06454415,-0.063526936,-0.2257063,0.10232552,-0.011748977,-0.25461113,0.035881557,0.10970062,-0.14274968,-0.012964071,-0.044276234
/government/government_office_category/officeholders./government/government_position_held/jurisdiction_of_office	0.09234036,0.039110444,-0.09344036,0.07664533,0.022389688,-0.08382289,-0.25437146,0.18376596,-0.20320508,0.074928075,-0.02122453,-0.08466649,-0.14576294,0.081369944,-0.062402725,-0.029619526,-0.0036581957,0.0623403,-0.12192975,-0.12293648,0.096987404,-0.18359421,-0.115483254,0.011785762,0.03847665,-0.07963753,0.008051564,0.14164089,0.0513653,-0.086388655,-0.0035163448,0.20599103,0.09510089,0.0053248596,-0.13622944,0.25637233,0.31707215,-0.3239766,-0.11599237,-0.097824566,-0.22417085,-0.029532116,0.20128076,-0.16347566,0.36539966,-0.11694753,-0.07200955,-0.08778075,-0.10284244,0.023614421
/award/award_nominee/award_nominations./award/award_nomination/nominated_for	-0.17093945,-0.14160602,0.075771414,-0.12903012,0.0037403577,-0.07782847,-0.02753122,0.13669118,0.0749788,0.033368777,0.276523,-0.2990607,-0.069451265,0.17697798,0.030527335,0.08332636,-0.08447864,-0.13874666,-0.10079603,-0.28573123,-0.32276067,-0.019193355,-0.14391954,-0.07870009,0.1329558,0.19188145,-0.21177423,-0.14914843,0.10127739,0.0828619,-0.0069150603,0.28978074,-0.16958134,0.017926635,-0.054028943,-0.013917348,-0.161728,-0.11794327,-0.08619031,-0.013413782,-0.08409418,0.15492955,-0.0349077,0.15473038,0.23723625,-0.03756909,-0.027907783,0.07169784,0.131174,-0.04549958
/people/deceased_person/place_of_death	0.014774381,0.09397919,-0.11113338,-0.019169,0.09768105,-0.014659753,-0.079088025,0.047525037,-0.2623185,-0.24173117,0.011964417,-0.15172467,-0.07872414,-0.009870765,0.123291224,-0.22229235,0.09386917,0.027458612,0.21615808,-0.15518832,0.16961832,-0.103153795,0.032501325,0.23431085,0.19367029,0.09762553,-0.031433817,0.014514777,-0.20412846,-0.02087896,0.17506993,0.2805445,0.11418589,0.0947295,0.004317645,0.1348701,-0.10175255,0.03307714,-0.3202367,-0.004946129,-0.22714096,0.23230514,0.103929415,-0.026369954,0.11671168,0.14010672,0.028501038,0.13370205,0.16362292,0.12981129
/music/group_member/instruments_played	-0.21244909,0.18198818,0.014315519,0.06252933,0.067249514,0.1413617,0.20122088,0.07434443,0.12852167,0.14491862,-0.0014899346,0.18069914,-0.2251964,0.15126859,0.047183402,0.044569887,-0.04384134,0.06975151,0.14546928,0.19637352,0.19167747,0.25852665,-0.04984909,0.15212424,0.010423668,0.15959759,0.06340059,0.08246906,-0.11772494,0.22648245,-0.17054468,-0.081147134,0.106322035,-0.18757862,-0.026961416,0.14972141,0.05868679,-0.15872973,0.098091975,0.11844581,0.10322428,-0.08350125,-0.11503337,0.1515897,-0.18028155,0.20559284,-0.22916877,-0.04306879,0.111999005,0.22289403
/film/production_company/films	-0.028894369,0.01906201,-0.03463537,0.14765862,0.043851152,-0.11828507,0.15518406,-0.077590026,-0.13289912,-0.035457365,-0.15364738,-0.2463269,0.13486922,0.14538974,-0.016043447,0.15178762,0.071018,-0.3323574,-0.016768668,0.08974091,0.015087888,-0.18906817,0.22392254,-0.10330545,0.09885999,0.20676617,-0.11931216,-0.059098326,-0.011981679,0.039926637,-0.045458682,0.14658625,0.19503348,-0.0393383,-0.19488819,0.07118257,-0.21279739,-0.15854001,0.13270772,0.011349045,-0.0034148654,0.22404581,-0.20658816,0.107074864,0.07836966,-0.055138845,0.3372267,-0.11724382,-0.028195783,0.16422921
/sports/pro_athlete/teams./sports/sports_team_roster/team	-0.011578175,0.14219293,0.12015982,-0.17899188,0.18699063,-0.12159331,-0.059369024,-0.07802783,-0.0053707114,0.10273164,-0.1987008,-0.20362587,-0.086743,-0.13157985,0.13709186,-0.056643624,0.21235363,0.12211526,0.02530779,-0.12133255,0.096522726,-0.022464786,0.14183308,0.18771379,0.13755545,-0.050632227,-0.03928498,0.21243447,-0.107308865,0.12388972,-0.2380441,0.118984096,0.13200483,0.049003452,0.33510387,-0.0041327206,0.045262415,-0.0067292266,-0.01344853,0.24172811,0.08898771,0.062928796,0.09526755,-0.118941605,0.03380277,0.10154761,-0.13399798,-0.36957687,0.14388643,0.12020169
/base/schemastaging/athlete_extra/salary./base/schemastaging/athlete_salary/team	-0.109968066,0.1112332,0.23212206,-0.13828154,0.3519521,0.05349598,-0.14917934,-0.13433115,-0.27596056,-0.09059013,-0.15221071,-0.16882859,-0.009273513,0.239712,0.070275,-0.12699252,0.22311194,-0.12388981,0.101049714,0.13572904,0.017151468,-0.024362009,-0.05286588,0.028910002,-0.012120285,-0.0005109358,-0.075083025,-0.12342787,-0.016750107,-0.051700734,-0.22823034,-0.10319249,0.20194086,0.10083422,0.07725008,0.12792782,0.14823563,-0.076539695,-0.22357185,-0.06525789,0.24369612,-0.06817056,0.11694532,0.0218747,0.068421796,-0.12633279,0.0588434,0.023019718,0.25423765,0.11423113
/music/artist/track_contributions./music/track_contribution/role	0.11216239,-0.12664863,0.06939648,0.06071776,0.11310776,0.21000123,0.003961018,-0.07351481,-0.021890992,-0.1887193,-0.13955197,0.18797842,0.12485583,-0.0026526526,0.027998658,0.10591686,0.080291845,-0.041277517,0.12836917,0.2224325,-0.0012013381,0.102656044,-0.07874211,0.035826337,-0.26455745,-0.10133272,-0.030455308,-0.06810897,-0.06569132,-0.06978612,-0.048771672,-0.03268149,0.1421472,0.0038666348,0.35304713,0.0043511814,-0.03708716,0.2416235,0.022885947,0.296978,-0.047734246,0.15974988,-0.088897675,0.055578306,-0.3959945,0.039796583,-0.08604672,0.20398179,-0.049640127,0.17133066
/organization/organization/acquired_by./business/acquisition/acquiring_company	-0.23851228,0.013141276,-0.23807782,-0.016869305,0.014149964,0.05521552,-0.08137385,0.033457953,-0.100498304,0.2504958,0.08312772,-0.04726368,0.14311804,-0.051621836,-0.28564408,0.14323944,-0.1330902,0.050089214,0.014528979,-0.090295,0.24412517,0.1640105,-0.10192751,-0.110410765,0.2895712,-0.02260842,0.21328422,-0.11645812,0.020798959,0.06725789,-0.0929769,0.14848468,0.0066594305,0.10155318,0.11770487,0.024089068,0.161377,0.24517962,0.13544747,-0.109929085,0.17285253,0.15372959,0.15028115,0.2574083,-0.010535627,0.16591227,-0.070402466,-0.021579161,-0.14478454,0.115118064
/music/instrument/instrumentalists	0.11702798,-0.20762758,0.020414703,-0.07278786,-0.16041134,-0.15301797,-0.070629865,0.0071668085,0.22543119,0.08345447,0.036927085,-0.03861816,-0.18856141,-0.2642129,0.061151788,-0.20786367,0.053612746,0.06227729,0.07370338,-0.18243502,-0.034550738,-0.21855213,-0.054311223,-0.065274216,-0.1843094,0.061865266,-0.16298465,-0.081736766,0.11468754,0.04200318,0.141733,-0.08494125,0.05698321,0.19057208,0.0455556,0.18789813,-0.078237854,-0.07112073,-0.2012976,-0.27951756,-0.15338391,-0.17602755,0.19846092,0.022066941,0.12667035,-0.12945399,0.0651611,0.10046798,-0.18422148,-0.26682013
/military/military_combatant/military_conflicts./military/military_combatant_group/conflict	0.05093535,-0.160498,-0.18046825,-0.08924963,0.05597764,-0.018594392,0.18686306,-0.16576193,0.06656313,0.048536167,-0.18239677,0.20769154,0.055172626,0.013622037,0.10969204,-0.06109423,-0.08921643,0.23410334,-0.22162904,-0.08192408,-0.17466691,0.0073529263,-0.1612498,0.20065355,-0.046377845,0.082447544,0.03447936,-0.09323387,-0.029715413,-0.02315539,-0.109609626,0.11633201,-0.073479354,-0.1314465,0.31810158,-0.06811283,0.22160967,-0.2307734,0.111388125,-0.09897022,0.04015352,-0.068061076,0.038620554,0.22266851,0.09877767,0.0851929,-0.073034905,0.3388241,0.07742577,0.19176947
/people/person/education./education/education/institution	0.2693621,0.02731525,-0.16364446,0.020237837,-0.041956473,0.17886093,0.07412816,-0.02177796,0.06617885,0.14025994,0.190492,0.00636189,-0.2236925,0.010728091,0.025662893,0.04316744,-0.00363883,0.08734549,5.301113e-05,0.05036662,0.18169151,-0.0502077,-0.07912213,0.15223402,-0.15056735,-0.094500475,0.04077936,0.022086933,0.1665279,-0.23610494,-0.1095678,0.044429705,-0.078895405,-0.00026090772,0.030786749,0.19781551,0.11492754,0.07933673,-0.47831514,0.14680693,-0.122412406,0.10076043,0.32591566,0.10495834,0.037030898,0.024994886,0.081273295,0.16563578,0.17644933,0.13698635
/award/award_category/winners./award/award_honor/honored_for	-0.2857332,-0.11529536,0.12349072,-0.0030292259,0.15921313,-0.06655849,-0.10770364,0.341569,-0.13162412,-0.03470063,-0.15195638,-0.10033152,0.0036035925,-0.0692607,-0.18300429,-0.025192754,-0.19516304,0.10682237,0.26375613,-0.18982382,-0.008090209,0.14420216,0.14484553,0.081127144,0.056268092,-0.030826744,0.21296875,-0.09161212,-0.15039875,0.13291453,-0.1202251,-0.04128468,-0.031053673,-0.061396837,0.07544937,-0.23416184,-0.10254209,0.02898187,-0.19506538,0.18519107,-0.0010890486,-0.015877295,-0.16204567,-0.11148612,0.23801556,-0.07107671,0.07579819,0.21669734,0.12048715,-0.11071507
/people/person/gender	0.20086287,0.10444803,0.20670788,0.08036601,0.28082383,-0.0033398797,0.044200115,0.16076061,-0.27871418,0.08435656,0.081325345,0.08138874,-0.34325367,-0.03127966,0.09475514,0.044052117,-0.042035226,-0.085201375,0.2627104,0.025086908,0.200962,0.028119253,0.12935463,-0.07028976,-0.018526386,0.060410764,0.025485596,-0.34305087,0.08965449,-0.17801896,-0.1323031,-0.017874828,0.045914553,0.16624954,0.11996301,-0.15965441,0.17568551,-0.024252366,-0.17062743,0.022062162,0.0657388,-0.14070058,-0.07989438,-0.028415287,0.119921274,0.012676171,-0.062296517,0.22244717,0.09685657,0.08637132
/business/job_title/people_with_this_title./business/employment_tenure/company	0.12615389,0.14469631,0.055090684,-0.11055652,0.11058845,-0.041383963,-0.16806169,-0.124713704,0.063260525,-0.03956341,0.12335661,-0.121462286,-0.07556309,-0.06080428,-0.15479766,-0.008124399,-0.062272575,0.09718406,0.13813302,-0.134067,0.12799785,0.17826864,0.0975618,-0.0812978,-0.14623241,-0.1000164,0.15532546,-0.13191329,-0.06527094,0.11109808,-0.031305518,-0.056277763,0.077087656,0.13756621,-0.08073757,0.16763498,0.11566945,-0.00853034,0.35515362,0.09509096,-0.080122955,0.26657405,0.21804939,-0.046880055,0.14926691,-0.12745064,-0.085837334,-0.24385372,0.11438834,0.38313282
/base/popstra/celebrity/friendship./base/popstra/friendship/participant	-0.26637974,0.011944817,-0.008440748,0.28453735,-0.18675421,0.020356394,0.06384502,-0.036270197,0.0068074525,-0.11665761,-0.091518596,-0.08622076,0.18934757,-0.16971126,0.2374437,0.1319013,0.041177563,-0.030135889,-0.032571994,-0.20454624,0.07034051,0.0638952,0.07594753,-0.09680172,-0.01567241,-0.02822376,0.05275974,0.12992443,-0.018643733,0.044782177,0.19677787,-0.034901135,-0.106508605,0.09863007,0.039288912,-0.002616449,-0.13191178,-0.06912787,0.25114176,0.018852586,-0.10004528,0.20725308,0.31020644,-0.2668961,-0.10517153,0.044541057,-0.07329712,0.33793435,-0.21342206,0.029297171
/fictional_universe/fictional_character/occupation	0.04051018,0.08724022,-0.13377525,-0.087518394,-0.07868141,-0.10045659,0.039581187,-0.02314942,-0.024117758,0.0632114,0.18646961,-0.11773133,0.08680999,0.10630179,-0.07253852,-0.16161847,0.06647059,0.1366925,0.30970344,-0.035200946,-0.26755926,0.15531047,-0.0025321553,-0.09813305,0.019732108,-0.06180593,0.3523858,-0.06050788,-0.23795022,0.058739707,-0.27942756,-0.010837786,-0.13334797,-0.043237526,0.046230104,0.17763002,0.111143164,-0.035229765,0.15193738,-0.1894627,0.115131825,0.045903455,-0.023478953,-0.12451323,-0.10068809,0.26837987,-0.15511394,0.04465187,0.09615885,0.26955947
/education/field_of_study/students_majoring./education/education/institution	-0.13265233,0.13947217,0.036845885,0.031894553,-0.12486215,0.23241441,0.09792216,-0.14433272,-0.14254387,0.22412892,0.1918197,-0.019646725,-0.08923805,-0.32973126,-0.17413294,-0.05607401,-0.08123226,-0.10737199,-0.006876436,-0.00074295833,0.09786662,-0.160635,0.04386819,0.1503656,0.155165,-0.13094616,0.17395061,-0.037505433,0.00899654,0.05552729,0.04585379,-0.21161312,-0.097990915,0.21107607,0.17689936,0.0082207965,0.124941476,-0.16575812,0.13212116,0.038912673,-0.052451767,0.20979273,0.18487886,-0.27085298,0.15481035,0.09248494,-0.045893364,0.09730639,0.23062402,0.0615898
/business/business_operation/industry	0.2164713,-0.0527163,0.3014446,-0.108317554,0.075703,0.09301576,0.14639792,0.09940476,-0.07435974,0.12873562,0.03949701,0.05684575,-0.1544007,0.15634146,0.13670188,0.06352136,-0.11500717,-0.01929177,0.007901607,0.057520602,-0.16114508,-0.23857546,0.073884726,-0.1841057,0.1168129,-0.0071478826,-0.21143483,0.13364697,-0.13298246,0.06800143,-0.055202633,-0.13817605,0.34734297,-0.26061332,-0.050764892,-0.13460144,-0.080290705,-0.02461349,-0.020923145,-0.29754564,-0.1512112,0.019460058,0.14462203,-0.21903157,0.023505969,-0.0776315,-0.08625395,0.09752006,0.12800553,0.083183885
/award/award_category/winners./award/award_honor/award_winner	-0.004429186,-0.20442913,0.099965185,-0.044637624,-0.06813135,0.16782837,-0.2707651,0.031036526,0.23572212,0.22914141,-0.24316049,-0.040599056,-0.16906776,-0.0711857,0.12649137,-0.050275896,0.17735377,0.12054759,0.11824326,-0.12257051,0.10986217,0.016754242,-0.12417103,0.09199493,-0.03140119,-0.15193537,-0.054206487,-0.0468831,-0.25921446,-0.25612536,-0.057041578,-0.281895,0.026796162,-0.14780483,-0.024568701,0.0847156,0.05346903,-0.017509026,0.09229154,0.1206617,-0.12678725,-0.07726905,0.010672786,-0.16027737,-0.20033242,-0.13351448,0.25028175,-0.08685218,-0.11053872,-0.14056964
/award/award_winner/awards_won./award/award_honor/ceremony	0.2671444,0.09147642,-0.01907118,0.04620877,0.068570726,-0.025518008,-0.025222305,-0.18083595,-0.04722697,-0.034258384,0.4485,0.18106781,0.050320167,-0.22770964,-0.038750682,-0.012601043,-0.007680733,-0.042710517,-0.11842583,0.009655162,0.03103065,-0.31780136,0.17909718,-0.121150725,-0.054315306,0.12699696,-0.015994404,-0.20856825,0.305266,0.050346795,-0.17719805,0.13446061,0.11134462,-0.016720427,0.04362792,-0.009363275,-0.045428615,-0.2345433,-0.05792352,0.08832336,-0.13011341,0.011413791,-0.0054853377,0.11605462,-0.034410328,-0.15353292,-0.09255512,-0.20651753,-0.043368556,0.17109822
/location/hud_foreclosure_area/hhuniv./measurement_unit/dated_integer/source	-0.062154714,-0.17704397,-0.060673773,-0.0810039,0.076364696,-0.015700875,-0.06081676,0.17474706,0.059561275,-0.22002263,-0.14738537,0.25096464,-0.11598473,0.03699564,-0.08999299,0.059512313,0.071565226,0.29108292,-0.3177044,-0.09203423,0.21449861,0.19028804,-0.10732906,-0.11349348,-0.002260603,0.025829887,-0.23603621,0.020916494,0.09799648,0.08087272,-0.008594758,-0.111057654,-0.004732449,-0.069901906,-0.14595826,-0.1743692,-0.02216259,-0.11759873,0.12354269,0.01985778,-0.07516911,0.012611661,-0.032359213,0.20929997,-0.066389285,0.099327914,-0.2788783,0.3428509,0.042800274,-0.106981926
/location/us_county/hud_county_place	-0.07636217,0.043947548,0.020283492,-0.029423533,-0.15145735,-0.21192284,0.18639076,0.04455503,0.2249355,-0.17168406,0.11302504,-0.06778503,0.38623455,0.1632437,0.01080434,0.24550454,-0.15088983,0.032854892,-0.14165923,-0.09605365,0.048316292,0.20670013,-0.13113192,0.20692505,-0.013072433,0.039816488,0.14981957,0.027268564,0.29326156,-0.11330774,0.09711469,0.12068388,-0.15165658,-0.040903427,-0.21878664,0.10486239,0.121433035,0.09293402,0.054061227,0.033473827,0.0118031725,0.07607682,-0.11261774,0.026028382,-0.17644808,0.008691545,-0.24524215,0.094083294,0.10862678,0.081583805
/location/statistical_region/gni_in_ppp_dollars./measurement_unit/dated_money_value/currency	-0.07633763,0.1405494,-0.018085608,-0.18062021,0.22274733,0.15858693,0.07818574,0.0020296904,-0.13842294,0.20385523,-0.27282894,-0.16795208,0.06305431,0.0009817414,0.07551089,0.10755089,0.09849276,-0.04495253,0.25745466,-0.07404309,-0.026870186,-0.19245075,0.25061637,0.060468353,0.021490514,-0.10013612,-0.011006962,0.024942283,-0.24088816,-0.13946453,-0.02564072,0.033576094,-0.13728775,-0.042404138,0.2633299,-0.053726472,-0.17040674,0.015059035,0.1276977,-0.16541769,0.20478259,0.07603199,0.04460783,-0.053499404,0.30762,0.188874,0.15249008,-0.16314013,-0.16573188,0.04419302
/people/person/nationality	-0.13147599,-0.10325138,0.17373785,-0.1302945,0.089894354,-0.056652002,-0.09771926,0.066717416,0.21569218,-0.11054732,0.037178986,-0.2787797,0.025827449,0.12404295,0.20805661,0.19682316,-0.065060236,-0.023119243,-0.007038674,-0.14167507,0.025892826,-0.2800619,-0.01328198,0.25747353,-0.081374094,-0.0085130725,0.082907476,-0.08811051,0.081955984,-0.20445497,-0.037937637,0.2891196,0.040652487,-0.02039694,0.062397156,0.11139784,-0.34686002,-0.04385951,-0.20733911,0.1461051,0.030333787,0.13780738,-0.011383203,0.061841767,0.11677934,0.08252523,0.056291074,0.29378805,-0.05656483,0.021290468
/sports/sports_team/roster./baseball/baseball_roster_position/position	0.040687125,-0.037905354,-0.037655264,-0.08271646,-0.019274639,0.08722271,0.07686148,0.10515775,0.12606946,-0.2193392,0.029103149,0.18176089,0.006737091,0.020346189,0.0079893675,-0.15157771,-0.2227272,-0.04617542,-0.11372203,0.16531876,0.16680728,-0.12540099,0.025808012,0.2883422,0.08111248,0.10781328,-0.30314443,-0.005570384,0.06751581,-0.017686255,0.16408508,0.006116873,0.28711963,-0.16345961,-0.27246127,-0.27029267,-0.06760732,-0.0922203,-0.13768569,0.0252475,-0.24870642,-0.13687584,0.02097035,0.15828203,0.03676354,-0.1511022,-0.06287196,0.14236799,-0.16734298,0.0968597
/music/performance_role/regular_performances./music/group_membership/member	0.037404105,-0.10045093,0.14164224,0.027556978,-0.18746966,0.06749817,0.1133297,-0.132273,0.042654973,-0.13397296,0.11912584,-0.21042867,-0.05838411,0.17931037,-0.039354395,-0.018499209,0.203159,-0.027251339,-0.16058369,-0.10479987,-0.07665407,-0.2401217,-0.044875428,0.11130401,-0.045084156,-0.2616388,-0.106406055,0.14990771,0.1102222,-0.22050412,-0.15544806,0.13048452,-0.30570886,0.06280429,0.020549458,0.06412485,0.0065458366,-0.09963196,-0.16266906,0.29799283,0.04541803,0.27815774,0.203473,0.016230825,-0.013445728,-0.04479213,0.16494712,-0.06443422,0.2049308,-0.015996115
/base/nobelprizes/nobel_prize_winner/nobel_honor./base/nobelprizes/nobel_honor/subject_area	0.05355351,0.021567121,-0.06379596,-0.3584517,0.078086875,0.10793201,0.15395336,-0.25582987,-0.0035959545,-0.25012955,0.111135185,-0.05909878,-0.23756193,0.09675631,0.23172796,0.08272373,0.04552497,0.019578684,0.026634214,-0.119624995,0.11644108,0.28922254,0.16040719,-0.104605824,0.16640602,-0.028833952,0.049062334,0.09714666,0.0014692687,0.0843471,0.19547358,-0.014366,0.09618266,-0.19178411,-0.11126785,-0.02448615,0.15795386,0.23600838,0.08869325,0.0643585,0.06839642,0.008636977,-0.17680407,-0.077500336,-0.1780224,0.22402456,0.010243649,-0.06475749,0.11833207,0.14603701
/people/cause_of_death/people	-0.21251279,-0.13808511,-0.3175387,-0.011406983,-0.1234618,-0.007962312,0.14471221,0.06604519,0.13253678,0.12941492,-0.08168454,0.15243442,0.2047987,-0.0783332,0.024533879,0.18726525,-0.1883915,-0.06523017,-0.18882455,0.013997302,-0.23985365,-0.1143136,0.038097713,-0.1399476,0.22646879,0.08880555,0.2533072,0.14029764,0.15403476,-0.0036888786,-0.054197565,0.033261,0.0713201,-0.24947071,-0.15891968,-0.121104784,-0.1315927,-0.11279193,0.061312053,0.0459181,0.12419603,-0.08857702,-0.005560793,-0.14004481,-0.14955388,0.02978728,0.13357256,-0.20345509,-0.14371899,0.019096062
/tv/tv_program/languages	-0.12937993,-0.20246184,0.052501045,-0.28181672,-0.12841094,-0.20110288,-0.090910144,0.020116739,-0.11023986,0.07634314,-0.0206403,0.15512836,-0.0076948134,-0.3317146,0.17687617,0.04822712,-0.094143555,0.12556213,-0.14570494,0.15291342,-0.22718072,0.1495949,-0.14289051,-0.010060102,-0.05208996,0.27068004,-0.013531741,0.25413764,-0.01412566,0.15127498,-0.026273321,0.19155073,0.12897414,0.04837038,-0.0417329,-0.012755381,0.14150546,-0.029316446,0.14281441,-0.17430627,-0.066873334,-0.07484888,-0.1636885,-0.05301233,-0.1477678,-0.11390105,-0.23786414,0.14015712,-0.009387714,0.0036663078
/user/alexander/philosophy/subject/philosophers	0.14792259,-0.02935478,0.18223873,-0.18267342,-0.061845485,-0.1678662,-0.19851263,0.16180953,0.110551454,0.06432457,-0.03449365,-0.12741531,0.078467555,-0.10322076,0.16213714,0.050160043,-0.13643707,-0.1912974,0.05618585,-0.24613868,-0.16414875,0.01318305,-0.08618726,-0.19298075,0.17619674,-0.3048357,-0.17274033,-0.12632392,0.0073923892,0.19589509,-0.04074546,-0.043242756,-0.018971657,-0.054611452,0.0057757664,-0.12429925,-0.013216421,0.11654053,0.27573428,-0.08418772,-0.106715724,-0.012831323,0.32862213,0.15168285,0.06588431,-0.15993977,-0.0392554,-0.18336314,0.0754009,0.04685107
/common/annotation_category/annotations./common/webpage/topic	0.124877594,0.23754741,0.035944674,-0.029060507,0.048871033,-0.18791446,0.034441594,-0.06413862,-0.12560514,-0.21949671,0.0595795,0.09173128,0.041354146,-0.18141459,-0.047133636,-0.009191111,-0.021784604,-0.1173001,-0.16467653,-0.11344294,0.1957312,0.026429899,-0.030185753,0.043629546,-0.027015436,-0.17510915,-0.12276171,-0.08119304,0.22984208,-0.03449047,-0.1397816,-0.0211066,-0.20805794,0.17737627,0.081701964,0.07325845,-0.10869839,-0.19931084,-0.18987785,-0.22898084,-0.2615184,0.1891847,0.20489831,0.11389662,0.27815184,-0.2944798,0.033901315,-0.0030934124,-0.10968479,-0.031906106
/music/genre/parent_genre	-0.08457038,0.009979794,-0.0876722,0.076957814,0.16391014,-0.17718235,0.09246088,0.16139883,-0.07721316,-0.21022616,-0.13579842,-0.3403998,0.30359402,-0.35043964,0.15823375,0.005713873,-0.14294006,-0.26335558,-0.05376255,0.040064193,-0.07334021,0.25105718,0.055751752,0.103154644,0.07064366,-0.032955103,-0.023836268,0.16405277,-0.11550673,0.07397647,-0.028829059,-0.028289024,-0.123557396,-0.15351309,0.0027631472,-0.1972457,0.024206588,0.06264393,-0.091481365,0.02993824,-0.115956806,-0.062995985,0.04003612,0.10155967,-0.08091435,0.02414497,-0.013052141,-0.18772826,0.04150082,0.06255479
/base/popstra/celebrity/breakup./base/popstra/breakup/participant	-0.0552308,-0.19731915,-0.18736653,-0.026663955,-0.08780602,0.10174335,-0.025859263,0.11821529,0.11277489,0.096445374,-0.2189962,-0.023590859,0.13624257,0.18143241,0.077606656,0.085881986,0.08457324,0.13287888,-0.09345286,0.23818457,0.2150346,-0.022406157,-0.0037893956,0.0503963,-0.34383595,0.28812414,-0.027002245,0.1515578,-0.18521258,0.027744863,-0.071812145,-0.05090917,-0.0021041096,-0.26496208,-0.065592214,0.057727475,0.004542181,0.200181,-0.089858845,-0.13812926,-0.22132604,-0.3153807,0.06150527,-0.18518221,-0.05379699,-0.05368931,0.054070063,-0.0761975,0.024996491,0.0001498569
/influence/influence_node/influenced	-0.0012853494,0.10972726,0.091518775,0.019912248,0.1495919,0.15728693,0.15887007,0.0019698485,-0.03735662,0.132645,-0.09281205,0.022806585,0.19889885,-0.0074275197,-0.11762337,-0.40849626,-0.09101072,-0.1800543,-0.12170111,0.0035394994,-0.09498008,-0.31050375,0.02096217,0.15650249,-0.28548416,-0.26851723,-0.019349143,-0.17444481,-0.02248281,0.039121874,-0.15466797,0.11156274,-0.022475187,0.19671454,0.04947131,0.010718125,-0.15986693,-0.030902589,-0.14265145,0.15681806,-0.0151120685,-0.08670433,0.13276736,-0.060519993,-0.15145424,-0.062353794,0.06707302,0.07213423,-0.16382925,0.21088009
/location/country/capital	-0.016479755,0.19808339,0.03585727,0.2670241,-0.02866988,-0.07795932,-0.2951632,-0.20609495,-0.16673078,-0.14906536,-0.09442481,0.13981394,0.08400839,-0.18697535,-0.11530605,-0.12718774,0.07570586,-0.03622771,0.17519206,-0.13519527,0.20085366,0.069993585,-0.018678326,0.04784907,0.17364873,0.019347224,0.006792499,0.15057929,0.06947385,-0.14862436,-0.13342237,-0.09069623,-0.1281713,-0.09075584,0.15929477,-0.2020543,0.07808063,-0.08809028,-0.054961782,-0.016148217,0.016247734,-0.028680757,0.09616932,-0.09253534,0.13619828,0.14891179,0.14955208,0.18144988,0.14225954,-0.04787136
/film/special_film_performance_type/film_performance_type./film/performance/film	-0.04175515,-0.096986584,-0.19801085,-0.036220208,0.19307268,-0.15694535,0.2792034,0.021996537,-0.04008599,0.06382705,0.0077798865,0.091524206,-0.0033914433,-0.21762818,-0.03179725,-0.088930435,-0.22446047,-0.081701025,0.17221546,-0.15901992,0.169456,-0.15316735,0.028181177,-0.07845777,0.005653832,0.1806346,0.12786756,0.017246233,0.091840014,-0.12048959,0.2683957,-0.024300175,0.09760998,0.4229886,-0.19971426,-0.1306821,0.08938089,0.048945747,-0.046631448,-1.387084e-05,-0.025532976,-0.0033225177,0.26494122,0.027355755,0.11232845,-0.08780105,0.025753837,0.070575744,-0.1534992,-0.20602828
/olympics/olympic_participating_country/athletes./olympics/olympic_athlete_affiliation/sport	0.008272767,-0.3098083,0.068631664,-0.00860814,0.16421358,0.18339579,-0.077462204,0.11226513,-0.035509765,0.083712325,-0.108359724,0.10893057,0.3910752,-0.007338579,-0.03442701,-0.18320315,-0.022040112,-0.30138782,0.05835764,-0.11453426,0.074617855,-0.116934545,0.08048756,-0.15676591,-0.0152055025,-0.24201177,-0.083618715,-0.022961734,-0.14558557,0.10995087,0.04781103,-0.059041075,-0.10986562,0.083704665,0.04347463,0.108918354,-0.13703547,-0.10014711,0.17816488,-0.14824133,0.11471987,0.047058087,0.08902163,-0.1243717,-0.15418881,0.17713861,0.015136842,-0.10669212,-0.22945061,-0.03263209
/film/writer/film	-0.25987467,0.0015300424,-0.14415103,-0.1928801,-0.102356724,-0.16743839,0.09437993,0.13768472,-0.19992171,-0.22884966,-0.05401031,-0.3139332,-0.20193708,0.23415267,-0.08367923,0.00975539,-0.0017833776,-0.25688323,0.15713014,-0.1101482,0.0629436,0.01829753,0.0702916,0.06418652,0.23633571,0.10989572,-0.02920503,-0.061317716,0.06171894,-0.20788172,-0.03037973,0.17219093,0.020549515,-0.098193765,0.10841688,0.10002936,-0.11022665,-0.11403513,-0.10569487,-0.055111412,-0.124324605,0.19693893,-0.06614659,0.13614988,0.28145006,0.035118,-0.045007464,0.041150246,0.10928881,0.029513324
/soccer/football_team/current_roster./sports/sports_team_roster/player	-0.13765934,0.09389345,0.050662186,0.1914127,-0.09142364,0.22909172,0.2251951,0.0037717095,0.09467093,0.13099004,-0.07079643,0.2323031,0.097221814,0.050932437,-0.11317016,0.09846108,-0.10694623,0.15438895,0.18547714,-0.016410893,-0.15643007,0.13337003,-0.031059388,-0.08468245,-0.08409509,-0.05536029,0.13369378,-0.1108317,0.118432365,-0.17272897,0.25753778,0.13795297,0.026986875,-0.2702447,-0.12973982,-0.013279902,0.20109725,0.100722104,0.018208712,-0.20638795,-0.23302373,0.057486713,-0.1328112,0.014688461,-0.12388674,0.2420104,0.2071201,0.18071659,-0.06158533,0.017480504
/film/film/starring./film/performance/character	0.066414654,-0.071940824,-0.011016948,-0.020026047,0.059827454,0.22624059,-0.25047424,-0.12601377,0.031416114,0.14380921,0.017327938,0.010032631,0.21184735,0.043665852,0.12636556,-0.18780506,-0.16935807,-0.1811548,-0.15989405,-0.043181732,0.013006069,-0.105904266,-0.28119892,0.1541868,0.1900506,-0.18154226,0.18166794,-0.014966375,-0.047691986,0.12277284,-0.24464566,-0.041737355,0.04631957,-0.1565701,0.081968345,-0.10396633,0.13519248,-0.37958568,0.14029938,-0.11337355,-0.10472145,0.0015053074,0.1958234,0.12021953,-0.0490772,0.1426852,-0.10157507,0.021035548,-0.0713389,-0.10265043
/location/hud_county_place/place	0.0058009615,0.03159808,-0.123324595,0.17157972,0.058502324,0.106962085,-0.41161737,-0.20539685,-0.016443677,0.048795268,-0.012122495,0.00537236,0.056087986,-0.060049336,-0.031016992,-0.017381825,0.15826318,-0.019539172,-0.11633248,0.024412109,0.16142674,0.048536044,0.016352618,0.17956753,0.0674772,0.18958637,-0.27636933,0.067614526,-0.1424001,0.10369914,-0.06845829,-0.009701917,-0.2243556,-0.0552499,0.31018957,-0.101123884,0.0016116238,-0.06338978,-0.08804784,0.010177553,-0.027144846,0.032300662,-0.13900672,-0.101852916,-0.18178487,-0.08238232,-0.008581997,0.16750176,0.058211595,0.07279369
/location/country/administrative_divisions	-0.07653551,0.039460268,-0.0982042,0.03591758,0.035125762,-0.055924986,-0.23115268,0.041440394,-0.37960747,0.06317034,-0.04519023,-0.07332811,0.17132989,-0.07355785,0.17413892,-0.015649637,0.07708189,0.16889523,-0.12828384,-0.10376407,-0.04294406,-0.052930675,0.15364717,-0.05962626,0.14452009,0.09323917,-0.22261566,0.069290854,0.25036845,-0.050472617,0.14842997,-0.050147835,0.090033926,-0.07857391,-0.08026725,0.14058731,0.07784169,0.20265047,-0.057692677,-0.31114012,0.008774077,0.025660368,0.13846497,-0.17640305,0.26651564,0.058772802,-0.24527238,-0.05027058,-0.24108861,-0.009548363
/organization/organization/leadership./organization/leadership/role	0.1034131,-0.14240113,0.07737966,-0.22204094,-0.001444014,-0.21405505,-0.086095326,-0.16773875,-0.120021865,0.011556697,-0.0059389626,0.071947046,0.1350134,0.16384913,-0.09625959,0.17316864,0.061051417,0.10603599,0.01774945,0.19177532,-0.30410388,0.24886018,0.04365539,-0.14084494,0.07570415,0.20292024,-0.15710266,-2.4230574e-06,-0.036388285,0.0888815,-0.06297007,-0.0015437779,0.26670358,-0.059699107,-0.08521966,-0.120237224,-0.021565856,0.17051323,0.3141762,-0.011415562,0.0741555,-0.031039696,-0.29019624,0.14615983,-0.24812958,-0.08695262,0.0057139522,0.109436505,-0.036368307,-0.029127873
/music/performance_role/guest_performances./music/recording_contribution/performance_role	0.009152905,-0.032986954,0.032503985,-0.06612842,0.1088548,0.03623054,-0.21459267,0.053387728,-0.07785666,-0.10512775,0.03214339,-0.050340757,-0.05495049,0.14063884,0.3335183,0.06901563,0.011420394,0.14896086,0.30156,-0.28801548,0.02286163,0.20201895,-0.119125396,-0.055584356,-0.30777648,0.06585045,-0.09116473,-0.09304348,0.19421837,0.10262761,0.03430524,-0.14001417,0.30780357,-0.04496051,0.16789699,0.01952732,-0.075325556,0.063609235,0.08533686,-0.092556916,-0.16630815,0.18862967,-0.12034852,-0.12493372,0.013831303,-0.089357845,-0.12642002,0.07691693,0.04274944,0.23628436
/location/location/adjoin_s./location/adjoining_relationship/adjoins	0.072961144,-0.06807971,0.10795994,0.08439961,-0.08896745,-0.039669994,-0.0012586784,-0.25368193,-0.09736257,0.054460037,0.15569928,0.17296521,0.047612645,0.07955079,-0.06865485,-0.15665631,0.13753098,-0.053198505,0.055309024,0.04537151,0.09747397,-0.03649386,-0.08218616,-0.14030309,0.036205754,-0.059259407,-0.10329866,0.03881106,-0.13778934,-0.0064511285,0.120052315,-0.062001433,0.056940936,0.12163431,0.11689709,0.06301507,-0.19326924,-0.13650694,0.11511496,-0.12414789,-0.04320411,-0.3194354,-0.01190458,0.21300471,0.055228963,-0.5563868,0.03404527,0.2154675,0.18853025,0.098669484
/film/film_subject/films	-0.005932545,0.19229528,-0.16145277,0.1926825,-0.1135932,0.21246001,-0.10630277,-0.034699384,0.06467685,0.16472037,-0.015773337,0.038574856,0.12023228,-0.32787186,0.13353282,-0.046703134,0.32457283,0.030411378,-0.078918524,0.18732652,0.20494822,-0.11662803,0.07646851,0.09742267,0.10584075,0.038090207,-0.10254166,0.13181937,0.15490146,-0.07882251,0.02513969,-0.20503111,-0.024853839,0.031507835,-0.110647105,-0.117756434,0.27917385,0.2297428,-0.0014268887,0.1409173,0.07146792,-0.0930493,-0.13601443,-0.14861624,0.048271835,0.015396362,0.14826506,-0.22127514,0.0549393,-0.13274267
/base/schemastaging/person_extra/net_worth./measurement_unit/dated_money_value/currency	-0.24130586,-0.026739499,-0.062448498,0.041614916,-0.17658126,-0.10518364,0.18266214,-0.027877163,0.139771,0.09152011,-0.02398248,0.11127254,0.044297844,0.015110725,0.096085355,0.174311,-0.19262263,0.12725717,0.0060208677,0.115040645,-0.074589506,-0.13198632,0.079237685,0.0014742116,-0.057460036,-0.18918988,0.2857452,0.15679255,-0.19397095,-0.25642037,0.07549809,0.1341655,-0.12478505,-0.08279477,0.010568237,-0.0480201,0.16544145,-0.026978701,-0.0847675,-0.30214936,0.08492845,-0.02166379,-0.3361447,-0.2826813,-0.017382093,0.13029145,-0.1229452,0.03679497,0.057087354,0.06580497
/government/form_of_government/countries	0.23254137,0.079858094,-0.34406176,-0.25085166,-0.19858105,-0.24599676,-0.0014351493,-0.021687033,0.23051876,-0.003785664,0.10944403,-0.009697298,0.15917905,0.0020209372,0.15558416,0.14438155,0.012265499,-0.013351683,-0.11057055,-0.21633622,-0.081069134,0.09535933,-0.2434899,-0.19885333,-0.06402941,-0.07784318,-0.12409858,0.28217366,0.07018293,-0.031938106,0.12929857,0.16971402,-0.12007747,-0.14939997,-0.08933797,-0.023573725,-0.089895986,0.0147285005,-0.019223597,-0.07059718,-0.11462255,-0.08085765,0.145952,0.021364126,-0.11841592,0.09705348,-0.07285824,0.05766102,-0.12583922,0.20839481
/education/educational_institution/colors	-0.16811334,-0.056646634,0.012282871,0.107530184,0.20542529,-0.17997132,-0.09859154,0.016216705,-0.085370645,0.039597172,-0.049056377,-0.00528623,0.17451823,-0.10969729,0.20270962,-0.25365758,-0.08140098,0.059700146,0.064867295,0.1999033,-0.027643403,0.1108472,0.16436313,-0.11598147,-0.21453832,0.11717007,0.022669898,0.029682897,-0.16916321,-0.011038968,0.21871394,-0.13730499,0.25816232,-0.13025582,-0.20744285,-0.12697302,-0.16444315,0.18618517,-0.037805736,-0.04985897,0.17501473,-0.19577618,-0.049164914,0.057741567,-0.13624851,-0.1889364,-0.13248551,-0.14628921,-0.22803403,-0.14234103
/base/aareas/schema/administrative_area/administrative_parent	-0.061682995,-0.3091848,0.22111018,-0.20177808,0.22927363,0.1954434,0.022756903,0.23439212,-0.1299287,0.015389227,-0.18685621,0.08389702,0.24401665,0.14624017,-0.10321316,0.15254173,0.089136355,0.21852966,-0.05169697,0.08117718,-0.021772685,0.16017829,0.061702076,-0.1058525,-0.17072572,0.15913069,0.015555037,-0.11686127,0.09865456,0.1301647,0.102999225,-0.12248524,0.16749613,0.042140033,-0.1579587,0.051875312,-0.18667594,-0.048135653,0.20532124,0.07901677,0.08032579,-0.12916026,0.050484736,-0.03633968,-0.14724953,-0.1614172,0.07470157,0.018474009,-0.117821775,-0.16949713
/government/political_appointer/appointees./government/government_position_held/basic_title	-0.06350296,0.041986447,0.3437497,0.07323342,0.053457066,0.16924118,0.035075545,-0.070164174,-0.06413619,-0.016068894,0.0035683357,-0.082015835,-0.010855442,-0.16882089,0.24805088,-0.1780847,0.22038661,0.11353086,0.09272606,-0.0023794975,0.20448424,-0.10426247,-0.15762238,0.05328126,0.26742753,-0.14080925,-0.04497405,-0.058876917,0.22479102,-0.14017418,-0.04875473,0.030856274,0.15908974,0.16511394,0.15020482,-0.089551345,0.15589295,0.26858872,-0.12345652,0.08328964,0.16409495,-0.17177926,0.12564881,0.052024268,0.15928537,-0.033360258,0.24892065,0.06357345,0.006271066,0.10023004
/organization/organization/sectors	0.121695414,0.07565152,-0.03139702,0.13542691,0.37587023,-0.02980913,0.014695123,0.08620525,0.026925182,0.081305,-0.2509239,0.068213955,0.11528925,0.11838853,0.3548907,0.019062206,0.19433981,-0.08708025,0.07858698,0.20851775,-0.08707214,0.29584625,-0.0098888045,-0.16661645,-0.04393089,0.1393692,-0.056495704,0.26871645,0.07125412,0.023583163,0.022714308,0.03157027,-0.12957424,-0.17403229,-0.06797817,0.08223627,-0.007235565,0.21079613,0.10464566,-0.15867794,0.15319313,0.061174013,-0.2500023,-0.079778515,-0.0059347777,0.08811328,0.061759587,-0.08569023,0.063028075,0.042457428
/organization/role/leaders./organization/leadership/organization	0.09103592,0.09264695,-0.046338025,0.22651672,0.1300644,0.035036817,0.036843702,0.0030431454,-0.08284239,0.034730628,0.012258069,0.011656245,-0.13685724,-0.079126775,0.10891309,0.018251205,0.12485459,0.12712193,-0.13956454,-0.30106795,0.16636355,0.100970946,-0.040430896,0.2035373,-0.1024655,0.06094067,0.0009221136,0.06300598,0.0075992784,-0.47243047,-0.09449271,0.17414117,0.033665698,0.17699684,-0.0025016437,-0.026081098,0.06486198,-0.23890336,0.2895005,0.057287164,-0.05055509,0.08650801,0.06470549,-0.013687171,0.11793827,0.10138333,-0.070208035,0.116963245,0.34678873,0.047689684
/location/location/people_born_here	0.014274633,-0.15082826,0.06767379,-0.15838508,0.12647402,0.30682734,0.04180771,0.040771026,0.09648295,0.03830263,-0.16363522,-0.21687208,0.14860778,0.04945438,-0.3590636,0.15047635,-0.05865456,-0.050189376,-0.031074248,0.09629977,-0.18134357,0.2308385,-0.14875108,-0.19396235,-0.32821867,-0.02884403,-0.063850835,-0.063152485,-0.006010704,0.091469266,-0.09785872,-0.04704359,0.1437116,0.121598974,-0.073706284,0.11693778,-0.030012624,-0.013000524,0.22432385,-0.017929016,-0.007985685,-0.18098779,-0.061835725,0.16920482,-0.031524293,-0.07844255,0.2185517,-0.09974765,-0.14467196,0.13812974
/medicine/risk_factor/diseases	0.04182066,-0.034029447,-0.13122347,0.10013695,0.024445252,0.06727181,0.07919213,-0.06429589,0.102756016,0.045973085,-0.08438921,-0.024954174,0.14244547,0.17043008,0.14371662,0.2851907,0.3364735,-0.027835894,0.10317713,-0.11946971,0.094427615,-0.032446787,-0.01636813,-0.060345102,-0.10309306,-0.1565666,0.15238659,-0.19880314,0.047079343,-0.2202924,-0.23176762,-0.17887536,0.20064913,0.22966404,0.07494991,-0.13923293,0.059073765,0.025067562,0.108843766,-0.023739027,0.01563622,0.109877825,0.04934239,-0.102558374,-0.08983785,0.055651262,-0.2524892,0.04622287,0.0076783807,-0.23152238
/broadcast/tv_station_owner/tv_stations	-0.02768792,-0.12344002,-0.088378906,0.0377329,0.17203073,0.2267663,0.08276365,0.017283522,-0.07027648,0.15101013,-0.26919162,0.023062434,0.23518132,0.08617085,-0.029774768,-0.04137245,-0.022479445,-0.16414286,0.21725543,0.20247704,-0.22073473,0.19467215,0.100047156,-0.20523337,-0.24353302,-0.08285962,0.0038800437,-0.09041478,0.044916276,-0.16009122,-0.1254752,0.13160616,0.078410655,-0.19854382,-0.16050908,0.0541239,0.0068734516,-0.24301231,-0.07302859,0.0012140578,0.2009759,-0.14273363,0.18660532,0.18123743,-0.092618905,0.0032714903,0.057014238,0.2074893,0.028523263,0.09064343
/government/legislative_session/members./government/government_position_held/legislative_sessions	-0.0036727472,-0.28740597,-0.013725086,-0.18969227,-0.04860484,-0.09906709,0.07191096,0.14490174,0.14186114,-0.02559641,0.09288356,0.15555976,0.041829966,-0.16788748,-0.1532568,-0.16471888,0.11541288,0.044699673,-0.10950443,-0.15241547,0.2133475,-0.023469973,0.13003959,-0.17498237,-0.13742703,0.11810148,-0.06306492,-0.037995715,0.007849747,0.036811344,-0.12174589,0.023352446,0.1073356,-0.04288772,-0.024150312,-0.019916968,-0.071278036,0.08605558,-0.14051446,0.1775419,-0.1648065,-0.21323463,0.031170197,0.11695092,0.14155464,0.14324175,0.2852365,0.24839942,-0.24488498,-0.31736338
/olympics/olympic_games/sports	0.112120084,-0.05403022,-0.084408425,-0.2729644,-0.050462138,0.22831184,-0.052991178,0.1331405,-0.04002973,0.06669732,0.15299588,0.10829835,-0.07100433,0.09584038,0.25968125,0.08399488,-0.044319678,0.09350738,0.030670658,-0.010076475,-0.04693765,0.047043867,-0.07805599,-0.13874817,-0.13167766,0.04240727,0.13521926,-0.14433827,0.031243127,0.20758244,-0.30195865,-0.13561508,-0.043877803,0.23621039,-0.12379559,0.06165742,0.08664006,-0.06165174,-0.046900608,0.009469494,0.16495222,-0.15656562,-0.28033322,-0.00033243894,0.10552662,-0.038534004,0.0278927,0.05136608,0.42028442,0.17587711
/people/person/places_lived./people/place_lived/location	-0.110900514,0.11277936,-0.10122405,0.07965431,0.0075259516,-0.18320692,-0.13280179,-0.014134054,0.051943388,0.039650388,0.0115258405,-0.04481522,-0.22624916,-0.092131495,0.10915847,-0.10882644,0.20974848,0.24275947,0.053524945,0.09650336,0.22833298,-0.023521682,0.066467404,0.27047792,0.26464057,0.011162107,-0.044442523,0.15884586,-0.18317483,-0.24615276,0.16460629,0.1906249,0.11960268,-0.13752206,-0.072116986,-0.030870464,0.05741062,0.1355997,-0.2925674,-0.2768661,0.20295984,0.030217553,-0.09229604,-0.064715385,-0.045830034,0.10973019,-0.0029389153,-0.1365902,0.07504671,-0.06684858
/government/legislative_session/members./government/government_position_held/governmental_body	0.15223427,0.11299983,0.01761303,0.26674137,-0.1515647,-0.23788972,0.08269745,-0.11307744,0.016660564,0.068743534,0.22395918,0.008475203,-0.12344035,0.13219084,-0.085139446,0.07551885,0.028986474,-0.18465798,-0.13632569,-0.15918325,0.1030208,0.14999531,-0.062433854,-0.16599695,0.056431357,0.0176601,-0.11793586,-0.18084799,0.0788633,0.021686366,0.21376425,0.23735738,-0.016439274,-0.037929423,-0.025805267,-0.19214043,-0.050890356,-0.105178855,-0.112437725,-0.115032285,-0.018836545,0.05845373,0.096939914,-0.07454873,0.1964213,-0.099845074,0.028898612,-0.060730398,0.00053674425,-0.018538175
/location/hud_foreclosure_area/estimated_number_foreclosures./measurement_unit/dated_integer/source	-0.017859086,0.10478704,-0.051701415,0.017064137,0.18708149,-0.0027584012,0.18177867,0.014857643,0.2693599,-0.06413065,-0.08329461,0.00085070264,0.31976312,0.09742375,0.17235672,0.07307971,0.026176503,-0.11984782,-0.077991925,0.028519232,0.11924512,0.26006308,-0.059222504,-0.122813635,-0.24690878,0.18713678,0.029000951,-0.19866633,0.19759576,0.059659343,0.036471624,-0.08411969,0.19262356,-0.0040217876,-0.21950267,0.15137987,0.086532086,0.22899114,0.21782422,0.17347303,-0.033794884,0.08441199,0.08846459,0.09098556,-0.13798383,-0.121584035,0.25001085,0.06363646,-2.6182213e-05,-0.08342002
/award/award_category/disciplines_or_subjects	-0.05192054,-0.099319205,-0.13169304,-0.06265674,-0.11471995,-0.10450898,0.18059243,-0.03652197,0.14023407,0.041530058,0.042763446,0.15167427,-0.1326464,0.35343438,-0.21782085,0.27751026,-0.0027987473,0.22827592,-0.09135477,-0.10741542,0.25053248,-0.16035277,-0.21582502,0.20627195,-0.016356356,0.023856623,0.073162936,0.07057598,0.10007412,0.17037436,-0.09316083,-0.083415166,0.011694065,0.051325142,0.018292809,-0.006151462,-0.010707568,0.37308216,-0.11640468,0.06935978,-0.036025077,-0.15560335,-0.07973858,-0.20967272,-0.15341079,0.05202804,0.11769359,0.021775346,0.045790493,-0.013544472
/sports/professional_sports_team/draft_picks./sports/sports_league_draft_pick/school	-0.23310475,0.027144145,-0.037424672,0.04134086,0.02017929,0.13987152,-0.030835858,-0.16740438,0.043859985,0.2379673,0.07803946,0.1437658,-0.027529515,0.029566359,0.00385014,-0.09188078,-0.14104143,-0.2014774,-0.061444025,-0.16634348,0.0038494433,-0.12542929,0.0025523223,0.1322223,0.04986919,-0.23171084,0.19635531,-0.07881986,-0.026353657,-0.21113485,-0.08290191,0.10210467,-0.3252317,0.1403976,0.029666986,-0.12288382,-0.23682718,-0.34097263,-0.11666488,0.13769032,0.01555197,-0.00206862,0.1819668,-0.17667857,0.0882538,0.13588569,0.19959745,0.047096554,0.14493212,0.09225126
/olympics/olympic_participating_country/medals_won./olympics/olympic_medal_honor/olympics	-0.030776266,-0.08353999,-0.32688248,-0.19133072,0.084274024,0.20671771,0.16128811,0.0045538084,-0.10962541,0.14260715,-0.099311255,0.24678315,0.05046508,-0.00036425272,0.059696555,-0.07001295,-0.04670978,-0.07426127,0.058450688,0.05595547,0.122104146,-0.09275161,0.10722715,-0.032068696,0.16553114,0.0029886274,-0.056153726,-0.08093565,-0.10188423,-0.007216782,-0.08503656,0.054642938,-0.12544948,0.018386118,0.011108514,0.17439944,-0.22159247,-0.008529056,0.17242238,-0.030531488,0.17329177,0.14938581,0.4346644,-0.22835942,-0.008917829,-0.055639524,0.09738889,-0.17232946,0.118395194,0.18064667
/language/human_language/countries_spoken_in	0.28592557,-0.0274529,-0.18166094,0.14652789,0.05182983,-0.038832527,-0.16201875,-0.008323169,0.38716736,0.025752818,0.17107534,-0.3058722,0.016392775,-0.08453355,0.1033402,-0.029634636,0.27975118,0.106891975,-0.065746866,-0.10922276,0.26170057,0.010587827,-0.18587942,-0.040980335,0.23023893,-0.04683322,-0.014893493,0.028107725,-0.04226936,0.104514256,0.101210974,0.0091794785,0.06575931,0.116331965,-0.1345789,0.1587244,0.046420448,0.09648696,0.011689576,0.30715293,0.081362896,0.045898627,0.06510716,0.12094676,-0.050978914,-0.08530229,0.02952591,-0.037806854,0.070225276,0.20092621
/symbols/namesake/named_after	0.13363798,0.09421497,0.17668696,-0.05795438,-0.00943374,-0.099871464,-0.016553784,-0.017303811,0.07494126,-0.038608544,0.14820057,-0.14445275,0.05664444,-0.021743257,-0.01638861,0.11199926,0.06502656,0.04416535,0.021880198,-0.042305704,-0.0025416224,0.12906873,-0.020237861,-0.44657713,0.12922038,0.05601989,-0.12577417,-0.10555422,0.13390571,0.17896937,-0.1002474,-0.08730818,0.106602125,-0.09813553,0.034721117,-0.052592937,-0.030169701,-0.11712386,0.3315917,0.0033230076,0.1697058,-0.22429286,-0.07992884,0.27721396,0.03446071,-0.3264593,-0.16014081,0.04298566,-0.26843134,-0.05567682
/organization/organization/phone_number./common/phone_number/category	0.15652329,-0.07247352,0.28862834,0.142349,-0.049592815,0.11713446,-0.11567756,0.1587477,-0.024913043,0.041031267,-0.30814323,-0.13491966,0.10872018,-0.05994443,0.14121671,-0.058548354,0.040308457,-0.21466857,0.16889603,0.31807753,-0.119069,-0.18044576,0.045730695,-0.1243824,-0.17399642,0.02099315,-0.17468435,0.07832873,-0.2449708,0.13603288,0.18982798,0.02702187,0.28085306,-0.051981132,0.0072918395,-0.034228574,-0.26239255,0.17396252,0.0012292605,0.02701164,-0.016351735,-0.0123564955,-0.08437151,-0.017717427,0.10481628,-0.0329946,0.1462716,-0.036717385,-0.08646121,-0.022899639
/award/award_winner/awards_won./award/award_honor/honored_for	0.14490145,-0.07045131,0.20357373,0.052758403,-0.16409485,-0.0131348595,0.052562166,0.19876273,0.051261716,-0.1309478,-0.02911172,-0.14802326,-0.10790891,0.08231974,-0.26030096,0.21063156,0.054464944,-0.057179578,-0.2596982,-0.12255158,-0.112969294,-0.16177085,0.18592066,-0.016833957,0.08200763,0.008176604,-0.035142764,-0.07994978,0.014532485,0.25924438,0.14691256,0.096881725,0.031761304,-0.017264895,0.09198859,0.11249655,-0.13102666,-0.2621502,-0.20110163,0.017584944,-0.21048172,0.10944736,0.06714233,-0.2545929,0.28205523,-0.18376179,0.012510171,-0.10177026,0.13264614,0.026917601
/people/ethnicity/people	0.06419949,-0.039713785,0.15582986,-0.2569217,0.0039241905,-0.02556265,-0.15855205,-0.009863383,-0.10046492,0.12415525,0.088751726,-0.17785454,0.15843484,-0.09711609,0.06642015,-0.020737592,0.0730777,-0.010029509,-0.13866372,0.13592006,-0.20935453,-0.08731848,0.058160573,-0.108509704,-0.2234132,0.17698851,0.055861264,-0.2169159,-0.13239007,0.04422215,0.007024329,-0.0042649447,0.08409631,0.21712191,0.3003867,0.29369396,-0.17714664,0.024868308,-0.07687876,0.1207539,-0.10875827,0.10333995,0.01923577,-0.2428955,-0.15830943,-0.2758507,0.100580044,0.120909125,0.0029143654,0.15970759
/fictional_universe/character_occupation/characters_with_this_occupation	-0.07628263,-0.06628995,0.27073216,0.014891581,-0.05434303,0.2075886,-0.057927717,-0.07604522,0.27501208,-0.14342926,-0.09518781,-0.032795623,0.12937562,0.020970996,-0.0006866215,0.008717087,0.0047331685,-0.069152676,0.053782664,0.09508726,0.081455834,-0.23336327,-0.09034558,-0.1039658,-0.059546217,-0.37097076,-0.042525616,-0.0028476848,-0.16625087,0.35594103,-0.05140892,-0.06629166,-0.13473439,0.16848749,0.10925371,-0.27470976,-0.02672838,0.27306384,0.033569623,0.1442085,0.13081647,-0.17050919,-0.04466547,-0.10657974,-0.08601403,-0.10090718,-0.06829842,0.03606874,0.06509868,-0.13365954
/architecture/museum/type_of_museum	0.010076249,-0.17737612,-0.08313423,0.17256151,-0.09753278,0.006641103,0.11751249,0.003457492,-0.07116619,-0.19723426,-0.24341938,0.19462797,0.3144406,0.027690018,0.078420825,0.15305224,0.07330373,-0.05071285,0.14081782,0.20968725,-0.13240606,0.18599294,0.0072392817,-0.062937826,-0.26098296,-0.12284954,-0.036639642,-0.037794497,-0.20860802,0.06320393,-0.011938002,-0.09740997,0.13015991,-0.15691322,-0.015403142,-0.21532328,0.010040487,0.07525217,0.08354298,0.021521581,0.20254216,0.01812048,-0.11731561,0.06830278,-0.18230954,-0.24388364,0.05701829,-0.18161778,-0.27697134,0.015476868
/olympics/olympic_participating_country/athletes./olympics/olympic_athlete_affiliation/olympics	-0.1688878,0.15531603,-0.04979209,0.21735686,-0.06003065,-0.012816052,0.05976249,0.0672655,0.0017751172,0.25205544,0.097752646,0.122479364,0.01743467,-0.21273272,0.08445336,-0.17611632,0.09362816,-0.45961085,-0.041889835,-0.0016007029,0.22920708,0.0014038408,0.12566914,0.06025986,0.020654924,-0.026751408,0.06773849,-0.021511966,0.13176425,-0.046118885,0.13242586,0.010660345,-0.115224175,-0.07770137,-0.0028115276,0.08465912,0.09565486,-0.45864052,-0.043832794,-0.0007048757,-0.0035553551,0.11154599,0.29586762,-0.058104895,0.025450451,0.0905379,0.1274156,-0.049082678,-0.01266983,-0.005502828
/olympics/olympic_participating_country/medals_won./olympics/olympic_medal_honor/medal	0.01854299,-0.018649762,0.01613182,0.07733493,0.38934383,-0.018793127,-0.019657558,-0.19200478,-0.07560665,-0.031798474,-0.14622805,0.049474694,0.11190806,0.0229252,-0.11132058,0.21906123,0.05039243,-0.40044165,0.14106624,0.2825862,-0.23985954,-0.060048543,0.0124717625,0.048573032,-0.00044075903,-0.07727232,0.14119764,0.065514475,-0.063905664,-0.024410682,0.23049116,0.12880552,-0.14061545,0.0584015,0.09055535,0.14321746,-0.035500277,-0.018068556,-0.1808076,0.025577383,-0.11279151,0.23840003,-0.17448795,-0.014727414,-0.18536296,0.07766323,0.19538024,-0.04794056,-0.026716605,0.019419488
/film/film/other_crew./film/film_crew_gig/crewmember	0.081191644,0.104340605,-0.011445177,0.3042064,-0.08837384,0.10834298,0.07432747,0.010999029,0.026721045,-0.0012407987,0.09634287,0.24294874,0.22387545,0.1163742,0.30714396,-0.053499766,-0.0024435278,-0.008330367,0.040197846,0.049613126,0.1844494,0.03392831,0.13682924,0.07523276,-0.1143354,-0.10195715,0.18548153,0.20527217,0.07654174,-0.19493353,0.26209304,-0.2014793,-0.18962744,-0.20117468,-0.24265552,-0.008206228,0.22927937,0.045218907,0.098654,0.053704023,0.07417342,-0.19421625,-0.023424879,-0.022789432,-0.066875935,0.1797299,0.0058117583,0.17503715,-0.020658905,0.07963365
/olympics/olympic_games/athletes./olympics/olympic_athlete_affiliation/sport	0.2103033,-0.16191778,0.12021601,-0.1394404,-0.14491306,0.22258858,-0.11345222,-0.01284473,0.16900045,0.16314578,-0.052496392,0.047225002,-0.06644201,0.00042624396,0.28283122,0.082021646,-0.009330856,-0.07734972,0.20813107,0.0038293358,-0.052201968,-0.015507196,0.1860862,0.07464672,0.0034205741,-0.17938495,-0.020296114,0.03813553,-0.024501022,-0.08322519,0.2539399,-0.3109334,-0.15727174,-0.14577839,0.05317182,-0.05514547,0.084937364,-0.014661415,0.3345492,0.040375028,0.09446716,-0.22004919,-0.1853786,0.067419246,-0.112340376,-0.0113875875,-0.039504472,-0.19655886,0.15219301,-0.14274696
/music/performance_role/track_performances./music/track_contribution/role	0.031726334,-0.1221356,-0.03812388,0.08034704,0.025356129,-0.07444896,0.11929284,-0.09399079,0.0393885,-0.08817318,0.11807015,-0.01640366,0.051111545,0.013964773,0.13535243,0.12383291,0.06340963,0.30218786,-0.43436965,-0.1671249,0.14515702,0.03293039,-0.07378928,-0.038662694,-0.3826789,-0.09288459,0.007684123,0.019233838,0.049519945,-0.07400813,-0.22607762,0.11806756,0.083547495,-0.07394964,0.07111634,-0.31180236,-0.06691329,0.09828422,-0.044160355,0.29146364,0.02168021,0.025202192,0.06427439,0.18043217,0.13910052,-0.107197024,-0.10151603,0.09392108,0.13781178,-0.10276846
/education/school_category/schools_of_this_kind	-0.20316623,0.036802795,-0.07304098,0.021790322,-0.12477525,0.008871414,-0.15781362,-0.11197683,-0.16122605,0.109661534,0.122827396,-0.13341926,-0.032433316,-0.16588846,-0.12133832,0.10966714,-0.10010397,-0.047931593,0.09480529,-0.016729401,0.017196646,-0.06812649,0.0060347556,0.16075556,0.14811619,0.113947555,0.14968596,-0.127627,0.041725103,-0.22554782,0.042801917,0.15293355,-0.2026122,0.15362862,0.35541815,0.101442136,-0.017714074,-0.065340064,-0.19121762,-0.026940836,0.28845882,0.123014,0.2353824,-0.009900678,-0.0030446395,0.08747412,0.0612474,0.34905663,0.18322463,0.06768241
/sports/sports_team/roster./sports/sports_team_roster/position	0.0243209,-0.12739569,-0.24922976,-0.012091173,-0.023395069,0.081894964,-0.1400808,-0.055156518,0.015846977,-0.17420329,0.006545579,0.14367989,0.066126,0.08969048,-0.1013518,-0.17308319,-0.29149207,-0.19050202,0.11443299,-0.14302032,0.07092971,-0.07440987,-0.10103561,-0.081440374,0.170791,0.34856337,-0.25241828,-0.094362035,0.025485937,-0.15895511,0.06609143,0.015013536,-0.2195683,-0.114293836,-0.03901315,-0.2855345,-0.09619278,-0.062492006,0.054844204,0.010232092,-0.14052522,-0.020331617,-0.08267889,0.09469654,0.09218271,0.107260585,0.07882496,0.24189474,-0.13052297,0.24067855
/metropolitan_transit/transit_service_type/transit_lines	-0.07190447,0.1331235,0.11786505,0.19473821,0.08956348,-0.15329829,0.052903373,-0.05976892,0.099843554,0.109728165,-0.19111526,-0.10457706,0.25218424,0.06911237,0.18361232,-0.11721102,-0.06350926,-0.16161507,0.15122668,0.11139718,-0.14690115,-0.14993946,-0.04068867,-0.21315087,-0.08849137,0.01961623,0.13292319,-0.09101342,-0.0704812,-0.2684913,0.09018231,-0.085907,-0.111031264,0.21515146,-0.0858822,-0.21020801,0.09189916,-0.1819184,0.19953641,0.18430835,0.04234802,-0.20683661,0.12718563,-0.12278835,-0.097922534,0.16909795,-0.13522129,0.21279792,-0.07595023,0.09966747
/music/record_label/artist	0.10023133,-0.09591039,0.17242743,0.028670209,0.071903296,-0.08050225,0.068442434,0.15559334,0.07451778,0.046482574,-0.011611717,-0.16358508,-0.02866579,0.31864464,-0.06290628,-0.07729941,-0.03306852,0.00015211258,0.023839394,-0.02019262,-0.10501971,-0.04132211,0.014011351,-0.181128,-0.050029702,0.021552391,-0.30874625,-0.11890869,0.36118737,-0.1957594,-0.2585733,0.0029420366,-0.010583987,0.18043762,0.0031286976,-0.032140184,0.009724864,-0.12459432,0.10937004,-0.15639545,-0.09364407,-0.11588117,0.067194946,0.10647737,0.2307563,-0.15822501,0.29399604,0.13448733,-0.07542558,-0.18460533
/location/statistical_region/rent50_4./measurement_unit/dated_money_value/currency	0.17198093,0.21709542,0.07127594,-0.1265648,0.0930378,-0.063479215,-0.09749391,0.04943285,0.08707936,-0.14337403,0.24465007,-0.19053231,-0.24258414,0.044444308,-0.0080220355,0.10577855,-0.1921196,0.10226877,-0.15391402,-0.22169288,-0.09157689,0.13541202,-0.0057112877,0.012855163,-0.20758803,0.06300686,-0.09985545,0.27138358,0.21884422,0.12928653,0.054759752,0.03334655,0.1079661,0.10174743,-0.10058382,0.012168708,0.06046479,-0.0897551,0.208617,0.4381743,-0.037644256,-0.004371828,0.07582312,0.13868235,0.06124103,-0.06736307,0.059515543,-0.026649358,0.099800624,-0.07921796
/base/popstra/celebrity/dated./base/popstra/dated/participant	-0.13291596,-0.23327985,-0.07212896,0.12561756,0.07871306,0.059528753,0.3018086,0.27471024,0.030400548,-0.05576223,0.02756049,0.095697105,-0.0018118464,-0.077687785,0.09788209,-0.10030381,-0.18926157,0.07939829,-0.013976463,-0.0043333815,-0.033889625,0.0040315567,-0.096718,0.31277966,-0.119247764,-0.039630942,0.043002058,0.04239767,0.08651401,0.2852762,0.1898973,0.023942892,-0.045127314,0.096522845,-0.1481362,-0.1123489,-0.092739895,0.1820487,0.1717096,0.08613246,-0.08852901,-0.072266094,-0.28579512,0.35006854,-0.004826735,-0.0021176569,0.076250985,0.10531903,0.20335597,0.0024239363
/base/locations/continents/countries_within	0.05431191,0.18722369,-0.24977706,-0.1474873,-0.22550094,-0.0715573,0.043226186,-0.27506617,-0.05379004,-0.13577726,0.1614077,-0.04532036,-0.20989874,-0.07719581,0.08712915,-0.014834005,0.03079148,0.033955134,-0.05728144,-0.19839528,-0.054371282,-0.014428598,-0.23013046,0.19132783,0.10465862,-0.017523402,0.19052579,0.11613339,-0.006690301,-0.0059190844,-0.12385795,0.21511957,0.088146724,0.24823648,-0.112238094,0.15509668,0.16387387,0.0032293773,-0.29824197,0.109932244,0.004225785,0.15231988,0.0904614,-0.030934017,-0.0058729555,0.0861146,0.017405784,-0.055226665,0.1095567,0.2964416
/business/employer/employees./business/employment_tenure/title	-0.079377085,0.027832277,0.020255366,-0.13092399,-0.06887664,-0.13401039,0.008341234,0.042628545,-0.1863944,-0.09777761,-0.041809615,0.11171341,0.0245964,0.13085896,0.002368589,0.30519482,0.06342372,-0.11152837,-0.102807716,0.15890588,-0.22795725,0.115901664,-0.21357618,-0.2728401,0.18565442,0.36861387,-0.28428626,-0.028689232,0.08353204,0.052233838,0.12973085,-0.10579914,0.04921314,0.032252003,0.036999743,-0.03152808,-0.14825563,-0.062204782,0.039309315,-0.15489797,-0.031093972,-0.2549363,-0.057616398,0.06134876,-0.038510326,-0.06752824,-0.04988095,0.13424076,-0.1836905,-0.26343098
/sports/sports_league_draft/picks./sports/sports_league_draft_pick/school	-0.16530469,-0.038978223,-0.088327795,-0.0417361,-0.04926885,0.074086174,-0.11905478,-0.23823538,0.025047919,-0.10017331,0.12164878,0.0008590998,-0.1855848,0.008786538,-0.068325765,0.025056647,-0.25661016,0.03105059,-0.117180616,0.007446482,0.15405603,-0.27352816,-0.0061601573,0.027740391,0.10287251,-0.22456777,0.14705186,-0.13146092,0.022402829,0.07719005,-0.070304655,-0.07662029,-0.06305644,-0.007972287,0.026689548,0.060335603,0.25563738,-0.33422685,-0.17240545,0.05283443,-0.1989713,0.24612674,0.19101919,-0.015166348,0.17662537,0.0018033533,0.25246996,0.21126948,0.04284143,-0.15515961
/music/musical_group/member./music/group_membership/role	-0.14878972,0.08687386,-0.077716015,0.099827625,0.007063775,0.11989888,0.1699023,-0.18202507,0.23784167,0.1221074,0.051937334,0.2155103,0.2565124,0.0726544,0.009020549,0.07908686,0.1517366,-0.003988976,0.11156849,0.102711245,-0.19092052,0.04758985,0.09631226,-0.08920904,-0.27255753,-0.19373971,0.11515155,-0.24730937,-0.40440515,0.18696687,-0.0217268,0.022749705,-0.1130592,-0.036356658,-0.001013455,0.07914109,0.13845216,-0.04773868,0.08498844,0.0653617,0.12558332,0.004747593,-0.1124639,0.053382035,-0.1462663,0.07921107,-0.23383807,0.1769884,0.025756096,0.0072030816
/sports/sports_team/sport	0.06955876,0.21998157,0.0083417455,0.13947126,0.11298732,-0.15995035,0.06767174,0.036812406,0.08076091,-0.06279167,0.26024178,-0.06420306,-0.014320439,0.21960016,0.07112566,0.2118215,-0.01815645,0.040574435,-0.29194748,0.22810712,0.061937846,-0.13045485,-0.124337405,0.1323234,-0.03352964,0.061971735,0.097928755,-0.18323128,0.053450007,-0.080336,0.036371693,-0.16503936,0.19547325,-0.27570376,-0.18110119,-0.34696102,-0.13293265,0.034003265,-0.120258786,0.008170679,-0.22377105,0.1649352,-0.027593652,0.1473901,0.104077615,0.030170284,0.063498795,0.03754077,-0.0728505,0.02801869
/film/producer/films_executive_produced	-0.111666046,0.06795179,0.06058603,-0.046506133,-0.012217786,-0.022627674,0.1494705,0.045427892,-0.16192195,-0.044594508,0.000108514476,-0.19114518,-0.09596471,0.22149105,0.11294837,-0.107035495,-0.0142811565,-0.2891295,0.08156638,0.056715254,0.051695947,0.13951217,-0.007884691,-0.07769129,-0.018745,0.10480731,-0.22189844,-0.10671873,0.17557316,-0.13259186,-0.19333617,0.14192459,-0.11602826,0.1584902,0.39948794,-0.18249872,-0.031140568,-0.10832669,-0.042938773,0.2490066,-0.011233905,0.06703113,0.27163014,0.04316969,0.098131634,-0.12676324,-0.08426661,0.19388643,-0.08650411,0.15669231
/education/educational_institution_campus/educational_institution	-0.10294395,-0.11717895,0.08748593,-0.22886279,0.014486051,-0.09882278,0.057378087,0.06991421,0.03379277,-0.04310792,-0.07032388,0.034751013,-0.09834903,-0.13854714,-0.30049253,0.16923682,0.09862322,0.033364296,-0.020575289,-0.12952869,-0.033136554,0.20629728,-0.22861469,-0.15181251,-0.16617076,-0.05372166,-0.19964463,-0.022937182,-0.087441616,-0.015272733,0.054976083,0.066684835,0.15253894,0.07905734,0.1235792,-0.20292693,0.17937207,-0.17969461,0.13875431,-0.05526448,0.30258432,-0.08647214,-0.12350039,0.06503897,0.06168144,-0.25500414,0.31469235,-0.023908857,0.097624846,-0.1617084
/sports/sports_team/league./sports/sports_league_participation/league	-0.24962856,0.040596608,0.035294395,0.026443245,-0.06520998,-0.28703365,0.013402189,0.012004368,-0.12599084,-0.039441787,-0.18876816,0.19777471,0.19590189,-0.083424404,0.048977688,-0.032341372,0.03101876,-0.20034778,0.14483485,-0.05346037,-0.08841703,-0.076705225,-0.083602026,-0.1528075,-0.045561545,0.088207856,0.21857086,-0.04267408,0.035996526,-0.16835064,0.25286448,0.15838376,-0.21063794,-0.12253038,-0.111566186,-0.109932706,0.05637697,0.10039455,-0.24943776,0.028862704,0.055317372,-0.053407717,-0.09080745,0.047835488,0.18699184,0.077346936,0.029582748,0.09127491,-0.31361923,-0.30642208
/american_football/football_team/current_roster./american_football/football_roster_position/position	0.13794732,-0.35855606,-0.017357117,-0.13127139,0.10709834,-0.04809376,-0.17385112,0.0583491,-0.0774816,-0.27661777,-0.031947296,-0.09628306,-0.146723,-0.05930901,0.05072207,-0.22371764,-0.10353006,0.0180756,0.3034659,0.0417316,-0.10419427,-0.02689919,0.083959706,0.16343698,-0.112253934,0.19853899,0.14728875,-0.050764184,-0.04928007,0.0242879,0.1881101,-0.1662514,-0.21399128,-0.056798853,0.090384156,0.16704789,0.010286457,-0.1472776,0.10097043,-0.10131177,-0.009154238,-0.090630814,0.046180908,-0.03769593,-0.38494322,-0.16218196,-0.08010041,0.052127093,0.044957213,0.0035839495
/location/location/events	-0.21791139,-0.12910588,-0.1650043,-0.036637917,-0.016213417,0.2584948,-0.11208518,-0.01558149,0.15324032,-0.11322345,0.09224078,0.004777437,0.062260486,-0.17526472,-0.09400883,0.22597612,-0.0060049146,0.04005418,-0.013763563,0.2130189,-0.01879652,-0.0002538077,0.31173554,-0.25192434,-0.1354402,0.106011175,0.0013609785,0.11452013,0.12948085,0.08374779,0.05673699,-0.22685397,0.12982513,-0.06110073,0.13495952,-0.19525956,-0.034451462,0.029044174,0.18411049,-0.10716456,-0.034839194,0.16891886,0.052454393,0.121136956,0.07815263,0.14242692,0.22726561,0.05836269,-0.10302907,-0.19885954
/people/person/religion	0.25059927,0.17795442,0.12668999,0.032471493,0.07684836,0.14069718,0.042333234,-0.19794357,0.16661568,-0.07054673,-0.11179574,-0.004675052,-0.04136868,-0.18318565,0.25142115,-0.015447253,0.039458934,0.029915571,0.13425273,0.09886805,-0.18167353,-0.0076101567,0.18405317,0.28734744,0.2969626,-0.01223267,0.033356294,-0.36427087,0.17995113,-0.02203064,0.15712564,-0.015707057,0.05361024,0.02804977,0.006498627,0.08746413,0.07659853,0.07704579,-0.085521504,-0.036450762,-0.05919002,-0.08578814,-0.07770939,0.2183795,0.10216782,0.06746859,0.16336079,-0.07587895,0.13834533,-0.20843571
