1345 50
/location/country/form_of_government	0.17291082,0.1989872,-0.13383095,-0.12569584,-0.3182567,-0.086254574,0.18664512,0.02297453,-0.094150834,0.2178679,0.016293675,0.1499686,0.19387977,0.012787004,0.12557782,-0.18045995,0.013156806,-0.1634967,-0.12707695,0.16922536,-0.23069355,0.08146619,-0.012987567,0.09681286,0.17465207,0.123442665,-0.07969489,0.18511301,-0.07619676,0.012147168,-0.14728506,0.21776229,-0.0902963,0.14869055,-0.17041765,0.04148852,-0.2696809,0.0040678186,0.00039872018,0.052017964,0.022991857,-0.019259572,-0.08854474,-0.21794483,-0.24977764,-0.050946757,-0.092999876,0.020004712,0.052291755,0.12462401
/tv/tv_program/regular_cast./tv/regular_tv_appearance/actor	0.1025326,-0.23740365,-0.12548654,-0.18713158,0.14375247,0.25961158,0.13031125,-0.23767601,-0.12126682,-0.07378393,-0.09369479,-0.047706272,0.08356076,-0.06562099,0.1339149,-0.15817429,-0.21082798,-0.09591875,-0.18529484,0.10677201,-0.23003797,0.030674659,-0.06405652,-0.28894982,0.030627487,-0.08387069,-0.109833986,-0.028478924,-0.026676357,0.07020114,0.051392376,0.037076034,-0.16896501,0.11951547,-0.0070373206,0.075339824,0.16233616,0.024646811,-0.12881027,0.17958279,0.08936199,-0.12962443,-0.13079305,0.1318852,0.13275492,0.17737858,0.2581144,0.14972119,-0.16550107,0.12196818
/media_common/netflix_genre/titles	0.20114028,-0.083254635,-0.07875463,0.113874644,-0.25744814,-0.028131861,0.21745592,-0.027939172,0.04180776,0.030277604,-0.29171568,-0.14912276,0.17536514,-0.10227503,-0.06340049,0.051978845,-0.10175427,0.15520556,0.09960622,0.20473853,0.119414575,-0.16576624,0.07075349,-0.18110584,-0.0012939133,0.112713024,0.115422755,0.25860217,0.18714862,0.12821788,0.15730494,0.15154867,-0.081072345,-0.2662855,0.13101506,-0.13497314,-0.0030975977,-0.0021019138,0.12771316,0.073749974,-0.077952825,0.06370978,0.15540004,0.22757946,-0.1285816,0.08385259,0.080998294,-0.13637106,0.037343893,0.1785718
/award/award_winner/awards_won./award/award_honor/award_winner	0.14466444,0.07510128,0.18542774,-0.0068588555,-0.310009,0.11139186,-0.0793617,-0.08742072,0.026516067,0.030352037,0.23720133,0.0449514,-0.020203399,0.1710377,0.022084361,0.18418157,0.090739235,-0.027206559,0.33745492,-0.044221263,-0.018409412,0.0045756344,-0.0025373856,-0.06254173,0.06979329,-0.040614042,-0.034374703,-0.000499184,-0.0411159,0.11299913,0.10337399,0.07371206,-0.015689734,0.46525052,0.06409809,-0.03511317,0.07044835,0.046123065,-0.0040818816,0.041636866,-0.033970255,0.040147424,0.41845188,-0.0027170787,-0.0099411355,-0.015323452,0.096722476,0.009039648,0.027137395,0.1109413
/soccer/football_team/current_roster./sports/sports_team_roster/position	0.09262637,-0.017538736,-0.20082915,0.060992297,0.07096358,0.22855994,-0.06970499,-0.034650043,0.14687972,0.07842059,0.031811744,0.07896015,0.26729265,-0.099619724,-0.21392538,-0.078524426,0.02503261,-0.15743019,0.050427556,-0.07872507,-0.037432224,-0.10482412,-0.21123575,0.25144207,0.2026753,0.10851542,0.09664191,-0.2005273,0.07226394,-0.121456474,-0.21610272,-0.015537385,-0.0748225,0.15065227,0.021380147,0.061713204,0.14829484,0.0039533977,0.21655671,0.13066944,0.2593936,-0.1684964,0.119004466,0.07557339,0.12301473,-0.043714177,0.18092124,0.06844193,-0.1154581,0.13514008
/sports/sports_position/players./soccer/football_roster_position/team	-0.027379835,0.08369772,-0.035706006,-0.056305088,0.21622261,-0.18649083,-0.13715634,-0.42158252,-0.15679117,0.049241267,0.09632554,0.015896134,-0.10718081,-0.17154206,-0.007114911,0.1814603,-0.13561256,0.05136948,0.018092962,0.124697395,-0.017555233,0.13750698,0.29504827,-0.021710016,-0.14371708,0.11123114,-0.07427765,-0.100825995,0.09027801,0.10895995,0.1533203,-0.16707733,-0.0047529205,-0.20221736,0.025495535,-0.13718352,-0.1408778,0.13737386,0.083769605,0.29538876,0.24376853,0.051218495,-0.033108767,0.06507537,-0.04740755,-0.012625387,0.18473835,0.14709538,0.03184904,0.084543936
/government/political_district/representatives./government/government_position_held/legislative_sessions	0.0963481,0.14515,0.13900813,0.036654036,-0.08821339,-0.04449781,-0.002687031,0.028747527,0.13329923,0.10866817,-0.039881967,0.16933905,-0.019434957,-0.31908104,0.07204121,0.19637655,0.09007075,-0.018680254,-0.019755708,0.17683582,0.07367995,-0.3058503,0.17577258,0.24423003,0.03753435,-0.08547517,-0.021433897,0.01566589,-0.018021405,0.010800223,-0.11742312,-0.13392757,0.15225309,0.2030072,-0.15214218,0.20987234,-0.17852971,0.16450168,-0.014445162,-0.28474233,0.15319557,-0.02206534,0.12751076,-0.10116589,0.102415875,-0.045394603,-0.24909237,-0.14713293,-0.059732635,-0.055125304
/film/film/starring./film/performance/actor	-0.2669576,-0.17067534,-0.24661557,-0.00820563,0.025865989,0.01657903,0.31710646,-0.1205923,-0.08202161,0.13458264,-0.04946745,0.088146575,-0.18893449,-0.18935296,0.2622064,0.048441134,-0.14202148,-0.07438189,0.08487552,-0.11921832,0.034525782,0.15684718,0.10704266,-0.10430776,0.03586887,-0.13236746,-0.13539,-0.13115482,0.03637871,-0.03487605,0.18414062,-0.054402217,-0.10233587,0.105428234,0.0397888,0.05428323,0.22501576,-0.14842854,-0.08707297,-0.13494325,-0.12806837,0.13996443,-0.2952304,-0.06873556,-0.016664095,-0.19991967,0.16200514,-0.15193118,-0.03911822,0.11155585
/soccer/football_team/current_roster./soccer/football_roster_position/position	-0.24056147,-0.14901567,0.17951946,0.045089055,0.0112022245,-0.15067618,0.073321916,-0.2540013,-0.08559497,0.11852614,0.087443635,-0.01673332,-0.10275169,0.074736595,0.035395503,0.021033978,-0.078313135,0.120121606,-0.08439687,-0.112572156,-0.021658216,0.16752635,0.11110168,-0.10794087,-0.030965798,0.054961253,-0.07072263,-0.19879928,0.057506364,0.120700665,0.21249568,-0.22742721,-0.018524144,-0.071392566,0.17329276,-0.05238901,-0.14941934,0.2066677,0.052319616,-0.36743987,0.06926849,0.005209714,-0.2710752,-0.08568563,-0.096092686,-0.09881729,-0.06886143,0.15455918,0.16445659,-0.2939486
/film/actor/film./film/performance/film	0.08466771,0.16106546,0.2580992,0.10381069,-0.17720194,0.09351045,-0.25220847,0.14196384,0.035666127,-0.13955334,0.050196633,0.038071133,-0.004423094,0.15023412,-0.084761605,-0.16181958,0.055520106,0.09619975,-0.11471761,0.047256008,-0.3800099,-0.06396461,-0.25873426,0.045673206,-0.07128631,0.04825112,0.17603776,0.058325812,-0.014203754,0.2109824,-0.0271138,-0.08366926,0.09308432,-0.06459119,-0.063459404,-0.0018309723,-0.3049928,0.174087,0.1301566,0.08056911,0.117713585,-0.26612973,0.10812552,0.037286904,-0.04505482,0.14826275,-0.15793505,0.12922174,-0.051901236,-0.12189478
/award/award_nominated_work/award_nominations./award/award_nomination/award	-0.1500501,-0.0058615566,-0.19507104,-0.03191916,-0.17360851,0.042071227,-0.08284321,0.0014818091,-0.022203833,0.15216638,0.025856214,-0.35868675,-0.015119012,-0.021277573,-0.03384775,-0.06820156,-0.17830299,0.15408164,-0.09396705,0.09109584,0.20100729,0.09759835,0.047180835,-0.26170933,-0.07824264,-0.083846524,-0.13215546,-0.33140007,-0.0073110494,-0.11961414,-0.0028374286,-0.09295837,0.030772746,-0.03147988,-0.068412796,-0.025971325,-0.18916897,-0.12381836,-0.28329003,-0.14487432,-0.1594158,0.0746481,0.15091711,0.18053898,-0.29506922,0.045220837,0.11286818,0.095965646,0.11257213,-0.020398898
/award/award_category/nominees./award/award_nomination/nominated_for	0.1922169,0.20942016,-0.2254119,-0.02410054,0.07365135,0.022179428,0.13452388,-0.009398647,-0.14400004,0.027168334,-0.04081458,0.2882929,-0.07119624,-0.16088124,0.055113696,0.11405916,-0.1163334,0.07883442,-0.09572668,0.18084714,-0.0800406,0.040693738,0.10711823,-0.08453552,0.050768524,0.04445438,0.052686628,0.19549687,-0.2152106,-0.05604269,-0.20136976,0.035732426,0.084068894,-0.02035628,0.033351675,-0.05294771,-0.22671184,0.40552846,0.015617788,-0.05346597,-0.02711787,0.04397995,0.16082445,-0.36042646,-0.2063724,0.004920794,0.12342106,-0.076514825,-0.06178324,0.09111393
/organization/membership_organization/members./organization/organization_membership/member	-0.15011151,-0.093314186,0.13699824,0.0053729303,-0.09121742,-0.31842345,-0.20636828,0.04216451,0.05405003,0.12150346,0.14654817,-0.05750473,-0.09966915,0.0035882774,0.03705182,-0.06432175,-0.11532488,-0.03961278,0.03748436,0.10935273,-0.10427745,0.08954193,-0.18918855,-0.19632633,0.03168712,0.23206806,0.048621096,-0.16038835,-0.1102049,-0.015840601,0.026685262,-0.07510304,0.19455132,-0.07225402,-0.10839967,0.23323084,-0.12801625,0.15785564,0.12146123,0.0875701,-0.09822807,0.34095407,-0.28930122,0.18235193,-0.14746489,0.13752374,0.08190464,-0.006777844,-0.12375272,-0.13222413
/award/award_nominee/award_nominations./award/award_nomination/award_nominee	0.010605999,-0.012960828,0.010585071,0.23727389,-0.015052646,0.09033897,0.0052932184,-0.25118524,0.08095712,-0.019035699,-0.2073346,0.002896055,0.0071785306,0.6447612,0.046527438,-0.24836498,-0.22868842,0.013717653,-0.15122925,0.14825965,-0.023434088,-0.012834204,0.06503909,0.008230946,0.017283235,0.028229814,-0.05541026,0.05896372,0.008450547,0.009668021,-0.03972502,0.047801465,0.014100995,0.039393544,0.020702148,-0.048951287,-0.36015984,-0.040016774,-0.008022394,-0.014135139,-0.018093646,-0.008514403,-0.2724306,0.000403635,0.0056194933,-0.016299237,-0.017236605,-0.0123537695,0.12769505,-0.0006201273
/olympics/olympic_sport/olympic_games_contested	0.21442896,-0.11446749,-0.17173038,-0.14324914,0.16347128,-0.0003902367,0.008764887,0.084708855,-0.14213844,-0.14431936,0.24851322,0.15432048,0.020503646,0.044764012,-0.19449979,-0.046750184,0.22450481,-0.015692504,0.06107818,0.16017072,0.19563328,-0.07722355,0.06728984,-0.027114324,0.2325398,-0.22072504,-0.28709146,-0.05182589,-0.21215914,0.30343235,0.08720976,-0.06314446,0.11448657,-0.17093877,-0.00685398,0.100525856,0.022152659,-0.106329255,-0.051998243,-0.028315151,0.0041882424,0.04686677,0.11700453,0.18651174,0.16108048,-0.031076694,0.09244432,-0.03745001,-0.032519307,0.1794985
/music/performance_role/regular_performances./music/group_membership/role	0.12986846,0.2421745,-0.11637232,-0.23525941,0.059648294,-0.18005005,-0.15589364,0.13741958,-0.16821462,-0.05085105,-0.19591054,-0.005215467,0.020761907,0.028996285,0.12532073,-0.14044465,-0.14501481,0.12978585,-0.11744932,-0.12517244,0.04456276,0.014881091,0.023517236,0.14046715,0.050637968,-0.069948256,-0.090455875,-0.035433386,0.079674825,0.17905852,-0.17471783,-0.055724856,0.315748,-0.12947842,0.010184618,-0.31509578,-0.23344615,0.09728531,-0.13140495,-0.28640917,0.04396766,-0.14077272,-0.0009973833,-0.13645999,-0.0864674,0.033294495,-0.009723569,0.026679806,0.052107256,-0.12712759
/award/award_category/winners./award/award_honor/ceremony	-0.097541265,0.018802004,-0.09294164,0.04596922,-0.033647534,-0.11170349,0.038083903,0.082338475,0.035707228,-0.071578465,-0.08136071,0.2670893,0.104132615,0.019488491,-0.004826116,0.26030168,0.09685175,-0.042883,0.050471343,-0.07083116,-0.04135793,0.022529174,-0.0640465,0.047876123,-0.31922793,-0.065468326,0.00081222266,0.20695616,-0.017933736,-0.1415087,-0.21782966,-0.08331922,0.13730513,-0.20714669,-0.084037736,0.16992742,-0.050541323,0.30196238,-0.39429146,-0.055878855,-0.16869958,0.22166568,0.0014671941,0.09036172,0.114847004,-0.1388043,-0.13947079,-0.15545252,0.08478831,-0.15285636
/film/film/release_date_s./film/film_regional_release_date/film_release_distribution_medium	0.09492411,0.064035095,0.05274325,-0.12558252,0.030191597,-0.06419439,-0.1524886,-0.036555436,-0.109310694,-0.028149435,-0.21964838,0.11879866,0.13197593,-0.004076153,-0.07978948,-0.20359568,-0.011638487,-0.06804212,0.058466382,0.15242624,0.20011048,0.2475672,-0.26852685,-0.14152138,0.1807386,0.14378099,-0.08468529,0.2172905,-0.26400906,0.25571764,0.09218957,-0.05487576,0.055251814,0.23656653,0.05499175,-0.08522169,0.079534665,0.20129241,0.20665412,-0.110223494,0.008005873,0.17108987,0.118345864,-0.013601097,0.03827287,-0.12791403,0.24135943,-0.0725392,0.11978642,0.09463194
/people/marriage_union_type/unions_of_this_type./people/marriage/spouse	0.038248412,-0.032979272,0.07909301,-0.22369154,0.30906215,0.103603266,0.04830357,-0.05350917,-0.005465099,-0.16159163,0.14677362,-0.14775568,0.085266076,-0.09164687,-0.21810837,-0.08238164,0.119124316,0.18359429,0.040535163,0.12267765,-0.039055523,-0.050506048,0.02831722,0.14090453,-0.08400755,0.09787332,0.05557598,-0.05647765,-0.016183166,-0.19088963,-0.033301458,0.057568148,-0.077544995,-0.1331877,-0.16383408,-0.031541362,-0.11519848,-0.10980098,-0.044612925,0.27625808,-0.21331516,0.19568588,0.14332896,-0.26149148,-0.03017417,0.07219639,-0.22072738,-0.21710919,0.30020106,-0.12967147
/award/award_winning_work/awards_won./award/award_honor/award_winner	0.23851633,0.19331774,-0.2734251,-0.20192726,-0.2678654,-0.044941243,-0.068273276,0.19337855,0.107717104,0.059069633,0.19448724,-0.074264444,0.04858651,0.12886839,-0.0083201025,0.09326878,0.09911496,0.15960978,-0.026443677,-0.025979603,-0.19216783,-0.034936838,-0.012304237,0.03735973,-0.034345146,-0.13442127,-0.08459064,-0.091848746,0.19073588,-0.14455132,0.22510809,0.09315611,-0.19322145,-0.0720385,-0.025257029,0.16917905,-0.08389995,-0.097783454,-0.026930455,0.029272517,-0.078034155,0.20167235,0.049604032,0.31106558,-0.060503237,0.018953107,-0.0923443,0.19678077,0.062300514,0.2633407
/film/film/release_date_s./film/film_regional_release_date/film_release_region	-0.30141312,-0.08794874,0.19057381,-0.050369103,-0.013748541,0.09353378,-0.1291309,0.0012186697,0.025808655,0.06264398,0.11719241,-0.43097427,0.09182485,0.06947651,-0.03899384,-0.034195516,0.083903745,0.05265034,-0.087554336,0.032647792,-0.3145053,-0.012172777,-0.129164,-0.008566882,-0.127555,-0.09156154,-0.011017808,-0.10074933,0.072165705,-0.02910651,0.049828608,0.037821144,0.101457044,-0.29644832,0.1802303,-0.032332983,0.114289075,-0.07585538,0.15824836,-0.17329043,-0.13776146,0.01904765,0.31806105,-0.03139501,-0.022749946,-0.019754779,-0.2339859,0.12268795,0.05315769,-0.19287811
/film/film/language	0.19858119,0.14440355,-0.020149972,0.041562136,0.14568208,-0.225676,0.207939,-0.049578544,-0.0679606,0.098952204,0.087099805,0.13124992,0.08216565,0.13942978,-0.08378189,0.12746006,-0.13255404,0.2895116,-0.1670227,0.11436368,-0.16191094,0.15001005,0.029197328,0.19517641,0.07800476,0.2388752,-0.23419762,0.059319016,0.18105754,0.09637692,0.033079516,0.094872326,0.0804899,-0.12620616,-0.08724631,0.018501613,-0.09625104,-0.13117269,0.22005725,0.08378143,0.13746372,-0.07575686,-0.08146492,0.1278139,0.033032656,0.23174599,0.115739435,0.020055002,0.07027975,0.28804886
/music/artist/genre	-0.14093688,0.32260546,0.02309658,0.12651064,0.0007843847,0.068757825,0.09481932,0.15467408,0.16461499,0.035567593,0.1257272,0.14852677,-0.08549184,0.22236972,-0.13953467,-0.015137231,-0.14620878,0.06631184,-0.14101025,-0.026333118,-0.01731378,-0.03125077,0.108988196,0.13842152,0.16610076,-0.067171894,-0.051440824,0.03201571,-0.19576369,0.08100073,-0.06523856,0.0026480323,-0.042314112,-0.1344956,-0.24735098,-0.2244235,-0.10613312,-0.16297948,0.011585292,0.26604182,0.11538707,0.19891642,-0.013766706,0.27144298,0.01472592,0.018456044,-0.13056102,0.091049835,0.34395832,0.015815724
/location/location/containedby	-0.10707757,0.12155391,-0.019460985,0.2097337,-0.0051832716,-0.19545992,0.13091737,0.13526602,-0.056224413,-0.03963624,-0.12738119,-0.11304535,0.19011772,0.05415123,0.18613705,-0.01113869,0.2394884,-0.2566111,-0.3310411,-0.017413834,-0.0799781,-0.074773684,-0.2256694,-0.12701789,-0.05578084,-0.08277566,-0.1730647,-0.1041648,-0.1871787,-0.16031663,0.15225217,0.08937844,-0.048127495,0.122962624,0.051441953,-0.15404695,0.05789315,-0.16307154,0.26275504,-0.07263377,-0.021320552,0.10902359,-0.06552463,-0.018775484,-0.16784559,0.14173669,-0.038287196,0.12862957,-0.14325796,-0.20411912
/people/person/ethnicity	0.049313843,0.15392104,0.2387598,0.26496753,-0.13999777,-0.0119810365,-0.0173888,0.08694597,-0.22742243,-0.14639422,-0.09681103,0.01188455,-0.09873884,-0.13373412,0.029791648,-0.18534246,0.24116446,0.117115535,-0.19454487,-0.1568427,-0.03244006,0.025240459,-0.045594808,0.047265086,-0.16245411,0.26151228,-0.22547677,0.12306755,-0.24877907,-0.11635796,0.023019563,-0.0041271495,0.12466333,0.077005856,0.21954373,0.05722341,0.23641372,-0.053920425,-0.13565212,0.0013870357,0.025773125,-0.25381446,-0.23418823,-0.011649271,0.055049673,-0.046743844,-0.039940774,-0.10888405,0.057832465,-0.06519755
/education/educational_institution/students_graduates./education/education/degree	0.26612163,-0.0015051317,-0.17791465,0.3580724,0.31280464,-0.19099596,0.018640585,-0.11772935,-0.09145779,0.16534972,-0.039540093,0.0058667976,0.12094019,-0.042130537,0.10848021,-0.032707777,0.029117977,0.035188504,0.17475492,0.021090847,-0.08281265,-0.06568638,-0.12792249,-0.026483634,0.040983733,-0.09154563,-0.17328092,0.0013123195,-0.29181397,-0.09874899,0.006607903,-0.07555039,-0.105435096,-0.12749283,0.13284244,-0.19730192,0.24094845,0.043688297,-0.122742765,-0.1603325,0.19637655,-0.11875522,0.13653724,0.112841666,0.08517468,-0.032002483,0.04655422,-0.095516294,0.096340865,0.1372973
/award/award_category/nominees./award/award_nomination/award_nominee	0.17134148,0.26084575,-0.19285582,-0.095163524,-0.16622649,0.11016296,0.012676754,0.029432172,0.07012124,-0.013312545,-0.032530032,0.09092883,0.023784937,0.08432905,0.124995515,-0.22682227,-0.024691759,0.04395331,-0.025588393,0.21119533,0.03841158,-0.022714496,0.07596902,0.286511,-0.03788673,-0.2938851,-0.012794339,0.1079566,-0.036872745,0.011457581,-0.097687736,-0.102016024,0.1704386,-0.027928958,0.30057648,0.092068404,0.14719768,0.044186834,-0.06720463,-0.04215211,0.12426854,0.09959142,-0.1817398,-0.123461455,-0.009993551,0.26722965,0.15204194,-0.070341274,-0.026600292,-0.3679125
/award/award_ceremony/awards_presented./award/award_honor/award	0.036009926,-0.03692588,-0.20835993,-0.11574155,-0.0069650393,0.1838594,-0.13884905,0.19420354,0.011677944,-0.02059747,0.33982146,-0.15759636,-0.22583817,0.009470284,-0.020282207,-0.23177443,-0.027212568,0.122896835,0.10224704,-0.15196769,0.0029148096,-0.07319934,-0.09101605,-0.09416803,0.045403305,0.14602207,0.16131212,-0.006236108,-0.072037496,-0.05970541,0.176633,-0.10351811,-0.12345693,-0.13081777,0.028214054,-0.025922334,0.31224614,0.019447595,0.28193894,0.059241265,0.05635117,-0.2502462,-0.0035894944,0.012418947,0.23128863,-0.05149466,0.08757849,-0.12915905,-0.10935644,0.24175595
/location/location/contains	0.062780954,-0.075150274,0.02105438,-0.04592531,-0.0308933,0.32021904,-0.21497871,-0.10368885,0.07356811,0.15607743,0.06405851,0.12396276,-0.11728412,-0.06068291,-0.0083939545,0.0103132585,-0.20164159,0.19717284,0.23415318,0.057831988,0.045581248,0.15703626,0.24916942,0.11640501,-0.016917745,0.0100938175,0.10222098,0.0033028186,0.123165645,0.2588574,-0.048946865,0.007203181,0.11437601,-0.13266543,-0.06313012,0.21529713,-0.1496607,0.1809821,-0.22761697,0.14259848,0.12720035,-0.18986475,0.04905216,0.026673518,0.28914237,-0.011758772,0.11676002,-0.13901395,0.08064262,0.19540566
/organization/organization/headquarters./location/mailing_address/country	0.06768139,-0.08794939,0.10388566,0.04808446,-0.18243013,0.03924844,0.15233934,-0.25917616,0.19240831,-0.02290601,0.25240403,-0.25780368,-0.14942881,0.029327374,0.02609485,0.01753255,0.09425616,0.011464511,0.025644094,0.13417831,-0.07245796,-0.1152583,-0.07723426,0.16412301,-0.19773135,-0.2558035,0.09035935,0.1617489,0.0029318284,-0.10778363,-0.074919924,0.29030284,-0.080191374,0.15749282,-0.2745582,-0.18019581,0.03051417,-0.050068244,0.10450292,0.060508523,0.12642233,-0.058223646,0.047955144,0.18281451,0.25286636,0.06934284,-0.06330541,-0.21161337,0.0182753,-0.08901867
/people/person/profession	0.15628907,-0.045507893,-0.15660349,0.0029868786,0.29541123,0.25391358,0.08035017,-0.12380951,0.02217745,-0.010816658,-0.16094673,-0.13073352,-0.1157368,-0.23093969,0.059437826,-0.20155369,-0.25580597,-0.18062803,-0.14394788,0.21970639,-0.04294344,0.17304194,-0.018870767,0.19046138,0.12546037,-0.018446289,0.018986033,-0.071205996,0.10135107,-0.014072352,-0.13747717,-0.00027181656,0.03813274,0.30354083,-0.15671645,-0.015399247,0.02491749,0.21611814,0.065224044,0.10427579,-0.06536744,0.06711909,-0.079765365,0.16405825,0.017930016,-0.020439371,-0.0289747,0.14755344,-0.16373993,-0.24611248
/film/film_job/films_with_this_crew_job./film/film_crew_gig/film	0.13562071,0.10126642,-0.060959514,0.014074221,-0.098054476,0.05800375,-0.13744809,-0.02846567,-0.054227106,-0.049953185,0.15632114,-0.12573533,-0.06815828,0.073371194,-0.2056908,0.13511682,0.102449976,0.0185302,-0.19066632,0.25358346,-0.24998038,0.08928468,-0.115936585,0.14842944,0.035018995,-0.09080445,-0.036413476,-0.18067744,0.20402916,-0.20980155,0.25287044,-0.1479749,0.09937349,-0.07483951,-0.07607265,-0.21235216,-0.07160395,-0.019320166,0.23578979,-0.17649578,0.11336445,-4.7290185e-05,0.015357892,-0.034550693,0.20227842,-0.1326438,0.28816137,0.11583749,0.038598523,0.21771666
/people/profession/people_with_this_profession	-0.038590554,-0.12439791,-0.047393084,-0.18300302,-0.123988554,0.1055868,-0.106622435,0.13171464,-0.16713944,0.033854976,0.11241715,-0.17929725,0.13051575,0.04712094,0.07668062,0.12818824,-0.25922576,-0.00995786,0.15999778,-0.113094315,0.07117169,0.25436714,-0.0019285976,0.19946384,-0.2449469,0.17287505,-0.019498043,-0.13469507,0.028204005,-0.13623974,-0.18801963,-0.111331604,-0.12382511,0.29203472,-0.06957976,0.04035938,0.06287751,0.10493302,-0.022842167,0.13135317,-0.057800803,-0.17851596,-0.1765921,-0.09483378,0.00051304593,-0.00081938494,-0.01653795,0.009077333,0.18897572,-0.36714107
/film/film_costumer_designer/costume_design_for_film	0.008758507,-0.02535251,-0.09007033,-0.30889207,0.14777452,0.19825444,-0.14188659,0.2935578,0.030544516,-0.13343254,-0.05815065,0.10812405,0.04330706,0.31006488,-0.073945,-0.05493558,0.051960863,0.15748525,0.12797159,-0.02539603,0.019249441,0.058463108,0.14134988,0.09300072,-0.1013607,-0.119132005,0.078391545,-0.06089841,-0.15981375,0.039300606,0.013838533,-0.06368543,0.022709424,0.07974648,-0.1644472,-0.046430327,-0.0076179765,-0.12874317,0.15510581,0.18292992,-0.03849057,-0.37284732,-0.086422205,0.083367415,0.041571636,-0.07264023,-0.332627,0.07003737,0.006545666,0.020595076
/location/statistical_region/religions./location/religion_percentage/religion	0.036720943,-0.12862298,0.037014782,0.10023107,0.16543981,-0.12163897,-0.09043962,-0.17224889,0.0016723434,-0.08952066,-0.013995237,-0.057480007,0.19610569,-0.08514542,-0.10103525,-0.11688578,-0.12437269,0.120913036,0.040953774,0.24580078,-0.06515989,0.028574694,-0.21646981,0.115346,-0.10410643,-0.11877926,-0.08087513,0.035937082,0.16491494,0.08279423,-0.15112841,0.25324526,-0.019153912,0.06513687,-0.07903369,0.28338003,-0.0075846463,0.06624318,0.06882688,0.07647549,-0.13812406,0.04174012,-0.04084395,0.3999518,-0.33988836,-0.1386571,-0.02791543,0.12244418,0.10685201,-0.13506022
/film/film_genre/films_in_this_genre	0.049926892,0.09604944,-0.05702143,-0.076083064,0.18934211,0.050469954,-0.0042685457,-0.05268618,-0.17854254,0.07931679,0.21234031,-0.09545418,0.09351242,0.10956328,0.13909,0.05549844,0.1562687,-0.15171203,0.021177702,0.18467921,0.1489577,-0.059051707,-0.07799188,-0.178727,-0.037012298,-0.075001776,0.23285167,-0.26261404,0.23777488,0.080781996,-0.3026353,0.03370575,-0.029762827,0.1416515,0.11531733,-0.017332567,0.11669811,0.04370658,-0.29104778,-0.13456716,0.1848827,-0.09573613,0.035273176,0.012705859,-0.21372563,-0.06576094,-0.11598111,0.18578637,0.14000724,0.2194183
/tv/tv_genre/programs	-0.06369216,0.081816435,0.03338376,0.028289093,-0.08720324,0.015863076,-0.26165572,0.046366762,-0.08740643,-0.32334524,-0.26828283,-0.020800222,0.032986857,0.18930945,0.041218787,0.26168606,0.122036576,0.03139429,-0.06018404,0.055254336,0.018746302,-0.11586481,0.15571572,0.11047877,-0.103769235,0.12948026,-0.18412524,-0.20095244,0.091579586,0.058125097,-0.06929218,0.121957146,-0.33711323,-0.00075942953,-0.15103915,-0.0037244859,0.2661131,0.0992338,-0.016514871,-0.031315897,-0.120266944,0.07623099,0.24756716,0.0045161974,-0.095235035,0.12876448,-0.1856859,-0.039601836,0.12478244,-0.13409187
/award/award_nominee/award_nominations./award/award_nomination/award	0.022662599,-0.2122473,0.1284179,-0.10083002,0.065487765,-0.13200629,0.06671426,-0.023934519,-0.10651694,0.13034068,0.16795762,-0.07818563,-0.1400841,0.20173037,0.03030432,0.38129908,0.13762562,-0.0005098843,-0.16561225,-0.17210393,0.010310695,-0.048796795,-0.09071243,0.3091971,0.017741315,0.05039866,0.06330737,-0.15095577,-0.1987157,0.020744914,0.034542397,-0.08301314,-0.1865667,0.06370987,-0.25369856,-0.09391248,0.0072362917,0.07546728,0.0427031,0.097605936,-0.1273638,-0.19337505,0.07936719,0.11600002,-0.019583164,-0.21103461,0.0304369,0.12433526,0.1954654,0.26432538
/music/genre/artists	0.12855105,-0.29715934,-0.006385328,0.10053522,-0.23756894,0.16224965,0.044137925,0.25289765,0.14253584,-0.0842593,0.08667655,0.10866192,0.13158841,-0.13044819,-0.17495884,0.20810412,-0.0029537696,-0.06499188,0.060856797,0.060285524,0.101572365,0.2382012,-0.03453988,0.19325183,-0.13579668,-0.08129654,-0.1369259,-0.060357507,0.13132842,0.13282889,0.100415014,-0.06984192,-0.052471817,-0.075462714,-0.075953454,-0.22172837,0.1820271,0.0040793526,0.15309398,-0.06456495,-0.23668686,0.044425596,0.14061606,-0.22157143,-0.25552005,-0.07698782,0.073058456,-0.1673234,-0.070704155,0.08011284
/influence/influence_node/influenced_by	-0.08122966,0.12208462,0.20349224,-0.07590834,-0.07760345,-0.20829657,0.28695738,0.014332893,0.28228486,-0.1518689,-0.04439882,-0.066152,-0.1185978,-0.18852894,0.18952785,0.0041884836,0.13721623,-0.1272592,0.0046229297,0.29456288,0.07201559,-0.23371167,-0.06497237,-0.20039025,-0.13542256,0.01016716,-0.06240712,-0.11289276,0.09733053,0.10788109,-0.18696372,0.030920925,-0.026940659,0.06161332,-0.033848442,0.009613891,-0.23208995,0.15026383,-0.13696606,-0.055055823,-0.07103695,-0.13932095,0.055120848,-0.010765574,-0.15493317,-0.0384601,-0.16720174,-0.09526917,0.27130792,-0.10154003
/education/educational_institution/students_graduates./education/education/student	0.022955742,0.021878377,-0.21520747,-0.2873549,0.20790258,0.2234473,0.07814429,0.10178708,-0.12491126,-0.11246804,0.15109904,0.027496208,-0.019970559,0.30785215,-0.11626357,0.18350185,-0.14562906,0.0009032233,-0.07762656,-0.18443616,0.0416292,-0.06659768,0.08071909,-0.2058867,-0.02770221,0.21489643,0.1507564,-0.17364573,-0.07613456,-0.07720745,-0.026283596,-0.06644192,-0.010112347,0.063442625,0.024931025,0.14607331,-0.1466006,-0.12802055,0.023237564,-0.030853702,-0.16398689,0.1969587,-0.4190286,0.11091587,0.04765207,0.00096913654,0.011347127,-0.08106877,0.055209547,0.04723327
/organization/organization_member/member_of./organization/organization_membership/organization	-0.037297416,-0.1092145,-0.10307308,0.13470004,-0.19408135,-0.12530094,-0.0042214124,0.0509895,-0.011347987,0.3539907,-0.011239479,0.058702823,0.23363245,0.012263518,0.03616459,-0.12862518,-0.14512637,-0.1290723,0.07181284,0.16649702,-0.08193471,-0.10403364,0.03987575,0.23775302,0.1858567,0.16283636,-0.060544007,0.14506458,0.022675328,-0.096158266,0.07792701,0.093687475,-0.1071755,0.035351444,-0.16963471,0.10403257,0.18005213,-0.15925992,0.11437217,-0.21160182,0.007933153,-0.38682762,0.11344573,-0.0525916,0.006346206,0.2345488,-0.067235515,0.069499426,-0.04548575,-0.14421736
/people/person/place_of_birth	0.18569763,-0.11114472,0.21514553,-0.11765094,-0.12791315,-0.065967545,0.057019945,0.030899605,0.3408506,-0.16192272,0.18535861,-0.094819665,-0.003305348,-0.11239944,0.0701028,-0.01246957,0.15590483,-0.095209494,-0.08243208,0.23282714,0.13337374,0.14640264,-0.121752895,0.017178029,0.063323766,-0.016660143,0.032382686,-0.01153642,-0.08307664,-0.09301369,0.23646845,0.06135298,-0.15943311,0.27057606,-0.11202447,-0.12510577,0.098205626,0.06729445,-0.32153243,0.096356295,-0.09435453,-0.02767419,0.04476834,0.0071802964,0.07654326,0.049109038,0.1186969,0.27251115,0.26509237,0.033884726
/common/topic/webpage./common/webpage/category	0.030122276,-0.15677537,-0.008294891,0.23319693,0.23245628,0.013048383,-0.2285375,-0.22800727,-0.040851086,0.004617708,0.12236779,0.082383856,0.05384118,0.28478885,-0.16157034,-0.17956103,0.2086082,-0.15405147,-0.018494928,-0.27830628,-0.06271143,-0.1433471,0.053743865,-0.26287055,0.17704202,-0.16359332,0.04232779,-0.07992457,0.0136373695,-0.06746198,0.15620565,-0.11251248,0.16337745,0.014353645,-0.036167998,-0.08863269,-0.27400637,0.113394074,0.05743479,0.10916687,-0.0015590788,-0.13929686,0.008797705,0.06949225,0.07642777,0.103700615,-0.11492794,-0.036817577,-0.12291504,0.19133922
/media_common/netflix_title/netflix_genres	0.13369897,-0.023689417,0.085910596,0.15789916,0.14713342,0.00045648788,-0.06526833,0.27783006,0.17787944,-0.048075557,0.3176866,0.03339509,-0.19596197,0.012120824,-0.21074796,0.13048302,0.14243211,0.079568006,0.01237004,-0.1911749,-0.20985974,-0.030937184,-0.24197781,-0.086744316,-0.04707951,0.15524288,-0.1621781,-0.056142844,-0.112122074,0.11357152,-0.21883085,-0.13561316,-0.07376336,0.17694895,-0.19668652,0.094837,0.21696864,0.1612003,-0.07989752,-0.108848765,0.110584475,-0.07509541,-0.161495,-0.1296757,-0.042565677,-0.1485557,-0.12715434,-0.08922571,-0.015816256,-0.059267055
/sports/sports_position/players./american_football/football_historical_roster_position/team	0.011522665,0.25443247,0.16654357,0.16097842,0.060236372,0.06633871,0.01764576,0.08625371,0.0619674,0.07185615,-0.067757346,-0.119841136,-0.19920115,0.017932093,0.03816665,0.22152224,-0.105325274,-0.027789207,-0.17827041,0.0034606636,0.24554014,0.18023477,-0.07190129,0.106364645,-0.14140977,-0.083085224,0.24383266,-0.22460899,0.116292685,0.13560891,-0.11704598,-0.2185604,-0.03732856,0.21377523,-0.054026853,-0.2860408,-0.05782102,-0.044808798,0.108681686,0.044454247,-0.077589184,0.05077328,-0.015449731,-0.10402196,-0.02341349,0.13114744,0.14808515,-0.17751539,0.26254925,0.06798897
/film/film/other_crew./film/film_crew_gig/film_crew_role	-0.1638609,0.07368105,-0.09313488,0.05683155,-0.08090172,0.2885528,-0.22769499,0.059948105,-0.18999334,0.23727885,0.11071515,-0.10374465,0.20878896,-0.2559937,-0.068156004,0.18253656,0.13996713,-0.09428799,0.013839088,0.17062958,-0.29341528,-0.09373336,0.01334071,0.022212515,-0.047542915,0.23185085,-0.09707896,-0.025850426,0.022415003,0.011921466,0.053953644,-0.06360623,-0.12388385,-0.077827826,-0.14267257,0.051225368,-0.16892254,0.13581464,0.23857458,0.0440861,0.0835573,0.0565005,0.036328536,-0.12269735,0.0012448215,0.13446967,-0.048897814,0.32045907,0.019028457,0.09899256
/award/award_ceremony/awards_presented./award/award_honor/award_winner	-0.29649183,0.22710358,-0.16610922,0.16905706,-0.03880539,-0.12018599,-0.0675898,-0.1381274,0.106642835,-0.042765364,0.050611425,-0.070040464,0.10851391,0.15009667,0.0015835307,0.06340097,-0.058633525,-0.13538,0.061821457,-0.2266952,0.2085677,0.2948354,-0.030875796,-0.14801726,-0.06737785,0.279589,-0.056738228,-0.124790594,0.005542444,-0.062847294,0.17759158,-0.094457656,-0.05449154,0.16580763,-0.22048575,0.042085253,0.0503208,-0.04929344,0.3096384,-0.05937269,-0.10219937,0.043086022,-0.037071656,0.23252821,-0.11848228,-0.017706895,0.001161591,0.09626072,0.15264513,0.1052104
/film/film/country	-0.054872043,-0.19060436,-0.25716218,-0.0819612,0.13593535,-0.14221592,0.053711135,0.002539352,0.03000936,0.09480418,0.0886231,0.17115107,-0.08718505,0.16874343,-0.13609004,0.11655985,0.2511786,0.02227801,0.051745757,0.028326,0.37386584,-0.051845267,0.14147446,0.06628012,0.3234899,0.18982549,0.08283471,0.08170237,0.01643831,-0.075124204,-0.025559934,0.038643144,-0.10022256,0.117456615,-0.04127364,0.026571942,0.027250126,0.173788,-0.3052856,0.16254005,0.20065314,-0.037011236,0.043310966,-0.084451415,0.015379733,0.018805128,0.29694158,-0.050193388,0.1264031,-0.0094965715
/olympics/olympic_sport/athletes./olympics/olympic_athlete_affiliation/country	0.008269987,0.11819341,0.0792658,0.042106394,0.08997376,-0.0331451,0.34079129,-0.066412106,-0.13400173,0.044263165,0.113546245,0.051979575,0.10328847,-0.07249797,0.00813576,0.0065496075,-0.0024980728,0.3314579,-0.011845666,-0.009706006,-0.0041325474,-0.1707055,-0.11476744,0.0037587155,0.16746706,-0.052786876,0.22900607,0.07865358,0.07263251,0.20175576,-0.11382416,0.06604093,0.14356878,0.15706113,0.014864357,0.07672646,-0.028778378,-0.049529392,-0.07875498,-0.3418457,-0.061217353,-0.23475973,-0.075523585,-0.19389614,-0.10173606,0.20905648,0.101009,-0.22376652,0.20781438,-0.029780012
/award/award_winning_work/awards_won./award/award_honor/award	0.110046074,-0.11118059,-0.24288914,-0.043754216,0.23042922,0.21885733,0.028426856,0.17107031,-0.3163669,0.16001125,-0.014371704,0.12939103,-0.0988183,-0.17288332,0.11118775,-0.16836473,-0.15023535,0.10542393,-0.013550562,0.21886651,-0.2600041,0.06578127,0.12256878,0.069536425,0.093283236,-0.14324203,0.028840244,0.20488839,-0.07307401,0.085467584,0.15495713,-0.014454411,0.15833893,0.026719213,-0.025284939,0.20342456,0.11755616,-0.016443817,-0.13988979,0.20577493,-0.059494816,-0.020333998,-0.058350373,0.018476527,0.07970083,-0.017723197,0.013381579,-0.09704083,-0.11671571,-0.28049636
/base/schemastaging/tv_actor_extra/regular_dubbing_performances./base/schemastaging/tv_star_dubbing_performance/program	-0.1365332,0.077670775,0.015704058,-0.24301094,0.0824969,-0.13093062,-0.23033974,-0.043156385,-0.03669353,0.026175253,-0.17899583,-0.12977427,-0.09539685,-0.15531498,0.12790503,0.17037684,0.14966832,0.13324498,0.22730961,-0.16381712,0.047588665,-0.025785228,-0.023600824,0.063384116,-0.07012459,-0.23458329,0.23645379,0.12105889,-0.23556861,-0.23799278,-0.023105687,-0.20788765,-0.00876305,0.04833984,-0.11685133,-0.16446972,-0.077353515,-0.043814253,0.12855177,-0.0655046,-0.005349803,0.1871909,0.11006398,-0.18220372,-0.025850626,-0.2971926,-0.099121146,-0.17616616,-0.024051663,0.11146068
/film/film/genre	-0.08165541,0.04925398,0.023639295,0.054425556,-0.12639531,0.10510766,0.059239626,0.17299873,-0.21747217,-0.2346535,-0.33911255,0.20269564,0.019569315,-0.073351085,0.011746411,-0.033968993,-0.24827129,-0.033793297,-0.1030703,0.049162656,-0.069260076,-0.14379339,0.19813314,0.027494308,-0.10537511,-0.21335301,-0.1786265,0.06210343,0.08067023,0.04443468,-0.15193479,0.13365117,0.12610732,0.16552086,0.1346657,-0.024605187,0.17807406,-0.0059353644,-0.19997458,0.042133447,-0.16572878,-0.04144153,-0.053875424,-0.19101325,0.14605275,0.12377179,0.24192898,0.08255686,-0.18674366,0.19358747
/award/award_nominated_work/award_nominations./award/award_nomination/award_nominee	-0.19549757,0.20026465,-0.23046751,-0.02512351,0.064256914,0.064699195,-0.13422652,0.065316774,0.18919435,0.10256069,-0.009602724,-0.11172457,0.06653357,0.11208395,0.030987166,-0.006390144,0.14195745,0.257358,0.07219112,0.018301237,-0.31405237,-0.06987328,0.07540182,-0.13056466,-0.29051536,-0.10354667,-0.030765045,-0.07348914,-0.04834779,-0.06134599,-0.118128605,0.014864536,-0.082353085,-0.038845852,-0.045271005,0.094834946,-0.22614664,-0.07448393,0.058363877,-0.042979304,0.025832126,0.19433193,-0.022066936,0.36072287,0.01964362,0.012956141,0.17375067,0.36464882,0.02136034,0.07778861
/film/film_distributor/films_distributed./film/film_film_distributor_relationship/film	-0.31583995,-0.16272154,-0.025494976,-0.16829097,-0.07780723,-0.070525676,-0.022167033,-0.1887711,-0.0112278825,-0.2139661,-0.05727551,-0.05067978,0.08008247,0.068042636,0.060739644,0.111868605,0.0005069619,0.15194729,0.05999627,-0.054517984,-0.0037635243,-0.25552124,0.06850823,0.15196896,-0.011661606,-0.22450818,-0.18715923,0.32218492,-0.012563788,-0.216479,-0.3116179,0.17331634,0.19976605,-0.0334684,0.20598069,-0.12055157,0.034899145,0.031544518,-0.033489224,-0.060484435,-0.11041551,0.12204804,-0.17011954,0.13551895,0.08489498,0.072984435,0.1837367,0.057623945,0.029587395,-0.013785654
/location/statistical_region/rent50_2./measurement_unit/dated_money_value/currency	-0.19375536,0.054497775,-0.02399012,0.11492433,-0.03189055,-0.16126925,-0.095493406,-0.025385972,0.0076684086,-0.2854095,0.120894745,0.23615624,0.079492554,-0.17141742,-0.13729836,0.082166314,0.080833554,0.02115919,0.0141199,-0.15196323,0.19749886,0.07003425,-0.27661157,-0.20302871,-0.022080502,-0.11785253,0.07221975,-0.15957744,0.05039992,0.15203609,-0.14586765,-0.064542726,0.3346439,0.096084595,-0.2055798,0.11382548,-0.05718422,-0.20199716,0.025817484,-0.13924527,-0.01344855,0.031383917,0.11883998,0.19095165,-0.038175285,-0.15151753,-0.17631824,-0.081195965,0.20419283,0.10736666
/film/film/estimated_budget./measurement_unit/dated_money_value/currency	0.21747005,0.14845005,0.029693982,-0.03196739,-0.13472998,0.048979618,0.16995393,0.22456434,0.068899244,-0.19782294,-0.04465835,0.12551323,-0.09639872,0.08197986,0.07919119,0.112388656,-0.049217813,0.009893101,-0.068399355,-0.2475152,-0.21799697,-0.0940699,-0.28671655,-0.040152255,-0.14457433,-0.13757868,0.17205071,-0.13686271,0.018378804,-0.10870555,-0.07298277,0.22819306,0.027448943,0.050810523,0.21606424,-0.14624692,-0.22336447,-0.12658037,0.09842455,-0.13234311,-0.20427997,0.013244447,0.02320584,0.18613125,-0.09601681,-0.07980272,-0.13052373,0.12671138,0.26328534,-0.078792654
/location/administrative_division/second_level_division_of	-0.076324716,0.03487111,-0.0411817,0.09374663,0.031355344,-0.1752589,0.041787554,0.076845564,-0.08090261,-0.034754165,0.008391656,-0.1752879,-0.011802309,0.31579137,0.013981288,0.12107826,0.04975897,-0.18324262,-0.4227964,-0.058694232,-0.24891463,-0.07660362,0.0050714486,-0.01244424,-0.020952085,-0.014020987,-0.12843181,-0.20928794,-0.2500488,-0.10436812,0.1459367,0.35932514,0.07036633,0.17417426,0.032555014,0.07041598,0.06059557,-0.22506186,-0.13290624,0.115752175,0.10400468,0.018800743,-0.09025775,0.0034284187,-0.1572917,0.08302381,0.06174933,-0.05546813,-0.13353026,-0.1282812
/government/legislative_session/members./government/government_position_held/district_represented	0.047163937,-0.1388257,-0.12200349,-0.21842562,-0.0027582445,0.13936046,-0.059772883,0.03503469,-0.1605587,-0.033838604,0.077973306,0.03684198,0.106462896,0.35933387,0.08777546,-0.20908168,0.10156432,0.10860626,-0.08315441,-0.15198657,-0.0782249,0.05392684,0.20182061,-0.03702707,0.014159012,-0.02062488,-0.2654979,0.032505788,-0.13029961,-0.08477113,-0.01676415,0.046365328,0.020354068,0.023810461,0.09734977,-0.047565255,0.023022655,-0.094712876,0.04580458,-0.06471652,-0.14682475,0.12757675,-0.123652875,-0.21126258,-0.24292564,0.28628358,0.11736666,0.28495,-0.09892614,-0.100373775
/sports/sports_team/roster./american_football/football_historical_roster_position/position_s	0.29273745,0.15381055,-0.016134758,-0.15217018,0.09732628,-0.14607777,-0.12821186,-0.22121623,0.08677038,0.052015003,-0.083025075,-0.17008924,0.10866957,-0.25372523,0.01021052,-0.03475945,-0.030285075,0.03316423,0.32488996,-0.06575852,0.072427906,0.20193179,-0.007830685,-0.2860731,0.048269436,0.15732612,0.101786636,0.2761197,0.025138766,0.0459364,-0.12453961,-0.028772065,0.1483531,-0.06683983,-0.093525015,-0.22749843,-0.102851816,0.0061922115,0.015256198,0.18596911,0.031221453,0.013407235,-0.08778347,-0.028210653,-0.03896228,0.20285818,0.16678162,0.031117288,-0.16662045,0.18336533
/government/government_office_category/officeholders./government/government_position_held/jurisdiction_of_office	-0.18253884,0.028703269,0.06848974,0.045282748,-0.18587042,0.068962425,0.1253628,-0.026312895,0.16731107,-0.20858984,-0.0378576,-0.026099592,-0.25697488,-0.21317661,-0.19203612,0.13284327,-0.027775984,0.2581972,0.0024716298,-0.22081873,-0.16769868,-0.20200355,0.12228407,-0.07446966,-0.00094552507,-0.18362008,-0.038543504,-0.3078153,0.19391957,-0.0924019,-0.05358328,0.08042325,0.076600924,-0.15368603,-0.30421627,0.1193395,0.05086043,-0.034239728,0.06366702,0.036847506,-0.13893951,-0.024583131,-0.053135302,-0.12248874,0.2013641,-0.18157478,0.10451835,0.00020673311,0.065821014,-0.027521655
/award/award_nominee/award_nominations./award/award_nomination/nominated_for	0.15860373,-0.17125382,0.20430388,-0.04383082,-0.2666864,0.08437867,0.240824,-0.104953766,-0.042156547,-0.10121303,0.027376538,0.23942468,0.017511833,-0.22388536,-0.14308462,-0.09230092,-0.114091896,-0.27169892,-0.040843796,-0.111362584,0.18004787,0.06752345,-0.04256577,0.12122343,0.16366836,0.16391557,0.15425324,0.070237756,0.16024776,0.053767063,0.096602626,0.03176971,0.090040386,-0.010344149,-0.012429128,-0.12899128,0.123492114,-0.013156908,-0.064296395,0.10823917,-0.045357518,-0.32107592,0.11828462,-0.29291245,-0.023780558,-0.029454917,-0.044549573,-0.22571847,-0.113803476,0.030810045
/people/deceased_person/place_of_death	-0.038139958,-0.21833634,0.06288483,-0.12914273,0.14598729,0.17392063,-0.040705528,-0.05276377,-0.15188207,0.19386816,-0.08581863,0.12826443,-0.07515796,-0.29315096,-0.08727267,0.11173718,0.13780664,0.22358319,0.18914747,-0.16796337,0.07080269,0.29228762,-0.16441119,0.08187396,-0.022281507,0.057971273,0.113988094,0.01669334,0.013087334,0.014085289,0.19820362,0.105684906,-0.14825778,-0.091830835,-0.014927096,-0.16699348,-0.010490087,0.10870729,0.015387262,-0.13414925,0.054317474,-0.14979307,-0.025171427,-0.3413812,0.07479102,0.27241728,0.0734898,-0.11412721,-0.11640422,0.06262007
/music/group_member/instruments_played	-0.082745746,-0.27722207,-0.030128293,-0.16039918,0.054563504,0.046555836,-0.09317447,0.2653543,0.13187772,0.13064905,-0.025020147,0.052344624,0.21232757,0.191617,0.10755495,0.15065393,-0.014299189,-0.11481791,0.024141131,-0.08028303,0.120041676,-0.07296534,0.1559113,-0.107257545,0.06500627,0.05863032,-0.10916789,0.09658266,-0.021636443,0.06076086,0.28635913,0.00904844,0.16710809,0.09175903,0.0748402,-0.045368776,0.04541653,0.13908799,0.07549467,-0.19908993,0.15938228,0.14014286,-0.34976688,0.20225964,0.0001634171,0.03804978,0.085426636,-0.010022899,-0.10480706,-0.34688497
/film/production_company/films	0.020340288,0.06629261,-0.25324667,0.05125877,-0.06614301,-0.0075541884,-0.0050366633,0.009792359,0.07918089,0.25506935,-0.24662772,0.055219475,-0.014276472,-0.020826854,-0.07026522,-0.018474258,-0.0030204179,0.07774756,-0.08219089,-0.2644139,0.025456319,0.0078870375,-0.18174528,0.14172795,-0.051775888,0.32303756,-0.27050802,-0.05504816,-0.22915412,0.3302045,-0.2213768,0.049451124,0.12310044,0.30094117,-0.16844893,-0.09657806,0.048113424,0.0187121,0.12366555,0.085417226,0.064072765,-0.036505893,-0.116814755,-0.04067288,-0.08401842,-0.05391522,-0.17004785,-0.025931643,0.072105914,0.12491134
/sports/pro_athlete/teams./sports/sports_team_roster/team	0.11067264,-0.16654138,-0.09126618,-0.37133348,0.08689606,0.023255082,-0.1950402,-0.12154018,-0.006199714,-0.26510954,-0.12414521,-0.028045382,0.31731766,-0.13603522,0.0465405,-0.018066157,-0.16763337,0.00848572,0.12933876,-0.104571715,-0.01836185,-0.0039645853,-0.022299115,0.02426288,0.060341366,0.17373689,0.088038795,-0.14499164,0.18853892,-0.08545239,-0.068186685,0.16971797,0.0004918986,-0.123117544,-0.06749034,-0.0061281105,0.1294085,0.16374433,-0.21098377,-0.1829668,-0.028569289,-0.13512494,0.008564054,-0.056233447,0.061218806,0.25433087,-0.019723795,-0.19427773,-0.09799457,-0.13373543
/base/schemastaging/athlete_extra/salary./base/schemastaging/athlete_salary/team	0.06067386,-0.13144132,-0.05717993,0.21014181,-0.029910292,-0.06413139,-0.09767881,0.08511887,0.114127316,0.11403753,-0.19649547,0.1983755,0.07711794,0.061602335,-0.09146153,0.09672751,0.03405909,0.22042374,0.0399599,-0.017370153,0.02574735,-0.18919064,0.08615664,0.013809781,-0.29203123,0.18416004,0.17919406,0.16929878,-0.042218022,-0.1180309,0.12881033,-0.018089619,-0.063273296,-0.055385947,-0.030232223,-0.08787451,-0.16400695,0.26111126,-0.08885034,-0.057244327,0.039061118,-0.12276599,0.08898245,0.10477726,0.21556465,0.28651276,0.053572938,0.13940361,0.14261042,-0.33694693
/music/artist/track_contributions./music/track_contribution/role	0.010437908,-0.08851364,-0.0078083533,0.33025604,-0.07319938,0.039103623,-0.030197104,-0.16338433,-0.13697125,0.2682182,-0.22025506,-0.06605295,-0.14957015,-0.005577639,-0.23052393,-0.13341837,0.034791034,0.031120034,0.112141825,-0.05552849,-0.15694094,-0.034401275,0.068348885,0.3702783,0.080055185,0.1842129,-0.13531888,0.1583035,-0.0010091633,0.092246436,0.021297712,0.24072045,0.1342542,0.1117557,0.23568907,-0.09661631,-0.04648985,0.020573905,-0.1754802,-0.04295298,0.22056179,-0.09546795,-0.005838799,-0.084312476,-0.005214091,-0.058132287,0.20233262,0.041175224,-0.10469592,0.14212078
/organization/organization/acquired_by./business/acquisition/acquiring_company	-0.08507257,-0.14514108,-0.030064318,0.12953813,-0.15733132,-0.20110019,-0.05401252,0.08713787,0.094818555,-0.057830863,0.077486105,0.19183719,0.04400344,-0.04022443,-0.13887581,0.09560795,0.08159561,-0.19190359,-0.034635127,-0.20071279,-0.07357021,0.1550683,-0.20731197,-0.22222652,-0.04429338,-0.057536658,0.2938604,0.30322462,0.14619635,0.14668192,-0.2166853,-0.077575386,0.1390124,-0.0367606,-0.18540847,0.044028863,-0.19228701,-0.067851245,0.183215,0.10150303,0.03988849,-0.12639603,0.21596034,-0.08121138,0.054201454,-0.06442596,0.068527766,0.077417165,0.014805768,0.24654901
/music/instrument/instrumentalists	-0.052211955,-0.100413695,-0.10941673,0.19734386,-0.17001176,-0.31554392,0.14110008,-0.2721843,0.05710796,-0.06810338,-0.10775866,-0.1116978,-0.2456194,0.017263047,0.23722175,-0.065806456,-0.17384788,0.24972838,-0.10923971,0.12279262,-0.16208257,-0.09990668,-0.0985825,0.15570083,0.13518116,-0.0062900777,0.018335352,-0.03353938,0.009346862,0.11934084,-0.049699813,0.051526748,0.06389403,-0.15781364,-0.21993464,0.091023885,-0.25547037,-0.03437853,-0.06304927,-0.046151422,-0.07993969,0.13884148,0.18146804,-0.22425266,0.04703284,0.08116474,0.14663783,0.12859371,-0.1134747,-0.06891879
/military/military_combatant/military_conflicts./military/military_combatant_group/conflict	-0.04120538,-0.15711284,0.115602836,0.045363795,0.082368694,-0.19140346,-0.18390092,0.14154175,-0.11545759,0.06673836,0.19894415,-0.17802474,0.04766728,0.06547372,-0.0008553969,0.11805166,-0.30096912,-0.057754777,-0.07522333,0.22283533,-0.09460586,0.19860008,0.11128856,0.08042245,0.012251678,0.12227372,0.17507128,0.17136855,0.110002935,0.13537817,-0.03548197,-0.05879646,-0.12391989,0.065012716,-0.100049995,0.14740108,-0.12621793,-0.22794275,-4.7050024e-05,-0.020791562,-0.0021700023,-0.028433459,-0.064444914,0.17642306,-0.13451698,0.2038584,0.0068976204,0.08246297,-0.34328184,-0.0056115477
/people/person/education./education/education/institution	0.10849126,-0.071811765,0.008776295,0.32599357,-0.29714182,-0.06704952,-0.08226905,0.01762757,0.10143011,0.049237106,-0.010567692,0.051736984,0.07404203,-0.078944564,0.089700766,-0.14457056,0.21198577,-0.013335766,0.20484573,0.1083658,-0.021584217,0.11424532,-0.16804379,0.1437644,0.07226244,0.15069206,-0.08953627,0.123643234,0.05414371,-0.1877018,-0.13149863,0.21190183,0.06688002,-0.20795344,-0.15024228,-0.1380949,0.02894212,0.028608775,0.0310391,-0.105527446,0.11370593,-0.26763937,0.39395866,-0.014729439,-0.0007856713,-0.14411834,-0.055809263,0.17784609,0.038875427,-0.0863951
/award/award_category/winners./award/award_honor/honored_for	-0.18993135,0.09798168,0.07285321,0.035384387,-0.0217018,-0.16011778,-0.13035128,0.13603972,0.21468048,-0.10502847,0.111037545,-0.10532691,-0.116556026,0.12660688,-0.13430871,0.17332268,0.045793906,-0.15140472,0.04261298,-0.27123785,0.20039582,0.094369195,-0.06968675,-0.11312783,-0.045996062,0.39865866,0.03238374,-0.311216,-0.115076125,0.002911054,-0.043599986,0.07016993,-0.13227049,-0.0030744812,-0.0146801965,0.015245723,0.07465797,-0.053933866,0.017900428,-0.11180909,0.024113864,0.2711633,0.009045108,-0.052849114,0.00806842,-0.05102156,0.00027666832,-0.24100403,-0.1923387,0.26039213
/people/person/gender	0.1601381,-0.050055794,0.034650724,-0.21493167,-0.02810272,0.031964064,-0.15202875,0.08450351,-0.1670467,0.057305742,0.16244622,-0.089036666,0.14259273,-0.18907875,0.16363858,-0.092948735,0.13208194,0.09482476,0.097881354,-0.23359548,0.015653178,0.11056757,0.15174042,-0.04286432,-0.1386364,0.07812629,-0.16014685,-0.08565349,0.15696472,0.26699704,0.14200865,-0.07439032,-0.10849,-0.096472204,-0.38306507,0.16353647,-0.17992452,-0.2506786,-0.13677086,-0.16978654,-0.07400122,0.19742589,-0.055822607,-0.031010453,-0.057093248,0.07691224,0.009701737,-0.1057552,0.10328955,-0.10312019
/business/job_title/people_with_this_title./business/employment_tenure/company	-0.03097004,-0.28870353,-0.23000579,0.22336896,0.076573364,-0.05580395,-0.09305486,0.058697984,-0.09509081,-0.075907804,0.013525479,-0.050050683,-0.0677178,0.09517407,0.032685746,-0.16690084,-0.20373087,-0.013806386,-0.09051501,-0.012934423,-0.1426717,0.010135601,-0.061952583,0.138821,0.19037294,0.15823378,-0.14360751,0.014258691,-0.1955111,0.001700133,0.116045564,0.15895313,-0.2119919,0.33911982,0.11669256,0.09631703,0.13656034,0.0019491399,0.11095281,-0.20475282,0.14281845,-0.085065775,0.14415152,-0.016742028,0.015005988,0.21002835,0.24360313,0.168895,0.11832227,0.16884911
/base/popstra/celebrity/friendship./base/popstra/friendship/participant	-0.113175765,-0.0029247557,0.0008202349,0.0660821,0.10549108,0.106188044,-0.088614374,0.05318951,-0.17192532,0.09150454,-0.06563566,-0.027465979,0.015415428,-0.06986949,-0.08661694,-0.1257854,0.07501598,0.07072615,-0.0730507,0.047753453,0.048466727,0.024852278,0.3049209,0.08408942,-0.080152065,0.18342946,-0.107967936,-0.22393766,-0.06944076,0.1032539,-0.28752172,0.110851765,0.014233007,-0.056717552,-0.026157718,-0.18530238,0.118797705,0.03827595,0.17612256,0.06815558,0.01720878,-0.27848852,-0.06324415,0.031572536,0.0071261507,-0.111085206,0.02955154,0.08330772,0.33095008,-0.23891132
/fictional_universe/fictional_character/occupation	0.0754042,0.322619,-0.13277733,0.034889676,-0.0056766435,-0.052004654,0.10148701,0.15327151,-0.010141106,0.007108249,0.002806781,0.20918782,-0.3625298,-0.10297737,0.16747962,-0.070613414,0.26105964,-0.14424679,-0.1302988,0.26854095,0.1436375,0.060720727,0.09454969,-0.03753578,0.13386434,0.1311769,-0.025816143,0.07618583,0.030149821,0.17520827,-0.113781475,-0.2116534,0.10951999,0.21767731,0.09455102,0.15126777,0.105979145,-0.12534861,-0.038950145,-0.041743454,0.023782453,0.16980663,0.25890934,0.068644956,-0.05307903,0.13125698,-0.021035258,0.08919078,0.03330372,0.14176807
/education/field_of_study/students_majoring./education/education/institution	0.30638048,-0.025990058,-0.04098342,-0.07756809,0.006708802,0.17535606,0.042702515,0.17573138,-0.045132224,-0.3056038,-0.09153907,0.08495795,0.095517814,0.024231527,-0.038449004,0.06457109,-0.0555332,-0.069816075,-0.06951474,0.04122774,0.11860629,-0.13999625,-0.10688352,-0.09211067,-0.17614117,0.22275458,0.18310073,-0.06760877,0.098819986,-0.048553497,0.25401103,-0.08228642,0.08140316,-0.13866332,0.06014773,0.316091,-0.06921331,-0.0956798,0.069614306,0.21835434,0.1615889,0.13337062,-0.07768059,0.3100419,0.04331624,0.06906571,0.09846921,0.20509127,0.049692187,-0.18671562
/business/business_operation/industry	0.12845765,-0.2732133,-0.09065878,0.037042707,0.06193737,-0.118700236,-0.09455196,-0.07900505,0.061292097,-0.11932011,0.19574271,0.07839959,0.004890156,-0.073767744,-0.0024814715,-0.022005191,0.04914338,0.1798246,0.17463008,0.26070502,-0.28791773,0.10577004,-0.017141676,0.11637917,-0.20263724,0.20835161,-0.046150085,0.21731733,-0.2549874,-0.18403594,0.12861094,0.07379375,0.040778693,-0.074400686,0.13471672,0.05587036,0.11743115,0.0744709,-0.07407136,-0.025545018,-0.07568815,0.15228121,-0.16633748,0.29770657,0.052835703,0.2553554,0.10837782,0.1294794,-0.0026027893,0.07891767
/award/award_category/winners./award/award_honor/award_winner	-0.15856808,0.10554504,0.08139127,-0.20172006,0.21260741,-0.079659104,-0.031553518,-0.026021317,0.13516968,-0.103369296,-0.13408491,0.08530298,-0.05715863,-0.074150324,-0.18437746,0.08563401,0.13778555,-0.022886824,-0.1682907,-0.011056512,0.112399444,0.13548452,-0.2152566,0.0062832613,0.11555165,0.19471972,-0.0955447,-0.20928858,0.14727134,-0.07425253,0.26212683,0.09995382,0.06459706,-0.19849117,0.015113503,-0.0126530435,0.26681828,0.0506693,-0.0065976484,0.19940235,-0.08288571,0.08652022,0.23354757,-0.02343275,-0.17746349,0.08447392,-0.016061023,-0.00065812527,-0.027284527,0.39611018
/award/award_winner/awards_won./award/award_honor/ceremony	0.2559318,-0.23473878,0.025719227,-0.20789815,0.34441334,0.21073563,-0.061976712,0.09358434,0.056661557,0.05293672,0.06983542,0.11784738,-0.1901935,-0.17401631,-0.13990277,-0.015422746,0.09360633,0.07777418,-0.10532908,0.026364386,-0.021925775,-0.321522,0.015222097,0.06491673,0.02244878,-0.012277468,0.12635475,0.1314482,-0.017386476,0.085968256,0.006585302,0.26522595,0.06592062,-0.12428942,0.09372538,-0.1921723,-0.11872355,-0.0485319,-0.22483382,0.065979816,0.14209577,-0.049046747,0.13963561,-0.04134675,0.19386166,-0.06604038,-0.08669907,-0.101636365,-0.09685032,-0.22466932
/location/hud_foreclosure_area/hhuniv./measurement_unit/dated_integer/source	-0.24146368,-0.024611123,0.15437381,-0.0002971491,0.15743655,0.11947649,-0.001290603,-0.16958514,0.27161178,-0.0022240342,-0.04189714,-0.017010849,-0.19976707,-0.010063217,0.008091713,0.42579794,-0.04551781,-0.14639252,-0.15327203,0.043026764,0.16463922,-0.06130958,-0.013343161,0.06340842,-0.24609695,-0.21960373,-0.15328097,0.23330247,-0.101837404,-0.0747459,0.0556097,0.17155695,0.11142212,-0.22242859,0.0032359934,-0.04355141,-0.083035305,-0.0082077375,0.13988344,0.055770982,0.009084165,0.0026276854,0.16577634,-0.023365153,0.12407237,-0.071522355,-0.14443496,0.043636557,-0.173217,-0.120370224
/location/us_county/hud_county_place	-0.15088835,0.08442861,-0.043242756,0.06328537,-0.1180596,0.04589319,-0.0069167186,0.06620215,-0.16413084,-0.1865099,-0.12643449,0.003563026,0.079702005,0.2322929,-0.24413475,-0.23647049,-0.011885879,0.16308583,0.23733035,-0.116009034,-0.1969497,-0.17134625,-0.18391065,0.03267722,0.18347166,0.12320745,0.02923059,-0.25780272,0.015910424,0.07508312,-0.007363436,0.21046518,-0.20949374,-0.11057566,-0.16567828,-0.059364952,0.09968208,0.095955685,-0.03843975,0.19259675,-0.28548774,-0.10506498,0.057262156,-0.121747926,-0.0022323674,-0.06730016,-0.017805161,-0.1539469,0.18901958,-0.06717407
/location/statistical_region/gni_in_ppp_dollars./measurement_unit/dated_money_value/currency	-0.026849847,-0.035539523,-0.022029182,0.23089093,0.14017695,0.09635632,0.1616531,0.112942785,0.04156425,-0.06951559,-0.007360894,-0.18297477,0.13529316,0.03366883,0.44872543,-0.066566,0.026562877,0.058184836,0.036934193,0.22862518,0.19140361,-0.076428644,-0.040846903,-0.0026497627,0.23621011,-0.1452654,-0.088894494,0.06501892,-0.197904,-0.14598843,0.19663794,-0.15504225,-0.11080819,-0.02999553,-0.19660993,0.11139991,0.07004308,0.06182267,-0.04151437,0.06402056,-0.061836265,0.041795384,-0.23357181,-0.008546489,-0.16876903,-0.02991872,-0.0039678453,-0.3261169,0.0718794,0.13071989
/people/person/nationality	-0.15082896,-0.0030650867,0.07368397,-0.08697963,-0.032803413,0.12251112,-0.14223833,-0.29689,0.20435464,-0.055298764,-0.020642584,0.16739802,0.28581616,-0.14366634,-0.15698722,0.05752625,0.18259837,0.06573346,0.1891469,0.09885096,0.16097559,0.110857956,-0.18968128,0.14061765,-0.11068566,-0.020765183,0.14153452,-0.04624241,0.12752163,0.041659806,-0.24506679,-0.102512866,-0.06804199,-0.1486826,0.010157159,0.14796752,-0.100788824,0.117106706,-0.17761828,0.074040584,0.07682908,-0.14069517,0.18526773,-0.019015979,0.01793036,0.18581107,-0.008462448,-0.18596958,0.26907325,0.15455392
/sports/sports_team/roster./baseball/baseball_roster_position/position	0.09522985,0.29534817,-0.110371806,0.040860888,-0.0018675134,-0.18684338,-0.14389707,0.22692543,0.022966236,-0.16022141,0.063993804,-0.018368272,0.08269485,-0.13296975,0.28034493,-0.25052267,0.10259994,-0.0683466,-0.1385174,-0.12609364,0.045290615,0.06364666,0.036001433,0.0070256186,0.21773249,0.11060876,0.031737637,-0.15343961,-0.02939606,-0.12439832,0.05027923,-0.21783714,-0.23672013,0.27623054,0.02543872,-0.20981263,0.024328412,0.09161659,0.08400091,-0.10897592,-0.049316503,-0.2149862,-0.17565937,0.035829425,-0.06624544,-0.09510045,0.16046609,0.0257011,-0.16826771,0.10355702
/music/performance_role/regular_performances./music/group_membership/member	-0.07575134,-0.19780686,0.13345169,0.07201562,0.16072841,0.13141297,0.06528743,0.025682129,-0.10595881,0.09553882,0.04527094,-0.06968947,-0.03568728,0.0037042107,0.20145074,0.08674453,-0.19942524,0.019260984,0.13371226,0.03662448,-0.08259002,-0.1651942,-0.08326208,0.017264763,0.032840174,0.058006667,-0.010746692,-0.09374567,-0.056595992,-0.30032915,0.20754336,0.384985,0.130283,0.13394894,0.19126455,-0.09874542,0.16661984,0.11236532,0.28374237,0.18546008,-0.026679518,0.0575834,-0.07761701,0.021211913,0.3588771,0.026147118,-0.031674664,0.089939676,0.13355105,0.016214091
/base/nobelprizes/nobel_prize_winner/nobel_honor./base/nobelprizes/nobel_honor/subject_area	-0.014539279,-0.07481418,-0.030292023,-0.04940205,0.021103662,-0.072727464,0.11321688,-0.047088597,-0.101662286,0.012823975,0.037869327,0.33021164,-0.21791598,-0.0489086,-0.2828969,-0.2914828,0.067391,0.1458848,0.019067634,-0.06643226,-0.21235555,-0.20485012,0.018365491,0.1095023,-0.04090379,0.11691613,-0.18492734,-0.09963795,0.10704829,-0.18231244,0.06408158,-0.20095,-0.0393203,0.16063738,-0.040941104,-0.12483306,-0.080074586,-0.11232347,0.23509882,-0.19766293,0.11500715,0.08941649,0.02759875,-0.14204857,0.14152828,-0.10708289,-0.18549798,-0.031461284,-0.17885673,0.03837748
/people/cause_of_death/people	0.049576003,-0.17035973,-0.12546133,-0.0032868509,0.14122154,0.021786429,0.025821518,0.06485056,0.07715046,-0.32312012,-0.061971385,0.11815152,-0.04580984,0.22529577,0.29876506,-0.048044264,0.07414081,0.047800623,-0.002051415,0.09144102,0.0920851,-0.36845833,0.1778613,-0.10281522,-0.0019779408,0.18698621,-0.17338935,-0.21143411,0.21279675,-0.043200552,-0.0757622,-0.037041936,0.13467512,-0.003275154,0.013712604,0.15170301,-0.045134846,0.043731958,-0.10512276,0.19244085,-0.051506355,0.10742875,-0.114395365,0.2500725,-0.19397147,-0.10901142,0.010284551,-0.18063822,-0.106524765,-0.10728702
/tv/tv_program/languages	0.121820234,-0.08642525,-0.19298345,-0.07662069,0.101157,0.12598953,0.07895838,-0.2692456,0.048570048,0.2600479,-0.18987694,0.10518256,0.17818554,0.04200492,-0.28764313,-0.14233327,0.03568831,-0.09628619,0.08275213,-0.050045814,0.12419202,0.08634919,0.11432525,0.020840827,0.030619323,0.056424797,-0.16922224,-0.15518655,-0.03601257,0.09143043,0.31456062,0.045773633,-0.10187289,0.08601165,0.14271265,-0.34723806,0.16059877,-0.07254103,-0.13426374,0.050901428,0.11463956,0.11880636,-0.19637185,-0.12579945,0.093312375,0.06901584,0.2054464,0.0047967653,0.067200094,0.0076131974
/user/alexander/philosophy/subject/philosophers	0.050810218,-0.0633001,0.036575824,-0.018642832,0.066775374,-0.012605372,0.22746417,0.24753584,0.16051534,0.18908143,-0.35506082,-0.07431023,-0.015779277,-0.08363759,-0.111550726,-0.037145182,-0.19741243,0.047979835,0.17011212,0.044023093,-0.19529326,-0.06356252,-0.08364164,-0.24010375,0.105348706,-0.07670163,0.046404764,-0.20232937,0.047303118,-0.0040427805,-0.18015619,0.17783429,0.26252934,0.16956158,0.05113799,-0.12024629,-0.039974995,0.2348093,0.08682133,0.012100209,-0.12487926,0.23653081,0.0030302838,-0.043497574,0.16062523,-0.0244471,-0.17368743,0.1243941,-0.07780615,0.04288206
/common/annotation_category/annotations./common/webpage/topic	0.009895242,0.036266826,-0.15302916,0.027704075,0.24698807,-0.04173856,-0.2807273,-0.015767036,-0.19856337,0.010215798,0.198315,-0.07360517,0.11676156,0.10068191,-0.18589975,-0.26708362,0.19137467,-0.07305738,-0.06899,-0.257092,-0.020921296,0.08070305,0.02778252,-0.37786585,-0.09368356,-0.026955072,0.038865313,0.09702841,0.01938098,0.016206212,0.26767087,0.11858029,0.14854348,-0.09674898,0.003581783,-0.14404847,-0.2873167,0.09865194,-0.050161406,-0.0570171,-0.013464261,0.034718454,0.10966826,0.11791267,0.055474576,0.026948305,0.11162191,0.05393997,-0.05631899,0.22050351
/music/genre/parent_genre	0.17450918,-0.16991363,0.15735137,-0.05166306,-0.16632861,-0.025476713,-0.04488894,0.22663613,-0.11578866,0.062033836,-0.21866405,0.19344138,0.072804905,0.13380519,-0.16681343,-0.13175164,0.17953423,-0.052098636,-0.36894792,0.14741114,0.17753524,-0.12181552,-0.051947985,-0.20662898,-0.057358485,-0.15081017,0.12626284,0.016315145,-0.017474148,0.31443214,-0.10138183,0.036130384,-0.084636815,-0.059796564,0.006562981,0.116695955,0.10845011,0.05965065,-0.07716709,-0.03623292,-0.2887065,0.1500153,0.03142698,0.07419725,-0.18880625,0.07396334,-0.05457916,0.0032218988,0.019778272,-0.13898632
/base/popstra/celebrity/breakup./base/popstra/breakup/participant	0.18056452,0.16956183,0.09386129,0.10128436,0.12130113,-0.25839785,0.078547545,-0.13733071,-0.122004956,-0.12740445,-0.06381738,-0.004403154,0.07736576,-0.035953872,-0.19704108,0.14755394,0.1400063,0.07780924,-0.1411126,-0.2809968,-0.07625984,-0.05377346,-0.045928907,0.08507866,-0.022256793,0.033098873,-0.16335252,-0.10402345,-0.0039832424,0.044513013,-0.10714359,0.011724324,-0.16984603,-0.02327285,0.15672731,0.15832165,-0.02451601,0.0063334275,-0.23380415,0.06816093,0.164728,0.07755802,0.03476398,0.11625124,0.4784053,0.014048917,-0.019731343,-0.23738615,0.09875323,0.17966537
/influence/influence_node/influenced	0.09730073,-0.18247652,-0.08046902,-0.1731749,0.095212996,0.2784977,-0.24675952,-0.029335242,-0.23645097,0.13573593,0.03546313,0.30313262,0.07621288,0.11732624,0.00042142396,0.08804372,-0.15007919,0.07391217,0.16053253,-0.14208275,-0.044034753,0.08364716,0.15691386,0.1924112,0.058397267,0.19834538,0.06848071,0.16089585,-0.06022995,-0.009202862,0.30775145,-0.0014949511,-0.07529194,-0.032583553,0.069326304,0.058156177,0.057164337,-0.07322766,0.08435312,-0.102751724,0.09915794,0.12092042,-0.19419655,-0.11692704,0.15056324,0.20126793,0.014598658,0.18003482,-0.20896766,0.032357648
/location/country/capital	-0.13191713,-0.14944018,-0.15467621,0.11745067,-0.0072631217,-0.102840945,-0.18816799,-0.08892026,-0.20027147,-0.03976915,-0.17829785,-0.16921265,0.13817663,0.08322016,-0.029639576,-0.01811308,0.049977705,0.056975007,-0.0006007826,0.0022017176,0.10434805,0.10204312,0.010081545,0.19112706,-0.025006734,0.14103204,-0.1365166,0.22183973,-0.019124962,0.20341276,0.1039102,0.14217046,0.066190764,0.24057122,-0.23377688,0.11171788,0.03249209,-0.11977382,-0.031620096,-0.24498671,-0.15720914,-0.041259974,0.022664282,-0.03757373,-0.12667473,0.36731374,0.11089556,-0.05098135,-0.2704111,-0.20329864
/film/special_film_performance_type/film_performance_type./film/performance/film	0.08251477,-0.15061328,-0.27074155,-0.21173073,-0.20461826,-0.07799354,0.2298159,0.038038973,-0.029447434,0.08600161,-0.16200608,0.11735694,-0.06407295,0.11245057,-0.2073893,-0.07839895,-0.20071061,-0.022919586,-0.09724873,-0.06897073,0.04091727,0.22732104,-0.114934064,-0.07532177,0.13584553,0.22849105,-0.048766945,0.142696,0.048144083,-0.07329418,-0.12202558,0.07976214,-0.01757615,0.1199712,-0.03203089,-0.17383698,0.23171897,-0.09705779,0.119073644,0.07122072,0.017941425,-0.07226366,-0.027105547,-0.2673971,0.04151758,0.23012294,0.15914279,-0.058224723,0.23402014,0.036024738
/olympics/olympic_participating_country/athletes./olympics/olympic_athlete_affiliation/sport	-0.17906305,-0.1377671,0.07196267,-0.0012350931,0.14113243,0.21485038,0.006668255,-0.18820202,-0.015155661,0.15904249,-0.023625603,0.047212116,0.26225403,-0.18352307,-0.08893845,0.06331704,0.23769933,0.010226234,0.09589305,-0.2536018,-0.043823563,0.07143885,0.215395,-0.03257448,0.21596144,-0.101057306,-0.0759063,0.0006419927,-0.15867987,-0.035598204,-0.23659071,-0.029842766,0.10349321,-0.01618261,0.08157144,0.2376805,0.1385055,0.005951428,-0.11115227,-0.34393817,-0.11945491,-0.08800875,0.016020915,-0.08706183,0.09303047,0.2539055,0.009863461,0.090844885,0.004569995,-0.001976258
/film/writer/film	-0.2973047,0.08291568,0.18767276,0.16706046,-0.23124747,-0.11300734,0.16739355,0.07427881,0.00590389,-0.13384742,-0.22127378,-0.18769072,0.22939768,-0.02071527,-0.23958449,-0.080636196,-0.007054612,-0.2695821,0.0029661132,0.09399404,-0.14134233,0.0033945898,-0.051436123,-0.04417894,-0.09766183,0.056467988,0.07572152,-0.10155847,-0.12640648,-0.075445734,0.18521872,-0.09432577,0.20522615,0.09873823,-0.078277476,0.022172762,-0.25711855,0.08122867,0.13262758,-0.118513346,-0.07078154,-0.04363755,0.1820063,0.026020242,-0.078982085,-0.09020795,-0.10910326,0.23670737,-0.09970074,0.14689918
/soccer/football_team/current_roster./sports/sports_team_roster/player	0.004884739,0.10203002,-0.0362062,0.021364514,0.050998278,-0.083405025,0.07505868,0.17299433,0.11295328,0.3742637,-0.31715566,-0.20379372,0.14072198,0.049502783,0.103786625,-0.23769328,-0.19601537,0.18943915,-0.13736197,0.022731492,0.004691263,0.1391001,0.10914664,-0.05912715,-0.053208828,-0.027056733,-0.08983361,-0.14598127,-0.07318983,0.078569815,0.08379304,0.1598899,-0.07481339,0.04349072,-0.1414243,0.06430353,0.12534687,0.30630633,-0.18678685,0.14075756,0.23253176,0.0052702734,0.12947136,-0.02589518,-0.06367305,0.17607693,0.020202234,0.10363221,-0.19159043,-0.04864706
/film/film/starring./film/performance/character	0.09769212,0.23376116,-0.024208972,-0.046334896,-0.22018453,0.11099153,0.1575563,-0.2970927,-0.13145778,-0.103311196,0.038977347,0.388307,0.028295554,0.043994825,0.05356695,-0.24222681,0.14860897,0.084930554,0.0011321454,0.016251706,0.16200823,0.1509043,-0.06628346,0.003825182,0.15637366,-0.08124243,-0.22405952,-0.046440516,0.17379272,0.0065878243,0.047550306,-0.0015242329,-0.22823279,-0.05121212,0.00044307314,-0.018454915,0.16602428,0.0038314357,-0.14702737,0.15331922,-0.03622428,-0.028922189,-0.27103567,-0.13880537,0.03824749,-0.0073731397,0.19934185,-0.2273845,-0.011226589,-0.0050596693
/location/hud_county_place/place	-0.09143646,0.04649203,-0.20636156,-0.05843634,0.0938831,-0.021586033,-0.13742244,-0.03590604,0.022732966,-0.11775636,-0.03494498,0.039243132,0.026294986,-0.13851576,0.07962423,-0.13712852,-0.010554446,-0.1457716,0.20256788,-0.07347044,-0.074335515,-0.10516798,-0.20507742,-0.04832617,0.053961955,-0.03570467,0.18098146,0.5289673,-0.13065521,0.01668346,-0.1130069,0.0054714493,-0.059138738,0.050730824,0.1306686,0.18790945,0.021696588,-0.057915926,-0.06953261,-0.19511005,-0.040195413,-0.093193054,0.014227565,0.17727092,-0.08943605,0.17365982,-0.08487934,0.09995507,-0.039365903,-0.2507869
/location/country/administrative_divisions	-0.021181265,0.07671679,-0.11995234,-0.030501112,-0.07569384,0.1802332,-0.16084442,-0.0035857682,0.096875176,0.12945437,0.050384276,-0.01396815,-0.037007872,-0.07858519,-0.038129885,-0.041065246,-0.07348496,-0.17174135,0.25227258,0.1906763,0.24801861,-0.24506916,-0.22230242,0.24529569,0.0122749945,-0.09396462,0.19782412,0.2682287,0.21261281,0.03881989,-0.13900517,0.071826294,0.006322394,-0.06167699,-0.02615761,0.018551236,-0.025138604,0.10197044,0.08603678,-0.1530702,-0.04016375,-0.011870359,0.21743289,0.013817386,0.00035695313,-0.34967643,0.028829698,0.23613222,0.1180253,0.08998896
/organization/organization/leadership./organization/leadership/role	-0.09126493,-0.020660205,0.08844505,-0.14458416,-0.13606106,0.14814931,0.07118677,0.044362936,-0.1257537,-0.22693272,0.15973172,0.16287,0.23939754,-0.07778942,0.24543594,-0.15360603,-0.053380378,-0.15515424,0.12894829,-0.0275532,0.005460978,-0.12218236,0.03530848,0.14766285,-0.1754572,0.1516329,-0.038094364,0.34561756,-0.055570528,-0.06975006,0.24143654,0.17366558,0.060259525,0.021410242,-0.06290278,-0.058316384,0.08295067,-0.10264067,-0.14708427,0.32983997,0.16771425,0.10918713,0.06550907,0.20741525,-0.12908581,0.14606898,0.0008847061,-0.09985349,-0.0004366868,-0.02104246
/music/performance_role/guest_performances./music/recording_contribution/performance_role	0.0753262,0.019287309,0.071501024,-0.045957264,-0.16769099,-0.048439395,-0.06980313,0.014945761,-0.054824885,0.042787038,-0.22825111,-0.22460833,0.2141493,0.0044028214,-0.11641046,0.09116303,0.058392003,-0.07184203,-0.25567025,0.044753868,0.0012593487,-0.14799106,0.057780985,-0.19987758,0.043751393,0.13157205,0.2430389,-0.0126825785,-0.11334763,0.04585213,-0.088999756,0.08915475,0.42445225,0.028398246,-0.1823333,-0.11633421,-0.25441328,-0.009678782,0.08304239,0.032737654,0.22511011,-0.24270867,-0.114905596,-0.08959443,0.0032094305,0.11754492,-0.1120698,-0.2295474,-0.11339446,0.042931303
/location/location/adjoin_s./location/adjoining_relationship/adjoins	-0.025195405,0.074614264,0.16518797,0.072166026,0.026268251,0.2571749,-0.114752166,0.25883108,-0.17702073,0.08797998,-0.20656806,0.0360135,-0.021475185,0.008459658,0.0013111419,-0.013192627,0.31445605,-0.047975004,0.12512775,-0.0879044,0.08984084,-0.09582608,0.1885599,-0.025471106,0.021131812,-0.015672723,-0.14633176,0.28814727,-0.0007347534,0.07899849,0.048980292,-0.079535715,-0.07089557,0.02759855,-0.08744075,-0.22700863,-0.10234493,-0.08567759,-0.002547317,-0.30717015,0.38949886,-0.041538026,0.04250641,0.061110858,0.031212645,-0.07299437,0.07679151,-0.0015784446,-0.020410357,-0.15241258
/film/film_subject/films	0.045662142,0.18960519,0.22055449,-0.1846687,-0.27991307,-0.13659467,-0.13361377,-0.026327766,-0.0962285,0.14824188,0.023386879,0.16118594,0.16121387,0.062309455,-0.16450608,0.07212711,-0.015011544,0.11827156,0.24300508,0.22538309,0.06593779,0.01656646,-0.027843002,0.044535346,0.103892215,-0.11290497,0.052938484,0.12643582,-0.014874489,0.10343817,0.032585204,0.1420424,-0.0069763763,-0.1423483,-0.025806004,-0.025003202,-0.20403683,0.32094988,0.11889827,-0.06331823,0.15382779,0.06844866,0.14851964,-0.075722165,-0.012759365,0.0017978867,0.11196964,-0.30119276,-0.029905783,0.30493978
/base/schemastaging/person_extra/net_worth./measurement_unit/dated_money_value/currency	0.2123243,-0.036167927,0.010137815,0.18390043,0.018493917,-0.29308438,-0.11454016,-0.13398221,-0.0031853167,-0.17309275,0.09446728,-0.12388567,0.081295654,0.17893298,0.31688538,-0.0026064687,0.049852192,-0.14309105,-0.10752819,-0.012867562,0.13957621,-0.16624577,-0.044052754,-0.0043618944,-0.18328981,0.15671328,-0.017065879,-0.15466845,0.079087324,0.028523976,-0.06991925,-0.03613907,0.18412843,-0.16321936,0.23201482,-0.08874825,0.0024178182,-0.20893507,-0.15979041,-0.021876296,-0.21664561,0.2610087,0.07919736,0.07176323,0.11460328,-0.11004641,-0.057883687,0.04796504,0.27002743,-0.0709838
/government/form_of_government/countries	-0.09768883,-0.0022984778,-0.11857778,0.07626966,0.05641965,0.19914146,-0.063669726,0.0637525,0.13907725,-0.06607545,-0.22950426,0.14165726,0.17411809,-0.37074694,-0.04818899,0.32030812,0.1418192,0.11884841,-0.029562969,-0.1583183,0.040712267,-0.093397215,0.048381254,0.10094813,-0.05406033,-0.26990375,0.058063403,-0.04467743,-0.00019466001,-0.1398978,-0.041493036,-0.21509416,0.005541269,-0.047441583,0.118223555,0.23649925,-0.04717259,0.035773594,0.11198647,0.03450953,0.09962689,-0.0637372,0.09204688,0.11888789,0.31083196,0.008740543,0.08684118,-0.1683469,0.023142057,-0.11376949
/education/educational_institution/colors	0.05825039,0.049926225,-0.17518415,0.006317083,0.05509491,0.09294798,-0.12094723,0.078232676,0.18170844,-0.20140198,-0.10044042,0.29292962,0.03750778,0.095080785,-0.16806401,0.13018617,0.23325881,0.102575034,-0.2523527,0.20994824,-0.058610957,-0.05253528,-0.0070428713,0.016735792,-0.008416301,0.16125491,0.104414865,0.22505368,-0.03480069,0.0643953,-0.051966038,0.05631005,0.07323268,0.016977316,0.10325266,0.19192663,-0.17193145,-0.029490378,0.16358104,0.107963815,-0.15703832,0.044928003,-0.25577402,0.013996167,0.09763564,-0.064912446,-0.04161053,0.42195666,-0.022115687,-0.1395408
/base/aareas/schema/administrative_area/administrative_parent	-0.074156776,0.06039654,0.15122099,0.097845756,-0.030472707,-0.20096518,0.09659697,0.110452786,-0.09635628,0.008050106,0.008823011,-0.13678876,0.014597311,-0.04387277,0.11851109,-0.0649043,-0.1252416,-0.22107787,-0.37024698,0.016238958,0.060334414,-0.24827413,-0.12781101,0.0102782715,0.085582785,0.1329224,-0.26927,-0.09507362,-0.099900864,-0.03191798,0.17789976,-0.077973455,-0.1264965,0.12527564,0.06288344,-0.096632935,0.045950636,-0.1720026,0.40268278,0.015052461,-0.0021599138,0.18657567,-0.01577259,0.041644547,-0.01738534,0.036420777,-0.060566884,0.1923984,0.18943068,-0.23254412
/government/political_appointer/appointees./government/government_position_held/basic_title	-0.15259194,-0.15742864,-0.0089833485,0.14678866,0.011275577,0.18343765,-0.03180737,0.28215402,0.13261163,0.031042876,0.27552053,-0.09897781,-0.17215168,-0.081813075,0.11482358,0.22513151,0.14430012,0.08240947,-0.15636292,-0.11393724,0.19119637,-0.13360082,-0.09993953,-0.22106615,0.14174607,-0.016784491,0.038422145,-0.09289442,0.1551698,0.1581612,0.1373826,0.051437832,-0.15314896,-0.25773072,0.085250676,0.22253099,0.103678465,-0.02909222,-0.12491352,-0.08827057,0.17814104,0.030527005,-0.15262243,0.11992519,0.16242881,-0.005698513,0.0075691342,0.23099801,0.014643755,-0.0013148756
/organization/organization/sectors	-0.08930065,-0.10005864,-0.051332984,0.08215404,-0.2729848,-0.026820807,-0.15539138,0.15196659,-0.23213115,-0.039946433,-0.12894142,0.08933267,-0.18062453,0.024659103,-0.020962328,0.04321153,-0.007186128,0.032787587,0.047694992,-0.19102448,0.005162691,0.09963107,0.020706404,-0.069195144,-0.031404506,0.27907124,-0.05760392,-0.1765031,-0.17635667,0.13979368,0.24889025,-0.014853669,-0.20439371,0.16727918,-0.13534991,0.11631268,-0.16346164,0.038767952,0.1666409,-0.054119166,0.05703997,-0.048400793,-0.033090867,-0.26313418,0.25640643,0.10248305,0.12768237,0.16120306,0.1402817,-0.280423
/organization/role/leaders./organization/leadership/organization	0.05329682,-0.0467868,0.25497246,0.2131456,0.1366252,-0.065804854,0.18787119,0.13552067,0.111906275,-0.15607715,0.09858966,0.124888964,-0.018397441,0.1254676,0.30979225,0.037227888,-0.0485528,-0.0438826,-0.096981555,0.18228799,-0.021715775,0.1320486,0.17093435,-0.009119572,-0.023914197,-0.27084896,-0.2382832,0.025538892,-0.13649671,0.041479785,-0.13801686,-0.12543151,-0.022077996,-0.069833025,-0.04595968,-0.0791957,-0.010976981,-0.14279856,0.15043756,0.15690269,0.034016915,-0.015708406,-0.16381587,-0.10296094,-0.17305417,-0.23599184,0.12839039,0.21842408,-0.09683677,-0.09548457
/location/location/people_born_here	0.09257876,0.013919439,-0.3516175,0.20424916,0.04906964,0.090579726,0.12670209,-0.009190131,-0.26584756,0.1385197,-0.23949833,0.16576365,0.02220445,0.13834393,-0.036455594,-0.01798314,-0.08248049,0.10924032,0.052935105,-0.2757045,-0.084041595,-0.1233139,-0.08886019,-0.18314396,0.06653959,0.042924583,0.020170022,-0.06618247,0.15850928,0.17655127,-0.100040406,-0.14799695,0.07661259,0.03296461,0.08633978,0.13508268,0.096655644,0.019790564,0.23050053,0.0058267443,0.103797235,0.21670072,-0.17463356,-0.0067941574,-0.014831638,0.11941563,-0.039797116,-0.21627173,-0.27390003,0.14326645
/medicine/risk_factor/diseases	0.03542619,-0.11693031,0.09661618,-0.14242317,-0.046375565,0.05205313,-0.012037888,-0.10284659,-0.2538471,0.1121223,-0.08265203,0.0868673,0.094054766,-0.23641665,-0.02456121,0.051133614,0.24168517,0.15877138,0.15124719,-0.19082324,0.15779524,0.04768536,-0.20485586,0.15506361,-0.018855086,0.16544479,-0.07725045,0.35357705,-0.04960691,0.14665867,0.053883232,-0.22912657,-0.18852372,-0.11983849,-0.00249787,-0.055705845,-0.08270785,0.10412398,-0.06290978,-0.2268422,-0.06741887,-0.05842377,-0.1428559,-0.0689937,0.03814607,-0.030175444,-0.053641815,-0.08376898,0.23668265,0.28077477
/broadcast/tv_station_owner/tv_stations	0.01634809,-0.015355264,0.025264788,-0.11642837,0.14414082,0.0040527834,0.14997752,-0.1442377,0.16305347,0.20505278,-0.037721552,0.19330063,0.24409325,-0.010269077,-0.13011108,0.18268679,0.25240028,-0.039032534,-0.20730342,0.045297638,0.0693511,-0.021560669,0.12521015,-0.06715637,-0.14852414,-0.17444687,0.16725063,0.1258673,0.0042131944,0.27271858,-0.14495316,0.02575587,-0.0460304,0.07873676,-0.059528377,0.1388275,0.10406964,-0.08607829,0.077913284,0.33317083,-0.07245651,-0.13317202,-0.045069728,-0.03591831,0.0015359469,-0.069580644,-0.09483617,-0.09772474,0.12205604,0.17970033
/government/legislative_session/members./government/government_position_held/legislative_sessions	-0.029893054,-0.077021874,0.10338829,0.14046355,0.14001599,-0.22486417,-0.08628237,0.13283986,-0.22096899,0.013703112,0.17805065,0.16836277,0.026931606,-0.019043913,-0.040826537,0.02594004,-0.09771614,0.1314207,0.07549913,-0.017276265,-0.17337637,-0.1386551,-0.10992331,-0.23302901,-0.09515365,-0.13033286,-0.052161094,0.08978325,0.12890916,0.04821033,-0.26399562,0.16432229,0.109261304,0.2494813,0.120666265,-0.054565933,0.15542923,-0.06943498,0.04014958,0.14467014,0.259678,0.12625767,0.095498644,-0.20647627,-0.12594388,-0.07332707,-0.11306323,0.063363045,0.099632315,0.084476486
/olympics/olympic_games/sports	0.047867958,0.14922324,0.30323356,-0.045400135,-0.22078003,-0.09712052,0.08515569,0.25470334,0.107025154,-0.07678886,0.012223577,0.11617472,-0.16156231,-0.03034335,0.1648437,0.124678634,-0.2938099,0.09033125,0.08519612,-0.042189535,0.017857682,-0.08446242,0.13994999,0.18456468,-0.021292176,0.06547643,0.08571526,0.11975965,0.012323708,-0.12773351,0.040667627,0.017803887,0.11315072,0.16343014,0.084296696,0.10176602,-0.2683843,0.2600148,0.16928852,-0.15079984,-0.19165668,0.11630271,-0.011806031,-0.11838365,-0.053449146,0.05819281,0.2148728,-0.01569344,-0.0060208263,-0.07768909
/people/person/places_lived./people/place_lived/location	0.28873986,0.12425868,-0.004464484,0.21572037,-0.17018557,-0.021215275,0.013978077,-0.044124156,-0.22054143,0.052848093,0.104545,-0.18865444,0.06742855,0.22739886,-0.16367169,0.12020521,-0.045580108,-0.10492265,-0.1798417,0.11971745,-0.0016485612,0.010246327,0.2850869,0.1423151,-0.0681777,0.04672274,-0.113051884,0.065626055,-0.1266149,-0.22772554,-0.2170946,0.00033856757,-0.05362918,-0.005561731,0.059483614,-0.051405955,0.027474955,-0.043156356,0.080690816,-0.10178271,0.12066251,-0.08855273,-0.40560198,0.036307104,0.05885936,0.002922197,-0.09595639,0.15222839,-0.16219921,0.21974775
/government/legislative_session/members./government/government_position_held/governmental_body	0.11459427,0.122910105,-0.1398561,0.049760044,-0.4090286,-0.014504089,0.27904597,-0.046642754,0.10230353,-0.14447069,0.043327298,-0.049035683,-0.022641703,0.08935741,0.037487373,-0.1324705,0.20078847,-0.09877375,0.042167857,-0.04446995,0.14615914,0.2606963,-0.17033808,0.1358809,0.22810777,0.26995635,-0.08932749,-0.13056241,-0.088962525,0.22451441,0.039133467,-0.14740668,-0.025366776,-0.06667202,0.027483683,-0.21637021,0.07372972,0.11708399,0.03204853,-0.047069926,-0.015795989,-0.04297313,-0.038642798,0.13848804,-0.026427789,-0.045800447,0.2374996,0.026611382,-0.14251667,-0.124236345
/location/hud_foreclosure_area/estimated_number_foreclosures./measurement_unit/dated_integer/source	-0.026740808,0.06730373,0.17735773,0.02484181,-0.093821175,0.026937954,-0.020487698,-0.22510016,0.1743727,0.011049916,0.32177445,0.03501107,-0.13155064,-0.11623414,0.06245678,0.039141696,0.1611114,-0.15322867,-0.2917344,-0.12909292,-0.0013202889,-0.06561727,-0.13447277,0.0675111,0.0823494,-0.11319632,0.3164837,-0.12444421,-0.1385336,-0.1453988,-0.053765092,0.022046912,0.04549167,-0.022337956,0.08922325,-0.008566098,-0.108222455,0.20887218,0.027573066,-0.07016537,0.23555893,0.11991601,0.2580424,-0.056268565,0.19638567,-0.15956137,0.17010625,-0.20913303,0.0059487936,0.1594916
/award/award_category/disciplines_or_subjects	-0.3485162,0.0003095892,0.163042,0.21350387,0.11460798,-0.27580154,0.113567516,0.06649798,-0.016544877,0.02769,0.0728345,0.16758274,-0.042438,0.059722506,0.06254598,0.06762755,0.076966606,-0.050760295,-0.11567294,0.052024215,-0.18778974,-0.02401698,-0.050752185,0.089929715,0.019863818,0.010767043,-0.054380465,-0.01929729,0.015433688,0.07073025,-0.2959024,-0.1322866,0.23425917,0.053048003,-0.010546262,0.091867745,0.024571715,-0.26800016,-0.09646655,-0.086356826,-0.25602904,0.18503101,0.028845824,-0.10162907,0.28060153,0.26502028,0.020140836,-0.14843762,-0.04037002,-0.1640469
/sports/professional_sports_team/draft_picks./sports/sports_league_draft_pick/school	0.2605632,0.20607813,-0.11384785,0.13529463,-0.09642059,-0.056836903,-0.0048034815,-0.28634587,-0.14680307,0.072538875,0.1819812,-0.09016874,0.13806309,0.10512981,0.103149295,0.14750756,0.032187548,-0.023391893,0.1808439,0.15193594,-0.10516933,-0.08420466,0.26788583,-0.07308622,0.32254565,0.07740455,0.032855824,0.17956638,0.082810506,0.09150161,0.02958796,0.105844386,-0.12301492,-0.21083178,-0.016206706,-0.12736088,0.07295463,0.12676859,-0.26198852,0.040277548,-0.14128649,-0.25108954,-0.11891918,-0.09645405,-0.07619561,0.077409096,-0.054615922,0.00885494,-0.012577857,0.031500388
/olympics/olympic_participating_country/medals_won./olympics/olympic_medal_honor/olympics	-0.13206586,-0.18712793,-0.03395919,0.12584051,-0.100003876,0.1736129,-0.30287266,0.1027145,-0.14877915,-0.03153987,0.06553787,0.05620838,0.14624904,-0.015652006,0.0565227,0.11600632,-0.0038780374,0.24982937,0.06487017,-0.3175005,0.14605547,0.062484227,0.13322298,0.07547746,-0.13352408,0.121329516,0.14559053,-0.09973656,0.1430276,0.099043794,0.108938225,0.06564834,-0.15519708,-0.027725052,0.08905819,0.16153182,0.05884175,-0.05930874,-0.07086324,-0.040858775,-0.18637083,-0.08117173,0.2255771,-0.13239695,-0.17678916,0.20832671,0.09000621,0.18115391,-0.007679999,0.20336501
/language/human_language/countries_spoken_in	-0.33411333,0.14498731,-0.040106498,-0.15288018,0.040893946,-0.14860335,-0.065692924,-0.03675557,-0.0056773177,0.07810016,-0.10755815,-0.17761557,0.15721926,0.06697489,0.24628128,-0.03387497,-0.14315607,-0.11045348,-0.17296217,-0.13862766,0.12206067,0.10300635,-0.020780154,0.049564667,0.0516733,0.19793366,0.21475323,-0.08287544,0.0070093116,0.11013047,0.2580623,0.1336848,-0.029645525,0.007628225,-0.24973941,0.11363221,-0.07673765,-0.26287797,0.25563988,-0.10346596,-0.023661511,-0.016097624,0.07561278,0.08239642,-0.10050226,0.030294685,-0.013502789,0.068527184,-0.066097446,0.33010253
/symbols/namesake/named_after	-0.13633685,-0.07996095,0.15098841,-0.04677707,-0.010569898,0.14485824,0.093113154,-0.06673916,0.17892319,0.016605116,0.08619137,-0.012243648,-0.24080795,-0.15616363,-0.041730784,0.029101552,-0.07894647,-0.24493168,0.10044856,-0.22996539,-0.06792966,0.120128006,0.13150069,-0.115204096,-0.09483478,-0.12802882,0.007860208,-0.0015033126,-0.036945686,0.20002802,0.055807848,0.124825954,0.08703697,0.22746201,-0.037132625,0.27841002,-0.21234085,-0.15966554,0.3207274,-0.2169635,-0.06252334,-0.013341158,0.044683464,0.19889426,-0.036495514,-0.22076643,-0.23753192,-0.09300934,0.029703572,0.079113424
/organization/organization/phone_number./common/phone_number/category	-0.0768309,0.18380365,-0.20956565,-0.0896561,-0.121412374,0.015080286,0.085468456,-0.14654821,-0.25277486,-0.07399126,0.13635857,-0.09867693,-0.07121838,-0.023560474,-0.116221845,0.109190345,-0.05700217,0.24277808,0.09774703,0.07037136,-0.09453825,-0.086906426,-0.028898932,-0.13431728,0.2416579,-0.011736646,0.0852409,0.021807725,-0.15764497,0.12908149,0.07206905,0.058801502,-0.035191104,0.20305745,-0.11204267,-0.016814029,0.16047792,0.0021971057,-0.1089161,-0.1465239,-0.09431165,-0.16659713,0.06969083,0.009821453,0.24382511,0.28268912,-0.2097795,-0.31612214,0.24489647,-0.0898018
/award/award_winner/awards_won./award/award_honor/honored_for	0.09063356,-0.07561416,0.08541932,0.082680956,-0.1613346,-0.034076393,0.19395092,-0.2496053,-0.1326215,-0.13627964,-0.16262029,-0.045850117,0.02999853,-0.30749765,-0.07169008,-0.15149906,-0.041862167,-0.32406926,-0.048717067,-0.01735021,0.088052586,0.0052063256,0.004962014,-0.09898204,0.15556204,0.1464089,0.16166414,-0.048667714,-0.15640709,0.036262397,-0.066628866,0.07878031,0.12616135,0.2389775,-0.1551982,-0.15294082,0.15674263,-0.045621917,0.018777614,-0.057381928,0.022224499,-0.10073084,0.19283146,-0.32799476,0.0050507076,-0.06536252,0.22084458,-0.16601703,-0.07161142,-0.1627271
/people/ethnicity/people	-0.10414727,-0.16490452,-0.119478166,-0.061539732,0.21429086,0.075086,0.04211642,-0.25992104,0.14284381,0.19723918,0.15532899,0.09884567,0.108482696,0.073248245,0.050108206,-0.0089330785,-0.1763468,-0.04428196,0.20721538,0.2418021,0.081779286,-0.050438736,-0.11308957,-0.13623485,0.25822735,-0.08130922,0.23789878,-0.21115622,-0.018138146,0.19405535,0.19305824,-0.065833524,0.050672498,-0.07562685,-0.12186866,-0.10756677,-0.18692951,-0.062169857,0.14268665,0.056140773,-0.013665171,0.25061074,0.27117994,-0.0367527,-0.07139239,0.14694408,-0.05513214,0.06558831,0.005765686,0.102272905
/fictional_universe/character_occupation/characters_with_this_occupation	-0.2943597,-0.09973093,-0.17089537,0.14568765,-0.16000862,0.22782882,-0.16768835,0.098435804,-0.027953869,-0.010216249,0.11682976,0.010797298,0.031550273,0.077738285,-0.23285082,0.07608741,0.08620701,0.07600218,0.17490591,-0.35351837,-0.053553253,0.06534911,-0.0041770265,0.1950339,0.039530814,-0.06679371,0.006868602,-0.06386901,-0.102178894,0.12359012,-0.024329277,-0.16952765,-0.015096919,-0.20373741,-0.05643676,-0.12400162,0.035707187,0.1218701,-0.02387787,0.2776332,-0.2465968,-0.18958302,-0.15767133,-0.08464758,-0.060959183,-0.04392745,-0.09250988,0.023533508,0.227719,-0.09645048
/architecture/museum/type_of_museum	0.13703713,-0.10246022,0.06740953,-0.115610726,-0.16620937,-0.08195546,-0.19717923,0.20789835,-0.13061468,0.07396405,-0.15880306,-0.25673705,-0.18784292,0.12960611,0.056156963,-0.15619269,-0.14057247,-0.07233211,-0.1237028,0.104649685,0.17971218,-0.022672886,-0.2062788,0.022421638,0.09318791,-0.25396892,0.0043784264,0.106076054,-0.040085874,-0.260165,-0.04814655,-0.16446699,0.0006756166,0.17707036,0.19907887,-0.03495548,0.095514685,-0.15334491,-0.2099551,0.1328925,-0.10035405,0.17199202,-0.05994164,0.19748066,0.04094046,0.22701272,0.08834627,-0.040414125,-0.10903318,-0.09735475
/olympics/olympic_participating_country/athletes./olympics/olympic_athlete_affiliation/olympics	-0.06844807,-0.004415122,-0.016915727,-0.17946309,-0.025593774,-0.036778096,-0.1354849,0.20827532,-0.085980736,0.018147573,0.07840025,0.046805874,-0.055983223,0.19888425,-0.057496533,-0.009140831,-0.054672718,0.27815425,-0.23897637,0.2580424,-0.138293,0.1969839,-0.12835595,0.1883773,0.23338275,-0.27691454,-0.045813616,-0.08300991,-0.07063808,-0.21738431,-0.082399786,-0.12029806,0.07897419,-0.1813509,-0.09906675,-0.13459052,0.040793058,-0.009871502,0.1008025,0.111475945,0.11857982,-0.16869324,-0.04492014,-0.050030947,0.3157808,0.18024145,0.00097077194,-0.14401135,-0.009925672,-0.13360108
/olympics/olympic_participating_country/medals_won./olympics/olympic_medal_honor/medal	0.2337008,-0.011469377,-0.0052889576,0.21372609,-0.10206504,0.16546239,-0.009301623,0.1326491,0.30934384,0.16117264,0.073406965,-0.15384193,-0.050790146,-0.16030823,-0.0502738,-0.013984789,-0.27542162,-0.14011373,0.016760737,-0.051447123,-0.019827405,0.1422071,0.15655833,-0.2602358,0.033010844,0.03287099,-0.058984578,0.17968108,0.02755952,-0.21737616,-0.056614157,0.079282664,-0.017045658,-0.04183196,0.23342025,-0.35730734,0.0042179017,0.18653299,0.0698509,-0.08066227,-0.0006181475,-0.095817864,-0.017800258,-0.115506686,0.1686317,0.06409522,0.01773593,0.14752391,0.12317742,0.104773834
/film/film/other_crew./film/film_crew_gig/crewmember	0.29134458,-0.10510718,-0.028136965,0.030382108,-0.02623521,-0.1316288,0.0589971,-0.049716845,-0.092773885,0.09373319,0.13222603,0.40818527,0.27838653,0.0073837903,-0.12837665,0.08074822,0.11704515,0.08495685,0.007918792,-0.21662128,0.21093653,0.066336334,0.0304156,0.012533061,-0.08150272,0.04985091,0.13345948,0.23030894,-0.11197279,-0.10320923,-0.21443135,0.014304215,0.024282543,-0.22320865,0.05263444,-0.111623295,0.15196042,-0.016948452,-0.023582675,-0.22128524,0.13828167,-0.012630883,-0.15905498,0.24660942,0.03134309,-0.06338651,0.03287529,-0.14812869,-0.025558215,-0.03213595
/olympics/olympic_games/athletes./olympics/olympic_athlete_affiliation/sport	-0.05704465,-0.08891112,-0.13521872,0.19419704,-0.15369491,-0.04114625,0.15676396,0.084108286,-0.12730667,0.17207488,-0.338302,0.00720482,-0.1808948,-0.29089132,-0.1576034,-0.011711441,0.008647474,-0.08831277,0.06085402,0.17652518,-0.011792835,-0.025602544,0.16411237,0.28034037,0.1699309,-0.219309,-0.10468487,-0.035326473,-0.18075044,-0.07182525,-0.16955963,0.053627785,0.04925557,0.050209474,0.19489367,-0.06550145,0.028246652,0.12896045,0.07113976,0.055571996,-0.084152825,0.16317295,0.21124491,0.014203101,0.24685928,0.022891399,-0.16527948,-0.0018587066,0.1563401,0.03155101
/music/performance_role/track_performances./music/track_contribution/role	-0.06903747,0.24159038,-0.22392873,0.022009822,0.27566618,-0.06609553,0.031649083,-0.22230384,-0.16435044,-0.10889849,0.0104082,0.07791516,-0.06407961,0.1182533,0.15571657,0.016305324,-0.26982814,-0.04943223,-0.09884837,0.15572643,0.046122853,0.04886346,0.18531197,-0.10669209,-0.050580893,0.13464235,-0.03735488,0.15091355,-0.07310156,-0.056430086,0.07350903,0.16151059,0.072475046,0.09101461,-0.061826695,0.1368224,-0.06830454,-0.16343875,0.097828545,-0.062915966,-0.012356339,0.086177655,0.012415516,-0.3546051,-0.05269781,-0.0011048798,-0.0014943869,-0.064296894,-0.032847058,0.05762048
/education/school_category/schools_of_this_kind	0.20450754,-0.2942374,0.03515015,0.12345413,0.0037720099,-0.22826897,-0.089915514,-0.19451463,0.13048802,-0.28618714,-0.044424016,0.14934888,-0.25380144,-0.04777163,-0.13794646,-0.10272603,-0.14645196,0.052503396,0.1887527,0.00048685528,-0.25521636,0.1138336,0.024877612,-0.19078751,-0.018917104,0.10342438,0.18509574,-0.093350165,-0.15498337,0.0023144765,-0.115725525,0.1990471,0.17814465,0.12915108,0.20827632,-0.07575504,0.055951532,-0.027494982,-0.0355426,-0.03027909,-0.08599636,0.17731284,0.04192651,0.040675465,0.13601977,-0.12771234,0.118750736,0.14286357,-0.083360285,-0.07496035
/sports/sports_team/roster./sports/sports_team_roster/position	0.08024317,0.029123353,-0.29241937,0.0075452626,0.08414836,0.16428663,-0.0931399,0.071713895,-0.063447185,0.10916803,0.0048602796,-0.047132112,-0.23990451,0.06558221,0.19697835,0.20058943,-0.041780967,0.038494438,-0.043047696,0.08176615,-0.01842913,0.23312722,-0.10793941,0.037348438,0.01872142,-0.053632192,-0.003003945,-0.030394483,0.054569278,0.101390995,-0.13402349,-0.074451596,-0.18001623,0.035162657,-0.075487666,-0.0009305248,-0.16058612,0.14640881,-0.04518904,0.335065,-0.2831219,-0.042556744,0.14765614,0.1601434,0.16274168,0.029097969,-0.12759277,-0.31648013,0.087722346,0.12196981
/metropolitan_transit/transit_service_type/transit_lines	-0.19332881,-0.14776097,0.15146948,-0.18834756,-0.16752392,-0.11271999,0.119231835,0.1887563,-0.1688557,-0.10624067,0.12924764,0.14967945,-0.15858534,-0.16914442,-0.10623013,0.14277785,-0.15917987,-0.111116655,0.20447393,-0.20582357,0.10111388,0.13105342,-0.12871517,0.107356615,0.15339074,0.07286948,0.12756902,-0.17937873,-0.06600212,-0.1441215,0.14794005,-0.13712966,0.1917887,-0.15085681,-0.07802072,0.050707646,-0.1439215,-0.12486608,-0.16989823,0.13936646,-0.14453335,0.16311926,0.10686073,-0.13222626,-0.14477362,0.1090618,-0.058420446,-0.10272292,0.15597886,-0.081368074
/music/record_label/artist	0.18514735,-0.07113982,-0.17212494,0.07541963,-0.09273363,-0.097004674,-0.13235441,-0.24551031,0.21375738,0.10294436,-0.003969457,-0.14265148,-0.19263858,0.0108218705,-0.08594506,0.22135109,0.0005718965,-0.0987704,-0.13517708,0.08490299,0.10258263,0.008389736,0.038335,0.11893782,-0.12564372,0.008879423,0.05025178,0.015630888,0.0635387,0.208766,0.07203438,0.0667155,0.017689785,0.25536308,0.10026965,-0.23387754,-0.24327166,-0.07128229,-0.35077643,-0.07136268,0.16351484,-0.060832426,-0.2970359,-0.018049661,0.09069259,0.014948697,-0.073267,0.17474985,0.13042085,-0.051941704
/location/statistical_region/rent50_4./measurement_unit/dated_money_value/currency	-0.0060981177,0.0018985086,0.0035262592,-0.23266864,-0.24320632,0.03743455,-0.0023345174,-0.09191314,0.047809,0.3117705,-0.043709338,-0.16824172,0.04815929,-0.024080602,-0.12939163,0.23456593,0.04855633,-0.1509114,-0.0999869,-0.091846265,-0.22154427,0.104966335,-0.016213013,0.12608889,0.21298702,-0.19335699,-0.11030801,0.10449569,0.25313148,-0.062379077,-0.012472463,-0.22259538,-0.18333477,-0.031312432,-0.15370186,-0.114268705,-0.06034775,0.15151577,0.0864418,0.22000612,0.16522762,0.071042165,0.15749413,0.048213176,0.11782392,-0.109058596,-0.2484781,0.13335858,-0.059510097,0.083912075
/base/popstra/celebrity/dated./base/popstra/dated/participant	0.051543165,0.0027178826,0.15334842,-0.36515462,0.09657715,0.03008444,0.06590628,0.009203939,-0.0028843642,0.0032694025,0.07508861,0.08468778,-0.1390086,0.34759834,0.16187735,0.07388061,0.11998034,-0.070869386,-0.05834743,0.044224642,-0.1540579,0.103299685,-0.15134741,0.08497143,-0.0150694065,0.20203099,0.029007932,-0.033760175,-0.020322895,-0.16521029,0.1128339,0.11123771,-0.0524797,-0.017907804,-0.5613479,0.053398397,0.14257498,0.113540165,-0.017424291,-0.110563695,-0.053510252,-0.09282827,-0.017062098,0.07785363,0.039474815,0.06460202,-0.0540953,-0.23597677,0.02541425,0.080183074
/base/locations/continents/countries_within	0.18871154,0.058603354,-0.04340799,-0.14063454,-0.20451285,-0.07005416,0.06655585,0.13234188,-0.055020016,0.060523678,-0.135969,-0.030760193,0.039897084,-0.038052246,0.17116855,-0.0895773,-0.052144416,0.05027308,0.027345553,0.11059141,0.06593161,0.013237984,0.27939564,-0.16241986,-0.13030015,0.15714867,0.21737346,0.12938575,-0.07397101,0.08718723,0.12867773,0.19332097,0.02599656,-0.1642702,0.094399445,0.17477678,0.04282233,0.1270296,-0.25551552,0.19666274,0.061895173,-0.09934625,-0.004412299,0.14421026,-0.14784646,-0.07360064,0.39963678,-0.015008648,-0.070892096,0.24054986
/business/employer/employees./business/employment_tenure/title	-0.03847189,-0.046355728,-0.027210651,0.03580074,0.1936203,-0.12744544,0.094116665,-0.14520599,0.25990513,0.14216255,0.20845714,0.12653922,-0.101388626,-0.19045584,0.037593473,0.1484455,-0.06465294,-0.09184037,-0.014729699,-0.07308912,-0.10553901,0.028985687,0.0033713996,-0.013598278,-0.015586715,0.025964437,0.12683035,-0.023801288,0.23381494,-0.19455369,-0.20408413,-0.12643373,0.1489843,-0.0261845,-0.12952873,-0.066908635,-0.0050959615,-0.34476656,-0.17100771,0.12961721,-0.097451046,0.15894532,-0.022269279,-0.07862314,0.0027106581,-0.28243202,-0.047710188,0.12828286,0.136638,-0.35732964
/sports/sports_league_draft/picks./sports/sports_league_draft_pick/school	0.106349275,0.20037043,-0.17953132,0.14012714,-0.026981734,0.001650865,-0.1884203,-0.11246745,-0.18758592,-0.08217281,0.13397041,-0.0761462,0.14400959,-0.03359967,-0.31601903,-0.097339906,0.13385428,0.072306626,0.11167036,0.08208882,0.1442376,-0.04235177,-0.12838444,0.011329586,0.33302718,0.1372548,-0.0657867,-0.15696168,0.14530635,-0.25696224,0.08011275,-0.017555265,0.018978586,-0.14097984,0.06618118,-0.16830479,0.050195973,0.17191443,-0.32609138,0.030857313,0.054898817,0.16649847,-0.17040418,-0.0037083167,-0.0738868,0.15018217,-0.080626816,0.050652947,0.15654053,0.055449966
/music/musical_group/member./music/group_membership/role	-0.14840868,-0.18930271,-0.020343214,-0.009815241,-0.18487899,0.1751286,-0.046059415,0.015248459,0.0503097,0.035021424,-0.0076037818,-0.07197806,-0.17170995,-0.026029812,-0.22649762,-0.082723945,0.35074753,0.06447306,0.08598768,0.049719706,0.046105243,-0.0032081322,-0.16058177,0.120631576,0.20399891,0.12750229,-0.13482599,-0.20396592,-0.20113926,0.09239036,-0.01454044,-0.02024407,-0.040659018,-0.24465747,-0.10290146,-0.017598365,-0.05045132,0.037788045,0.06979109,0.12510286,0.09169336,-0.0062354193,0.31566128,0.23845959,-0.10398946,0.008987852,-0.011980495,0.011205983,-0.22085874,-0.20226318
/sports/sports_team/sport	-0.10889002,-0.015648114,-0.090847984,-0.26767832,0.13284606,-0.12661411,0.006230809,0.049047943,0.07632354,0.061858445,-0.13586114,0.051053233,0.3163585,-0.15175025,-0.03904628,-0.098414555,-0.057411823,0.075585,-0.13225776,0.08311316,-0.108656764,-0.15815717,-0.14105587,-0.07380654,0.05239995,-0.09221808,-0.16604488,-0.1123058,-0.10486035,-0.111982614,0.021232137,0.18189004,0.14619437,-0.0769185,-0.18605132,0.23006907,-0.15914696,-0.04780934,-0.012886018,0.44960272,-0.16012633,0.28978276,0.029005257,-0.116388306,-0.024371922,-0.1278501,0.048032347,0.009705947,0.09523072,-0.07473032
/film/producer/films_executive_produced	0.2487173,0.21291669,0.020419396,-0.03401065,-0.02334698,-0.07098048,0.065752044,-0.07770714,-0.2414729,-0.122023866,-0.07437003,-0.22912303,-0.16580254,-0.05032336,-0.09435053,-0.14412849,-0.12605086,-0.30073586,0.13913463,0.02623313,0.14006801,0.027573433,0.18946438,-0.05348004,-0.020077497,0.08516799,-0.10068213,0.028753283,0.084005594,-0.025950432,-0.01736266,-0.010286513,-0.18108025,-0.1868592,-0.11943467,-0.3604085,-0.08310551,-0.21727735,-0.11224075,-0.07948428,0.28642341,-0.027585147,-0.05658627,0.104692616,-0.12811048,0.024652693,0.2488726,0.0100981975,-0.030977158,0.067864075
/education/educational_institution_campus/educational_institution	0.025134983,-0.016793676,-0.062145293,-0.03575785,0.07991726,-0.010339764,-0.08070557,0.009774179,-0.05337193,-0.13807666,0.11353362,0.008574439,0.096676536,0.111987256,0.025184039,0.17799062,-0.10150868,0.031388536,0.004221394,-0.02055935,-0.036686704,0.081242956,0.22580247,-0.11256404,0.11031471,-0.007961121,0.1683677,-0.10062094,0.039534852,-0.032889936,-0.049815107,-0.098745316,-0.06319246,-0.012253745,0.104479425,-0.043041803,0.113622956,-0.1428028,0.10203917,0.015558926,-0.13856383,-0.11711894,-0.047592014,-0.029144876,0.08344186,0.021712827,0.14171752,0.016706474,-0.05612933,-0.18610986
/sports/sports_team/league./sports/sports_league_participation/league	0.10906214,0.034723602,0.039941575,0.030001972,-0.09369781,-0.084610365,-0.17908935,-0.2733117,0.12479493,-0.202272,-0.26953545,-0.0060009253,0.17926845,-0.20459071,0.06056694,-0.07797024,-0.017129483,0.06121264,0.14093336,-0.0059368955,-0.035940398,0.03155834,-0.16102277,-0.0072743213,0.11059726,-0.09363681,-0.13264444,-0.06114245,0.068352595,-0.031382572,-0.14611834,0.06899097,0.1470154,-0.03431891,-0.10431387,-0.1137244,0.41942906,-0.3288996,0.05700262,-0.04028062,-0.16712366,0.084311955,0.09139292,-0.0844285,-0.12768021,0.13521472,0.19867404,-0.1911468,0.08859151,-0.032394897
/american_football/football_team/current_roster./american_football/football_roster_position/position	0.012552858,0.21416743,0.29223484,0.06432612,-0.1842021,-0.31068283,-0.109472275,0.0067448937,0.10220281,0.092911646,0.03399223,-0.14955045,0.0029276821,-0.1768325,-0.13627419,0.020580065,-0.15285055,-0.05201885,-0.04530389,0.27139178,-0.11435355,0.051015187,-0.07445302,-0.06851786,0.09786615,-0.053872958,0.24147832,0.05137598,0.09703865,0.25385416,-0.30137312,0.017937297,-0.08933771,0.12921041,-0.12725589,-0.014860691,-0.1098113,-0.11631779,0.0042079813,0.042648748,-0.107292876,-0.20565018,0.12562013,-0.09930315,0.13640228,-0.16297813,-0.20148046,-0.086992554,0.12224095,0.0819554
/location/location/events	-0.0372164,-0.12160905,0.0012489562,-0.04577976,0.0676293,0.25368336,0.07325295,0.25528553,-0.06516705,-0.018312136,0.06489984,-0.12637745,0.09781657,0.13663077,0.013697665,0.029662466,-0.08711947,0.035545707,0.28860173,0.12011597,0.07635713,0.26430786,-0.08382304,-0.011382685,0.0035092868,-0.18262821,-0.25272617,-0.26724893,0.07589583,0.18357398,0.050535865,-0.04531726,0.00528043,-0.29633665,0.0006862458,0.06364367,0.28294763,0.07181964,-0.10673638,-0.14929521,0.17138956,0.013331482,0.019327512,0.14986861,-0.10650343,0.084974535,0.06840701,-0.239697,0.057451792,-0.0033906265
/people/person/religion	0.0722036,0.15343529,-0.06518256,-0.28688872,-0.2643959,-0.027507676,0.024334887,0.0271666,-0.16536994,-0.17690738,-0.00048983615,-0.112129666,-0.07185552,-0.002143311,0.19041748,-0.33738938,0.19543336,-0.055785842,0.22079742,0.20707259,0.05159333,-0.037018705,-0.08863959,0.0069967825,0.028110575,0.19558659,0.21225785,-0.09175038,-0.22561114,-0.16279097,-0.11731864,-0.26877764,-0.12600973,0.18844867,0.10044335,0.0762554,0.17468043,-0.054238006,0.0056510447,-0.050361678,-0.14818229,-0.015045935,-0.13279326,-0.09226797,-0.15262032,0.039833568,0.021356637,0.024796635,-0.080394015,0.020081302
